8.954402879670714244e-01,3.634120587796416668e-01,8.508605922954327605e-01,9.983039032513075783e-01,1.655568616293686679e-01,6.330637305333640663e-01,3.209395564094232878e-01,3.059304170730035022e-01,3.845923457486377650e-02,1.904556637850549627e-01,8.689455694083859649e-01,1.564322633087578129e-02,4.015736337282294066e-01,7.235827120284904490e-01,4.795753773666806552e-01,1.794743389923844079e-01,8.929135501025998733e-01,6.795403961799928449e-02,8.268672227952994502e-01,1.110058621789259403e-01,9.956853898885893450e-01,9.677760632087093473e-01,6.234525261710915922e-01,3.700506653596143947e-01,1.377893933677041272e-01,4.004993739311449863e-01,6.814269796498202414e-01,7.582188149266810839e-01,7.952845106888188909e-01,4.054763829910648099e-01,3.612523107530867250e-01,5.324691165406820748e-01,7.536030863792342327e-01,8.011947873465307124e-01,9.623819608557621086e-01,9.547424401382339498e-01,5.772336083093704273e-01,5.149228130123981728e-01,7.178053680348226440e-01,-8.921443493609850702e+04,-1.763388791704482283e+05,-7.248716194940332207e+04,1.336131777421621882e+04,4.842073838229662215e+04,8.410606448998513224e+04,3.871865735174236033e+04,4.753869765040054096e-01,4.771880441265743400e-01,8.075873006556499867e-01,9.642861582061258430e-01,1.055162234414035449e-01,2.999350782295585605e-01,7.174584793054282761e-01,8.685006993926753793e-01,1.951470984858205693e-01,4.720964272674635920e-01,6.803641178583224036e-01,9.375348167748860373e-01,6.873243427373096903e-01,1.723354859728136944e+04,5.942305802271006542e+03,7.929574778139467650e-01,5.245628963137725077e+04,5.198378300382770249e+04,9.088282460963786434e+03,8.561363759630713499e-02,-1.712742808835834148e+04,-9.424822876688928227e+04,-1.312546956410159764e+05,6.947116342096513836e+04,2.262570126180066291e+04,1.040149834663391521e+05,2.496886890215188396e+04,-9.507688885172059236e+04,5.113564740121895738e+03,2.995012657960278739e+04,-1.421276303588062547e+04,1.448020986021925083e-03,8.649837550121023400e-01,6.851090311072324246e-01,3.904708304995889723e-01,6.513759326104837655e-01,7.381137983796557389e-01,9.592632110715426652e-01,4.965976603678030621e-01,6.581597667149842179e-01,8.466182550259652999e+03,5.193134355434414465e+04,-3.823175796941996668e+04,-1.359606023351218901e+05,-1.395742654139200458e+05,7.313539057946763933e+01,2.589861966041775595e+05,1.072405749036924681e+05,1.929187813818846480e+05,-2.392285060600177094e+05,-1.214190256999161327e+06,-5.620305896178699331e+05,-1.007974734381077928e+06,-1.736107244136400986e+06,-1.588217076785835205e+06,-9.067740338104518596e+05,-2.862493288622025284e+05,-7.065785018480663421e+05,-3.126686625178937684e+05,6.102016575174441095e+04,5.319836770548473578e+05,3.528766925033522421e+04,-1.769069425663458824e+05,-5.064319860267254990e+04,9.223502252177496752e-01,6.339404429115946815e-01,3.652632342448434155e-01,3.189379796630512631e-01,2.902718753612885484e+04,8.078940113996197761e+04,-6.848627261514410202e+04,-1.502339110389237758e+05,-3.786441098127562436e+05,-2.050988741769715562e+05,2.239247132323443075e+05,-3.063647394123627964e+04,1.568616746095989598e+06,1.258829515716547146e+06,-1.185764339188268059e+05,9.774976837339570047e+05,5.780469614392748335e+05,2.326272264802450663e+05,-7.854503787459378364e+05,-1.973888870213141199e+06,-2.168324779792228248e+06,-1.717562157156123314e+06,-1.381356836184922373e+06,-1.089508931808553636e+06,7.396862515610514674e+05,2.600251428363078157e+05,-5.667242096033085545e+04,8.097735333804252150e+04,3.457219635944415170e-01,2.801268952573027216e-01,6.317186637693220641e-01,3.528793132570160473e-01,8.853491018936132605e+03,1.574079137027300894e+05,6.732297502359005739e+04,1.494098723227995215e+05,-2.972062358088977053e+05,5.819695570704357233e+05,-6.556802921807639068e+05,-4.732671596263707615e+05,-7.759659938086553011e+05,-1.082810868013515137e+06,8.536066493185564177e+05,1.859485044705186272e+06,2.673800853489412926e+06,3.845135745977788465e+05,4.095342111814473174e+05,8.240946248356727883e+05,2.602714001634009473e+05,3.003220507122633280e+05,1.306783799995070003e+05,-1.067876334047287703e+06,5.111174066401858581e+05,7.943982289568466367e+05,-3.380853929161505075e+05,7.675428121273790020e+04,3.558453080509554638e+03,3.752432941784595855e-01,3.822622625658180784e-01,4.583746772599073260e-01,1.205471268869035384e+03,5.653799791429738252e+04,3.084497685847235261e+05,2.014161345228720456e+05,-3.926289316860190593e+04,2.606239548455061158e+05,4.024008875193872955e+05,-1.306660607350426260e+06,9.159083529255556641e+05,-8.868834556063127238e+05,1.422026551979982760e+06,1.881802870140923769e+05,-6.513293462800598936e+05,-1.481578235121279722e+05,1.474398356895057368e+05,-1.257847398051260039e+06,-6.551315730687158648e+05,5.117259846681582276e+05,1.511960969913986977e+06,2.014788598140987160e+05,-3.876916223400629242e+05,3.542983752734175068e+05,-1.317435113794392382e+05,1.836569363453194092e+05,3.570907925641206384e+04,-4.736855087685772742e+04,9.072881531407563926e-01,7.059014716242546505e-01,1.056182039256963617e+04,-5.126149685922633944e+04,2.112612954655140493e+04,9.875259052974844235e+04,1.550233874601167918e+05,8.738290565693900862e+04,-1.137167990937786381e+05,-1.316297916534871329e+06,-4.488504255289317807e+05,4.679104519390400965e+05,-7.662060392353142379e+05,2.275468813328091346e+05,-1.086018316909113666e+06,-3.987271957216417068e+05,-8.755619036211799539e+04,2.303498902233954053e+06,9.593517169376130914e+05,2.059020208324727137e+05,-1.379528165349277668e+06,8.963676559276652988e+05,-2.585741431787811453e+05,-1.531008911752602784e+06,9.668806870506049017e+04,1.028861523431772221e+05,-1.236530440615681800e+04,-9.992918104856311402e+04,-4.186013463711848453e+04,8.882747423756258698e-01,4.956490055536779983e+04,8.396272593071467418e+04,-3.106467469431270729e+05,-4.868091077739599277e+05,-7.281457122509905603e+05,2.057137448053456028e+05,8.635393322018811014e+05,1.440211602651751135e+06,-1.070156558546509768e+04,1.486620698222719511e+04,-5.747705974723706022e+05,5.054370969812673284e+05,1.977208038515943917e+05,9.280189313661463093e+05,7.165698364749228349e+05,9.289410439084494719e+05,6.437386549074962968e+05,-1.118581666789558949e+06,1.136507892352230847e+06,-1.121279030075079994e+06,-2.564376441993679036e+05,-2.599761600438362802e+05,-1.411932374321260140e+05,-9.861943243548215833e+03,9.318752317182155132e-03,5.589446751200182195e-01,2.595669107720112168e-01,5.787394385581009374e+03,-8.871370577195339138e+03,2.092859157767362194e+05,-2.482015634638242773e+05,-7.449536839562136447e+05,7.412168676656037569e+05,-2.283756081889531575e+06,-2.694323836432784447e+05,1.018604360098725650e+06,2.122107275784258673e+04,8.592487942726070469e+04,-2.941879249594553403e+04,7.835502212480797898e+05,2.655079691332767834e+05,5.632198735963919898e+05,2.936399584972113371e+05,-8.682191425366065232e+05,-9.999476910602987045e+05,7.753174893006456550e+05,-3.302759042032903526e+05,1.009242740166683681e+06,-5.468657544302345486e+05,1.091550050712178461e+06,-6.290024554625287419e+05,1.706835426440092269e+05,-8.447772010764741935e+03,9.261307942084008316e-01,7.597468574418593246e-01,9.501434927940430498e+03,-1.091606090808968293e+05,-1.298819703018777363e+04,-6.741594428342413157e+05,-1.043207450518401922e+06,-7.031021449138917960e+05,-1.116556319927029312e+06,-1.095280265680641402e+06,4.578192030045720167e+05,8.821188514132399578e+05,-4.921859892952627852e+05,1.027276874342825962e+06,8.393245965824872255e+05,2.240303137945185299e+05,1.020417403758926084e+06,-1.812110253278400050e+05,-1.175371845997452270e+06,-1.287180052320671733e+06,8.488417819480581675e+05,-1.639772157307940535e+06,-1.327798104441309406e+05,-6.630688334334220272e+05,-8.291167843220045324e+05,-3.154970817525921157e+05,1.710052698774937016e+05,1.061107958554815559e+04,5.734417909316525765e+03,9.144566723121257956e-01,2.491608881313350139e+03,2.043098691368216805e+03,1.195758073793041112e+05,-6.614097499892995693e+05,-2.143620122290656436e+06,-8.208045617030963767e+05,-2.924081875192369334e+05,3.852321696051523322e+05,-1.819005243643400609e+05,-6.717807662813592469e+04,1.010499888316794531e+06,1.064009823032454122e+06,1.020565791055744281e+06,-1.052658942341300659e+06,-1.147684329740606947e+06,-2.887718501601899043e+05,1.554875152600156725e+05,2.379301214091645961e+05,-4.565224094877445023e+05,1.746366863945819205e+05,-2.764874001192641445e+06,-4.719470968964681379e+04,-4.430570242160120688e+04,5.610889231236131163e+05,6.543073500632008654e+04,7.798748936130064249e+04,-2.735843250526789780e+04,9.697802944452198481e-01,8.217862864573771731e+03,-8.169964829712673964e+04,1.348221289324210084e+05,4.154094227240947657e+04,-1.340730467789873481e+06,1.559684271958860336e+03,-1.201830194368306547e+06,-8.671653944765828783e+05,-1.293399427524387371e+06,-3.385709012950328179e+05,5.638719719064786332e+05,1.319188278048874578e+06,2.138551627599112689e+05,-1.077620569432643941e+06,-9.060279803081015125e+05,2.722131569093365106e+05,-2.094910859091585444e+05,-8.361413963971256744e+05,1.020727746727323160e+06,-5.313571508634211496e+05,6.451695859181883279e+05,1.131815913648537360e+06,-9.741846733439867385e+05,3.076049275746765779e+05,9.556211739964055596e+03,4.597031626037576643e+04,-3.852246825653756241e+04,-5.944917295077035305e+03,3.235714193180141228e+04,-1.568571854568978015e+05,8.740280128592142137e+04,-3.956377573492497904e+05,7.589552142921254272e+05,1.850145409261092427e+05,-1.031611400790158426e+06,-2.390894789321341086e+05,1.034961558166894538e+05,-3.490913121723523363e+05,5.342524926622549538e+05,-5.538717619584080530e+05,-3.362796718078514095e+05,-1.833122187590773683e+05,-2.673086903476335574e+05,4.683018133783231024e+05,-2.009977578489815351e+05,-2.228473010980265099e+05,4.646855091793859610e+05,1.178586301854031626e+06,5.190723379364872817e+05,9.283342505484165158e+05,-1.957983916020779638e+06,2.840384515492640203e+05,3.641894643497716170e+05,5.818869199453547481e+03,5.187140051594125723e-01,7.150637581968117829e-01,5.114182255904068386e-01,-2.136997411474214459e+03,-3.515254390448846971e+04,-3.955444902943960042e+05,1.235562626589943655e+06,-3.338481746304176049e+05,5.123625949020655244e+05,2.168581362418093195e+05,3.702089617426804034e+04,1.114121038221479626e+06,-3.681927741083293222e+05,-9.028923312755058287e+05,2.788208143503178726e+05,1.808386602227516705e+05,2.649867379273231491e+05,2.824871403258224018e+05,-6.314292631813437911e+05,1.202548032349535730e+06,-3.293540615801499807e+05,-1.142333550604186486e+06,-3.495998927450376796e+05,-1.427711809740491677e+06,-9.489135799152483232e+05,7.150425014927459415e+05,4.406161049162682320e+04,-3.531581593326312486e+03,5.694466427193315416e-01,1.034684671147918511e-01,4.197757803707025115e-02,-1.249212505023794438e+04,4.843679947135995462e+04,-9.764079651484168135e+05,6.269873760244844016e+05,9.805562135742111132e+05,-8.665943808901192388e+05,6.821024262036049040e+05,-6.084191295742765069e+05,-9.999389494794886559e+05,-1.031145900847357465e+06,-1.012793993161467835e+06,5.230501050815780764e+05,6.621053826132271206e+05,3.282804429815826588e+05,1.132650130743416259e+06,-1.248248585173247848e+06,7.706999729969733162e+05,-6.686440792103597196e+05,-2.659454665606112685e+06,-5.012860627339549246e+05,-5.479884619680210017e+05,-1.237012598461748334e+06,7.656600966589557938e+05,-2.844927556185916183e+05,-1.411990519299304424e+03,2.332593142721496315e-01,4.952307312905118719e-01,1.093806225378635645e+03,-8.189854768600644093e+03,8.223523536245414289e+04,-4.424832710776884924e+05,-7.589663659572369652e+05,4.384529615773886326e+05,-6.303280975864802022e+05,1.636986880661664531e+06,-1.776272912822098006e+06,-1.104846040880179498e+06,-1.033674339947884437e+06,-2.736124947097562253e+05,2.402957884727589553e+05,-4.531537146123905550e+05,1.789489839618812082e+06,-2.015317309410799935e+05,-3.867630489099556580e+05,5.092795463661677786e+03,-2.795480384912936133e+05,-1.944793628297237447e+06,1.195541916955888271e+06,-3.430681936214899761e+05,-4.493946967538511963e+05,1.528565680159279611e+06,-5.247935402549449354e+05,2.445713626156721148e+03,7.610915548116399805e+02,6.228941076410932087e-01,6.231991150679898055e+03,2.393499046480998004e+03,1.156564020412404498e+05,1.107326214823757764e+06,-5.852752732087611221e+05,-1.646701977349599591e+06,6.713725574858902255e+05,1.180637045464687981e+06,-7.987225373254183214e+05,1.055227995512076595e+05,2.337234233521846763e+05,1.005299780833892291e+06,8.055333588990388671e+04,6.195540704181105830e+05,-8.758251866758865071e+04,-2.944130367975379922e+05,-1.636827573084102478e+06,1.797394197627873160e+06,-6.291854740133257583e+05,4.780082586301870761e+05,-1.155083133385676425e+06,1.388663812754315557e+06,-4.185887072925101384e+05,8.117743092430168763e+05,-3.327705642158425762e+05,5.893905250336138124e+03,7.202880409242985479e+03,-5.937775402081422271e+02,-1.724231922170612052e+03,2.726100627076011165e+02,3.795419715482743050e+04,3.908847993160639890e+05,-7.823184724224109668e+05,-1.197489912684374023e+06,-3.519769583608648391e+05,4.162471460952043533e+06,-5.546052224198043114e+05,-7.613902277354983380e+05,6.609464831700210925e+05,1.292021961452746065e+06,3.480505471747073461e+05,-6.816789027765904320e+05,4.056495897264614468e+05,-2.996211234134716215e+05,9.613933798599883448e+05,1.134027209694567719e+05,1.984479567861542106e+06,-7.415975065325973555e+05,-4.715724441416459740e+03,-3.045772546582201612e+05,-1.107724241129101487e+06,1.228094547119200695e+06,-2.833362338115801103e+05,1.326471879688146146e+04,1.722293228511530106e+04,-2.970962433601393968e+03,-1.357839922919765013e+04,5.786375104947070213e+03,-3.943469981760157971e+05,1.335943881579284789e+06,-6.727874858384522377e+05,3.469233529041834408e+05,-6.028785832739513135e+05,7.907284445427772589e+05,-8.949284362638132880e+05,-2.178745307044930451e+04,-6.972741375589248491e+03,-5.396596599202424841e+04,-1.353138619013651623e+05,-8.172207244722028263e+05,-1.861091365278321085e+06,1.272211484240352176e+06,-9.672440078388270922e+04,9.546896548936006147e+05,-4.929119812481893459e+05,-9.339444880923254823e+04,-1.957842720045784954e+05,-6.864775736973315943e+05,-4.319153449080603896e+05,2.255616759524908266e+05,-5.627399190872311738e+04,3.825332409088364784e+03,1.324991493580793031e+04,8.567154483103219809e-01,6.712322078434721334e+03,5.414084916873616748e+03,-3.145477337217696477e+05,5.824123305579915177e+05,1.057940429097923217e+06,1.836305279257703223e+05,-5.513637118311406812e+04,-1.259066647880794946e+06,-1.544287437910285953e+05,1.203782941488525597e+06,1.043226122347435681e+06,5.935184665913713397e+05,-1.069843293557524215e+06,6.923617709516100585e+05,3.617531959482858074e+05,-1.184024078179266304e+06,1.193854358018772909e+05,4.411394894087032299e+05,-1.107777149936734000e+06,-1.192731368225005921e+06,-1.331683154324584408e+06,-6.689296510995909339e+05,3.760900003395193489e+05,2.826463117315978161e+04,-3.916612928456577356e+04,4.133516343829641846e+04,9.720837887198287717e+03,3.756436120443679556e+03,1.173887699233588137e+03,3.391937694181808911e+04,-5.614127529021039372e+05,-1.920359660790435446e+05,1.660058137394130230e+06,1.578304701174224494e+06,1.393153633369041141e+06,-9.996881426046708657e+04,-1.596743601779103628e+05,-1.329608540180521086e+06,-5.046979731588757713e+05,9.631716140359459678e+04,-1.509288877427226980e+05,-1.176410443817110499e+06,-2.678287973103614524e+06,-2.090303111178288702e+06,-1.522490447689539578e+05,-1.228857751906333491e+06,1.161781843773846049e+06,3.782546295894904179e+05,-3.328832401646483922e+05,-1.255455453349588643e+05,5.345587467231317423e+05,-2.474455924410722582e+04,3.741492568293416116e+04,4.436913005937516573e+04,1.577002048008248312e+04,3.638997801149774659e+03,1.174216914170789551e+03,1.259511944726507500e+04,-2.918568235226498218e+05,-3.286940809493968263e+05,1.808679558619062649e+06,2.937028457734665717e+05,1.168811411338009173e+06,1.064936870303513482e+06,-2.197729821639480942e+05,5.771827334838810202e+04,-5.122124720608354546e+05,8.645985649285690160e+05,1.105641105947115575e+05,-4.138579989631531644e+05,1.384133883721944294e+05,3.992658634050499531e+05,8.928258982443548739e+05,3.652108028489689459e+05,2.435708272550488764e+05,-9.614491466796769237e+04,8.117866719382598531e+05,3.750490549359394354e+05,2.931877119418644579e+05,1.906402991365063353e+05,6.211818740865236759e+04,5.356389608107785898e+04,2.911328760613526538e+04,7.320051417482624778e-01,8.494566985505827006e-01,8.744302122112141973e-01,2.991667209502058176e+04,-2.835768387717035948e+05,-3.179545499005156453e+05,6.673302978709693998e+05,-1.880387395749127609e+05,1.240663525075006997e+06,-3.479773354736631736e+05,-5.566545207406055415e+05,-7.345398135925758397e+05,-1.047494905608790228e+06,-5.600639824250482488e+05,1.569604213057552697e+05,-8.275941863031153334e+05,-5.611730489384452812e+05,-8.055727108698157826e+05,-8.674263702810524264e+05,-3.755090962966689258e+05,1.559119161204814154e+05,2.963551900062012282e+04,-1.406959926675930910e+05,1.713348930516768596e+05,2.405268530542990193e+05,7.044126839683190337e+04,-4.895856986942586809e+04,4.296765786660261544e-02,5.786887173862562683e-01,8.081259295754918970e-01,4.668122963082201871e-01,1.470714111729138835e+02,-1.445833695054087002e+04,-1.135981716512744897e+05,-6.434011055613416247e+05,4.717959459625350428e+04,1.505144759309700457e+05,1.648250162999888998e+05,-2.745940306875510723e+05,-7.988974346954253269e+05,2.338390938686689478e+05,-3.395089936511408305e+05,-2.330318912108814111e+05,-6.831913972079198575e+05,4.945586399753403966e+05,-2.892568109683521325e+05,3.117038295723002520e+05,1.271559880538115831e+05,-1.055575261294320226e+05,-6.004038462443448952e+04,1.104849176507520024e+05,1.870795912857696385e+04,2.437315853300288654e+04,1.558214052122193061e+04,7.615092463946843964e+02,3.136184868216631561e-01,8.155283799361143782e-01,4.593415423996740632e-01,7.393716055927213038e-02,9.452973465394486352e-01,5.285844946759390428e-01,9.796180137342327725e+03,4.384577785662873794e+04,1.519844534294586047e+05,1.407992621195625397e+05,-1.873706460206885822e+05,-3.451933910487754038e+05,-4.637302257999500143e+05,-2.840693660808680579e+05,2.224790196387354226e+05,3.954335260893260420e+04,-4.446847981625644024e+04,1.180490919925709750e+05,3.457745929053772124e+04,2.241718853591095103e+04,4.391513327398133271e-02,1.788828905686977722e-01,6.465582722884428701e-01,4.351282019242940224e-01,1.375226815005208270e-01,5.198700807437512950e-01,5.584525181597688182e-03,1.796163340159115940e-01,2.256484971043569709e-01,4.084159445739513616e-01,4.118894566656757794e-01,2.396956792102308276e-01,8.770613302232551645e-01,6.534924536936845829e-01,6.750135368920375800e-01,4.766339445463965152e-01,8.103629211396926602e-01,2.397695259787272493e-01,8.885839164404342183e-01,-1.137628915896197213e+04,-6.456656350247303635e+03,9.984731859882579608e-01,2.387629518507310422e-01,-1.258434160605320540e+04,-3.755829594511339383e+04,-1.258481354573454701e+04,9.737322014542548754e-02,2.640026548042490040e-01,2.820993229213643039e-01,4.717731474150996807e-01,9.478876841460098790e-01,5.274401462813282926e-02,2.199908686893475851e-01,4.805842891720195631e-01,3.753482875063234303e-01,9.474562747575769883e-01,1.970542538191306647e-01,6.865492366066526797e-01,2.772313172578123597e-01,6.610737127415521330e-01,5.097055398330607723e-01,1.456187055848178202e-01,9.996120055381640945e-02,7.964055830006125936e-01,3.225652847492717079e-01,1.924694610542828643e-01,5.504318827764772548e-01,6.896073571042338202e-02,2.554460192142941066e-01,8.857503721756931903e-02,1.558234754128138277e-01,4.889884639171192537e-01,9.779554297261503493e-01,9.063804450709468385e-01,4.847036655124725701e-01,1.857344659920460161e-01,1.460537431549316922e-01,6.848814569439150013e-01,5.101483102524886348e-01,1.163265650361738901e-01,7.801292110674599156e-01,4.252012015742285822e-01,8.740832287916698862e-01,6.628954552100734254e-01,3.098667673691501978e-02
7.115661612750339149e-01,4.475107315448275669e-01,9.364451265020293791e-01,4.159775124000606450e-01,3.815252084327713789e-01,8.917457028925582785e-01,2.770821154885461102e-01,7.986228184569651445e-01,2.567768233475550277e-01,4.332581813438421969e-01,7.987445732044654578e-01,6.213592555667479811e-02,5.693476992580265295e-01,7.881881856579676660e-01,3.980734448910856482e-01,1.244447833029552752e-01,9.440640350613427323e-01,5.233662636766908127e-01,8.616791367777225652e-01,2.285697511562508888e-01,7.000380482709598340e-01,7.402870493820085107e-01,8.634106566098431745e-02,6.055049131257005390e-01,3.316661724102255571e-01,4.039832352354287837e-01,3.314246608098502245e-01,5.636040780796826022e-01,6.954185241767396608e-01,6.446826593287752205e-01,1.277017258026589275e-01,7.621103791367673796e-01,7.185284381169707579e-01,6.454624238202355535e-02,1.761910604050735962e-01,7.194024029724090941e-01,9.335966476783457146e-01,6.300047897099780858e-02,1.485724479365545525e-01,7.336335169300556299e+04,1.450060936757478339e+05,5.960742009692123975e+04,3.606218589589723706e+04,9.443322640123138262e+04,9.032208064094936708e+04,3.874637134005954431e+04,2.430445730198791399e-01,2.709063188949468737e-01,2.489156328505004456e-02,4.750998954374954231e-01,3.760924038510022882e-01,5.097869351246356873e-01,7.096121598566909050e-01,5.428440528707911827e-02,1.827579568443657987e-01,7.500547059292642649e-01,9.849752586589927139e-01,1.606602772953573677e-01,6.821196137662504100e-01,1.724942807629495292e+04,5.948220331862914463e+03,6.979554127403997388e-01,5.252507707333996223e+04,-8.501814503961839364e+04,-2.556149480248551845e+04,3.485161338095813521e-01,7.721089767689118162e+02,5.486749041005320032e+04,1.713403257947707898e+05,1.011808806956796907e+05,1.437283384716018045e+05,2.223170478959681059e+05,-3.548812907743592950e+04,-2.571552437798132451e+04,-5.230121329516900005e+04,-7.217489133982287603e+04,6.919016651806558002e+03,3.524492249267193733e-01,7.371056277508699628e-01,2.201057004400537309e-01,5.767916257735958840e-01,4.850434554738612958e-01,1.762640672195954217e-01,3.224832877066011738e-01,4.012746756817697769e-01,4.662918313769882639e-01,8.472453771517373752e+03,5.197921117533103097e+04,4.903812754907105409e+04,1.688535665841997834e+05,1.339552084539586795e+05,-5.265962793631436216e+04,2.883063446572371759e+05,-4.282252784237245214e+04,-6.354345968079071026e+05,-6.507323420408434467e+05,-4.058695100596755510e+05,-7.823230297800680855e+05,-2.881635649833315983e+05,2.376326996654348040e+05,5.715113687618249096e+05,1.587123632986762095e+06,7.365405179140570108e+05,9.540572874648142606e+05,5.691298880823105574e+05,-3.882706945871134521e+05,1.689048918911188084e+05,-1.623498602608678339e+05,-2.976787662759168888e+05,-8.521794971186740440e+04,5.133705283905583006e-01,9.471634270454937221e-01,8.517133608267893896e-01,9.313269159305365141e-01,2.904704954185621682e+04,6.451337523727105872e+04,5.949428651847715082e+04,1.418445631455932744e+05,-1.059497211823812395e+05,1.559692407980292628e+05,3.041107155570015311e+05,3.923495276813678211e+05,2.102911267772838473e+06,2.587847104802378162e+05,-6.140827675977214240e+05,-1.570383578968275106e+06,1.364842744754823856e+06,1.612656077994167106e+06,3.735872097429228015e+05,-1.328816382669337792e+06,-1.121484180208639009e+06,-1.325536246470210317e+05,-2.680099000031928881e+04,5.360935347892949358e+05,-7.543051979116669099e+04,2.381720436286695185e+05,9.849919347217166796e+04,7.783669212442234857e+04,1.937428787066577396e-01,2.494205070596516860e-01,4.760425749957334363e-01,2.570279525303040824e-01,-6.931242556664437870e+03,8.280375263908917259e+04,-2.488215512555561145e+04,-1.824693200342552882e+04,-3.266683903527594521e+05,6.510825378555448697e+04,-8.428947936107348651e+05,4.943135173702946631e+05,-8.878610541839536745e+04,-2.592393366722307401e+05,-3.687132915457505151e+05,-1.582935097896603693e+05,5.008654585985150334e+04,-8.036640956601293292e+05,-1.210259820175090339e+06,5.564408873861944303e+05,-1.814651039108640107e+05,-3.939579191228910931e+05,-3.553869119110903703e+05,1.436619321748928400e+06,3.258582164305910919e+04,3.659921185260481434e+04,1.426736289653952699e+05,6.691227549939148594e+04,3.677363051214784264e+03,2.530807878713755565e-01,7.599697655378738759e-01,1.651889106790572770e-01,-2.740826912232866562e+03,-6.460696633416839177e+03,8.488021401396877991e+03,5.625657650728824083e+05,2.038209957734178461e+05,3.599148415635448182e+05,8.494655504210032523e+05,-1.028021682264493429e+06,-1.422493192001091084e+05,9.367138073771607596e+05,-1.993128210689115804e+05,9.397780174758221256e+05,-1.312566796247857157e+06,-9.940305247099269181e+05,-2.600900845789927989e+05,8.289240086022805190e+05,7.434905302827130072e+03,7.855820753441322595e+05,-2.575279602913118724e+05,-3.720287613533742260e+05,-3.848392323468045215e+05,4.763402844031224959e+05,5.826991546671886463e+05,1.243612473854384880e+05,-8.678253842246069689e+04,1.014911247909912709e+04,9.479785550435068098e-01,1.393075086188750866e-01,1.057942397553635783e+04,-6.505353675025837583e+04,3.519838210503996233e+05,1.001275539661112358e+06,6.261775833309808513e+05,9.382001981318229809e+05,3.949121845408132067e+05,-9.378015289112470346e+05,9.440672817936127540e+05,-8.854131701902400237e+05,8.499877353499706369e+05,5.941197111903708428e+05,5.957772373981825076e+05,-4.461973289241458406e+05,-7.038537570348008303e+05,-4.201146775371185504e+05,-5.772608878892973735e+03,-6.230657643242239719e+05,8.872125252457888564e+05,2.750373629076360376e+05,-9.030846879045788664e+05,-6.602344521276283776e+05,1.272368355671915459e+06,2.087765634542433545e+05,4.934777199974425457e+03,2.141060757689422462e+04,-3.929074089685309445e+01,7.316805860316485388e-01,4.443849639331283834e+04,-6.661585381159653480e+04,2.886327503189857816e+04,-4.578177221091029787e+04,-4.865404619615593110e+05,7.631474974424811080e+05,6.852983295832102885e+04,-1.342430197973853908e+06,-1.200986093911912525e+06,8.941771636894334806e+05,-7.055219306658345740e+05,2.198012940268706996e+06,-1.334183382653765148e+04,-1.616049794444898143e+06,-1.060635329984830692e+06,-5.500065680089144735e+04,-1.142980568190261256e+06,-2.195139344858806580e+05,-5.098772444779827492e+05,-1.238720016894788248e+06,2.043792864257225301e+06,-7.328617851662508911e+05,-7.300730140005967114e+05,1.610689658090669545e+05,5.678983615017685338e-01,9.727742918387815019e-01,6.191435410437325926e-01,5.788218681111179649e+03,2.266288034516796324e+04,-1.837679669097108708e+05,-2.369096882364750491e+04,-1.201901830431380309e+06,-4.431606645418977714e+05,1.208403892587067967e+05,-2.325589300251293171e+05,-1.267444533894463530e+05,-1.467335613554059993e+06,-8.094535868086036062e+05,5.168815150678417413e+05,8.285639047573726857e+05,1.325006065656066174e+06,3.265131549511656165e+06,2.015473225496833446e+06,3.122051310088478567e+04,9.543757277777228737e+05,1.002346845216106623e+06,8.272753293793700868e+05,-5.307051960503455484e+05,3.704770942886984558e+05,1.546533423496110830e+06,-1.271887438855169574e+06,2.393442118049133860e+05,-8.468319663988160755e+03,7.627265520364636675e-01,1.508685707563961476e-01,9.504454940331612306e+03,5.314464834212217829e+04,-2.724633357721305219e+04,-6.379765615179991582e+05,1.005781404682067659e+05,-1.166657399866929336e+04,5.507109158522143262e+05,-3.227660400525741861e+05,3.228882044809517101e+05,-8.469723343462747289e+05,1.847572663393093389e+05,7.957068086929073324e+05,-1.069831388641862664e+06,-2.441644424719928647e+05,-7.464057241269398946e+05,-4.579251064650203625e+04,-3.296107356082890765e+05,-5.085817098841328989e+05,-4.901335491479649208e+05,-9.571224754608027870e+05,-1.388861960214951832e+05,1.492739589796235668e+04,1.832703979828035808e+05,-4.379728787854354014e+05,1.106194217327239458e+05,-2.725504920971095999e+04,-6.994562704221675631e+03,3.556551220502229826e-01,2.502929673159538652e+03,2.041761241345385088e+03,4.843290434623266628e+04,-8.305829448946418706e+05,1.378499145725736860e+06,1.342062250274586258e+06,-1.037702684300346154e+05,3.816329092824488180e+05,7.523212017833149293e+05,-5.496377449046792462e+05,-1.562559125299555948e+06,-2.495036896214682609e+06,1.625771582967371214e+05,-1.873588945993960951e+05,-2.434222197376883414e+05,-6.482874467838031705e+05,-4.459604810360355186e+05,-1.009579770487803384e+06,1.315620358587932307e+06,8.274165224957930623e+05,-5.958958466005313676e+05,1.441814881331930519e+05,9.716931400219885400e+05,-3.791484357311247149e+05,2.797973090350970160e+05,3.244128624266376573e+04,1.231411000801847877e+04,1.388636873257210747e-01,1.956630123455645844e+03,4.163736208739884023e+04,6.242688810113381624e+04,4.633811262623703224e+05,-3.438768239089500858e+05,4.030176583057951066e+05,3.072904490061241668e+05,9.667180332905116957e+05,-8.188813375019741943e+05,-2.740026953423029045e+05,-1.227470926607119152e+06,8.963334597262621392e+05,1.968644259461563779e+05,1.203760170234206089e+04,-1.269872552550260152e+05,-3.100625521739517571e+05,-1.216299773287917022e+06,-4.804235880830850801e+05,-2.725669397262625280e+05,-2.945358070029252558e+05,-6.808659639727910981e+05,-5.264555385771283181e+05,-9.064297992302775383e+05,-1.283808630132365972e+06,2.453174280453435204e+05,4.597551941458813963e+04,1.874153329925337312e+04,-5.951782285868182043e+03,7.703851662593220681e+03,5.696180574343178159e+04,-1.862517749630782055e+05,7.743467709786342457e+05,-6.997036330584398238e+05,-9.050023461673183192e+04,7.383745237556201173e+05,1.506131881554743974e+06,-1.131818962661638856e+06,-1.194986528517882980e+05,2.887822349593241815e+05,-9.499239263489935547e+05,3.047553988904969883e+05,-2.540169617285656859e+05,-2.885532185261960258e+05,1.061837499153171375e+05,1.296641973770883633e+05,-1.550479979719957919e+04,-1.356278041441946058e+06,1.108383760718145873e+06,6.248325716988461791e+05,3.006779443346603075e+05,-2.497762904006335884e+06,-1.253910827538219746e+06,4.672363202718175598e+05,5.818410572807654717e+03,3.806190137594345213e-02,2.710630961810572837e-01,5.881721332889378040e-01,-2.141205168434090865e+03,-2.652177066185630974e+05,7.737131759445487987e+05,6.437240967014417984e+05,-5.912904498090461129e+05,-1.472871607419091277e+06,1.089729076128955930e+06,-1.748465147461134184e+05,-5.633983133439633530e+05,-1.045481429726225033e+05,5.569583180193095468e+05,-3.228940324983608443e+05,6.301534814122772077e+05,-6.303989716809365200e+05,-6.550003138367921201e+04,-4.746534596247882582e+05,-1.679807006652642158e+05,-1.539127093296385603e+06,-7.597482307313667843e+05,-3.173029360878042644e+05,-5.732054077881895937e+05,-1.507867668114467757e+06,-7.152118544075067621e+05,6.715490408166511916e+05,1.769027062806576851e+03,1.601013909044771699e-01,4.871478475228477878e-01,2.919996675137657149e-01,-6.250748697314844321e+03,-2.631837645709483768e+05,-1.076763702497177059e+06,-1.089464182719187345e+06,-5.095838535166571382e+05,-9.906153850074866787e+05,-4.385504842312410474e+05,-3.198494622779266792e+05,-1.100459286871550605e+06,1.022400155990118161e+06,-5.343288022835535230e+05,2.200861563676495862e+05,-1.520690163382424507e+05,7.565253821245107101e+05,-3.825482592198480852e+05,-5.526367607454449171e+05,2.582647280730578059e+05,-1.239068436968993396e+06,-8.179699317596990149e+05,2.492182221628596890e+05,2.343415556087284931e+05,-1.158896719911580207e+06,-5.395654931334080175e+04,7.090300517202431802e+05,7.075834711717772052e+02,1.329453310876812511e-01,5.492549875308216922e-02,-9.527909669639673666e+03,1.313389903105251324e+04,-2.310509838789950882e+05,-7.913034728390218224e+05,-8.367734874974164413e+05,7.862413023177417926e+04,-5.954534971155023668e+05,-7.187850968057650607e+05,-8.277640916558618192e+05,-2.858042107638698781e+03,5.123472912267125794e+05,-4.306851864744259510e+05,3.168851026318150252e+04,1.336304040897539351e+06,3.437049120567206410e+05,-2.810967486889928696e+05,-2.185890827354172070e+05,-1.211166603405470494e+06,3.801151410033054417e+05,-4.257964874036101392e+05,5.499622973327838117e+05,-1.024327922617179109e+06,-1.157271119074112270e+06,1.300239454886039719e+06,5.957599067097771913e+05,-4.960474084555629088e+04,-8.704776581678772345e+03,7.088816637757129335e-01,3.246382857994535698e+03,4.122463010567538731e+03,-1.682250623920629441e+05,-6.564355601340266003e+04,-3.765941775336068822e+05,-6.961651611639326438e+05,-1.496359414472764358e+06,-1.344689963659314089e+05,8.615392565691382624e+05,1.374641107191795018e+05,-3.576257942460141203e+04,-7.152320183776706108e+04,5.476596715065719764e+04,3.221063782037600758e+05,2.200725089879013540e+05,7.753785890531602490e+03,-1.549398384404129814e+06,-5.809127507837853627e+05,-2.599461265620486811e+05,-2.495752646125007595e+05,-9.601839288377667544e+05,-2.877141894810728729e+06,-5.384979005890308181e+05,3.457219569170752075e+05,2.220015670978277049e+05,-6.790322554104264418e+04,-7.484112289128900738e+04,-5.946995969860652167e+02,-1.257698095960167393e+03,4.685875054981135008e+02,-6.840665842189670366e+04,2.534362493012081250e+05,-2.942479829036116134e+05,-1.310999211901983072e+05,3.333536592763476074e+05,8.434991169230735395e+05,-3.028581612769576022e+05,6.355960318394297501e+05,-4.307214064160219859e+05,-1.426014440080254106e+06,6.276631081049490022e+05,1.762884311324818293e+06,1.255819609722326277e+06,-1.059556745709409239e+06,9.393915439763701288e+05,1.700491412661679089e+06,-8.337853137688597199e+05,-2.693833379046937334e+05,-1.337567208169427933e+06,-4.170396234623244964e+05,6.258448956344136968e+05,3.820962153820624226e+05,4.567562667445113766e+04,-6.409450012089969823e+04,-6.522748763960118595e+03,-2.977282394750336607e+03,-1.359605521655571647e+04,4.900973916308503249e+03,-3.361595920348252403e+05,-3.923490561786538456e+05,-1.055448929532270879e+06,-6.643802051222017035e+05,1.131803458920497913e+06,-2.591181225699878298e+06,3.451834880702989176e+05,1.249192130861395504e+06,8.162276425522787031e+05,1.124797152319022454e+06,-3.262324193016121862e+05,-3.871999655846802052e+05,-1.353277969304256141e+06,9.039555840735578677e+05,1.881211634675796959e+05,-7.987713253078843700e+05,1.195775902145190630e+06,-7.230978417723580496e+05,7.305111011007562047e+04,4.213051514245670405e+05,-5.152095590301431948e+05,2.030534278922270169e+05,9.651272606946004089e+04,-7.353694404875914915e+04,3.075746383537905785e+03,1.317057111471695574e-01,6.761577121733760578e+03,5.233637477153977670e+03,-7.353135935417907313e+05,-2.248853977384660975e+05,-8.713463082675440237e+05,6.760495305815013126e+04,1.784471220282109920e+06,1.158760687908624241e+05,-1.168121891046198783e+06,6.485850613451044774e+05,7.908871308238155907e+05,-1.215507871581456624e+06,-4.791157245424869470e+05,-1.923148567774538533e+05,1.259719226495642215e+06,1.102316532366390340e+06,4.375984020711421181e+03,-9.487927402147470275e+02,1.125785026592366630e+06,6.920718113433555118e+03,-1.077550307421164354e+06,6.162570537451647688e+05,-2.329770784079287550e+05,9.082791591234126827e+04,2.965704514031299914e+04,-2.532725426175137181e+04,9.727804619129967250e+03,-7.747614389283429773e+03,-2.420519079194972619e+03,4.944155150105601933e+03,-5.047669279039319954e+05,-1.426220634881861508e+06,6.851077373689862434e+05,3.226237676949260058e+05,-7.265752435136802960e+05,8.742488500358216697e+05,2.937852264300473500e+06,1.209439151065544720e+05,-6.978871520923415665e+04,-7.865228691313501913e+05,-9.768061584590772400e+05,-1.177019954033854418e+06,-1.943515679381821305e+06,-2.551604373354703188e+06,2.524450047175257714e+04,1.250846105772019597e+06,-3.589794551515826024e+05,-2.591191934103374952e+05,1.060118812236295780e+06,-3.677547450859673554e+05,5.661081486651811283e+05,8.424944082801288459e+04,5.678207247158410610e+04,4.522551412149344105e+04,1.579524585041450700e+04,-7.505132327499354687e+03,-2.420959428194223165e+03,1.139916123935758151e+03,-2.776843214749196777e+05,-8.321246574316133047e+05,1.212063150643477216e+06,7.937108501448467141e+05,4.154876412697043270e+05,-1.821516627314483747e+06,-1.867084750425437000e+06,1.929462640932897048e+05,5.637443985232898267e+05,2.324466438632083591e+05,-7.701734337331289425e+05,-2.668339760316835600e+05,-7.252828024357674876e+05,7.030858772605060367e+05,2.476158377079774509e+05,-5.074293907663892605e+05,-3.703949266341000330e+05,-2.452491843299129396e+05,-2.980803283860664233e+05,3.322859778110564803e+05,4.178707846118552261e+05,1.610527621564658475e+05,9.271523949839452689e+04,3.364645433999485249e+04,2.916035200692390208e+04,7.729449573551696595e-01,7.882918134282042022e-01,4.428897844051123966e-01,1.010807719498124970e+04,-6.017817037495098775e+05,-1.207826455161617196e+05,2.987988764746445813e+05,-6.085206521637529368e+05,-2.012907388598042773e+06,-1.141466586766196648e+06,-1.257039744047420798e+06,-7.466549309062659740e+05,-1.235143223463323811e+05,3.287087051170007326e+05,-4.866733173858913360e+05,3.512088967161803157e+05,-6.626406480031245155e+04,-7.228432727240148233e+04,-1.624807588194712298e+06,-7.059039242707066005e+05,-2.355276202506822301e+05,1.451873891264442645e+05,2.916925102981161035e+04,2.263068808704559342e+04,2.985744986393502040e+04,5.964355644259761903e+03,-1.250218087143396770e+04,6.016081180302152998e-01,2.312980163749824847e-01,5.222055272315897501e-01,2.357434485772126331e-01,1.476446760486117284e+02,-6.399912215580421616e+04,8.063826521447078267e+04,-4.281658126542148239e+03,1.269079923269300954e+06,9.316566346081750235e+05,-2.218729810985489166e+05,1.999854670486536634e+05,4.570392438119762228e+05,2.718509488798183156e+05,5.613476272369251819e+05,1.695441056037458358e+06,2.885373594169287826e+05,2.987413549034228781e+05,-4.398869395724570495e+05,-7.495063304231758229e+05,-2.935811823738113162e+05,-2.764382283773733070e+05,9.197999758376803948e+04,8.336033244115681737e+04,-1.870488917758914467e+05,-1.013411252265070943e+05,-5.951450806298782845e+04,7.597331541527713625e+02,5.641292348761172137e-01,2.904239020426845341e-01,1.049033016254767858e-01,1.909182914702884926e-01,7.487600026524592334e-01,5.064544130695737278e-01,9.815792748029578433e+03,4.393647593917256017e+04,1.349561782689282263e+05,2.543735903558335849e+05,1.040035717949073587e+05,2.903934423689121613e+05,1.850639707676433027e+05,-1.141139302868606901e+05,-1.244508730515477801e+05,1.890246449403287261e+04,3.393481631835232838e+04,5.008012364780799544e+03,1.217779560149886820e+05,2.246526459815203270e+04,1.622835938514577414e-01,5.772432898124049139e-01,3.886225445349122953e-01,9.495769867189363111e-04,1.609754018345421755e-01,7.168497536536023729e-01,8.539607950910509393e-01,7.449734276680571865e-01,2.871706304545690314e-01,8.363873150012912649e-02,5.888436241926169323e-01,2.156086240850079161e-01,2.786261940398642167e-01,2.096204400139567436e-02,5.515922818079638246e-01,2.170254942480983607e-01,4.089253351356073596e-01,1.260420540331076422e-01,6.975931684040203029e-01,6.984475453291104714e+03,3.964483932600141998e+03,7.189373927733483383e-01,9.133477795529543197e-02,-1.261531797727368394e+04,-3.765044897831589333e+04,-1.261608448327975384e+04,4.569925693854892668e-01,7.737152093308290457e-01,7.519053970029595524e-01,3.504407168515775162e-01,5.603931493058746938e-01,7.745511294381179912e-02,1.386604546032315088e-01,4.668384850909224060e-02,5.628809472663421909e-01,5.571499512638370399e-01,8.764445189564464833e-01,6.165658836866760861e-01,9.641580403407822297e-01,5.174246324962828991e-01,8.686676854666083303e-01,3.005151993318736503e-01,3.142661488914444412e-02,1.287313312043951719e-01,8.029558607074742671e-01,3.166267788503172032e-01,5.214957159559907574e-02,2.409788429122972087e-02,6.143926032503922441e-01,6.903655426627108849e-01,1.418849903358261333e-01,5.516862602596235288e-01,9.637175533932279547e-01,5.636756017265793783e-01,7.423739852265194283e-01,3.241695167570857183e-01,8.077682646048498505e-01,8.664094725281261677e-01,4.982904056502421852e-01,2.028651385111697181e-01,3.279755173590417350e-01,5.538076264928172288e-01,2.112818864736693003e-01,9.057030327678289305e-01,2.958294140663803029e-01
9.933464107607584692e-01,7.844146139756945635e-01,5.217388735266315081e-02,1.036177248118365091e-01,8.523388185162986685e-01,7.225863697084844439e-02,3.950438163725622509e-02,9.882920777236170462e-02,4.438410463529049998e-01,7.632032808522893896e-01,2.617103485744649571e-01,6.712272111310263467e-01,4.369590951957885716e-01,1.409813704723694716e-02,5.482437226624254922e-01,2.519133381724018017e-01,9.876326330648044216e-01,7.903165013393383953e-01,6.662667347911777060e-02,2.615860891886104822e-01,8.857527200552318680e-01,5.677770527185123095e-01,7.257555171355121182e-01,4.549014010042917722e-01,2.247130726637791565e-01,4.641749871738174438e-01,4.895922143085872369e-01,1.133557195627300507e-01,6.990985150600705911e-01,7.367739572261112757e-01,2.013137284718414799e-01,4.008954912299480533e-01,8.270247071128499217e-01,1.659929719375661250e-01,5.654507147280052326e-02,5.776454786437967837e-02,4.900650635953167633e-01,8.717492562734185935e-02,5.215043541486861223e-01,-8.921598699681767903e+04,-1.763423571808883862e+05,-7.248838456936841249e+04,4.605715088888937316e+02,-8.575331491599687433e+04,-1.704219928387766413e+05,-7.978874255568342051e+04,7.602110151244824143e-01,8.982752006409158163e-01,8.216405038165859320e-01,8.212360441171101533e-01,1.391721631853505281e-01,7.218481362147517455e-01,3.926636639766036829e-01,9.161904835415354276e-01,8.374201180227623942e-01,6.147758532439870915e-01,7.602257460701251635e-01,1.367259076267804963e-01,4.254254759216355986e-01,1.724912457005941906e+04,5.948470412613816734e+03,2.988462168878014413e-01,5.250301806887054408e+04,7.757899346153793158e+04,1.555711287792667645e+04,5.678139470792765708e-01,-1.713483661987471351e+04,-9.738480600495397812e+04,-2.045807506819428818e+05,-2.675664276929402840e+05,-1.254049976458632154e+05,-8.696363374264049344e+04,-1.135738509951751912e+05,5.698856257210228068e+04,7.268006368809891865e+04,1.191981319572032953e+05,6.919959409054560638e+03,1.216271865122408036e-01,8.858000363161611102e-02,3.708626445471192579e-01,4.892510355082455575e-01,1.129808744033617973e-01,8.188156802808838064e-01,1.536787609427675561e-01,4.274024542725709530e-01,2.855972663920386401e-01,-8.844719377885588983e+03,4.785701586331422732e+04,4.905038388872323412e+04,-1.152897076385276159e+04,2.896875477020758262e+04,6.820761067977410858e+04,7.978004015454029286e+03,4.034610439962195815e+05,2.153162983286842937e+05,5.059253158818085794e+05,5.805468706349375425e+05,1.134997327778162202e+06,1.445916485838150140e+06,-3.330021668876500917e+05,-4.358923901944975369e+05,4.183594971459066728e+05,2.244312411374485819e+05,-3.089229031179765589e+05,-3.247097549682455719e+05,4.077202603004612029e+05,4.448779507656113128e+05,4.085916270898852963e+05,1.445405223126393394e+05,4.137897880147249816e+04,6.410322722772110460e-01,6.812802108377274957e-01,2.637834979936574120e-01,5.152038014801691990e-01,-3.032615919752644913e+04,-5.869028983985943341e+04,-7.401029594290019304e+04,1.477572994201492111e+04,2.111377653017001649e+04,-6.637612002792868589e+04,3.980505533529115492e+05,6.576467081345216138e+04,3.499241778745108168e+05,4.166461515964054852e+05,-6.930113969944657583e+04,-4.376099003791435389e+05,-8.372545133525296114e+05,-2.347658722302886599e+05,9.897253522410866572e+05,8.623131562569169328e+05,-8.050519823859453900e+05,-9.560768576921786880e+05,1.131429622132499702e+06,7.997526796729830094e+05,8.495544881389491493e+05,4.369213888117980096e+05,1.333951115379622497e+05,8.990658125191745057e+04,4.279818340079825090e-01,8.338284529666872835e-02,9.820484259928576876e-01,9.766862269789122752e-01,6.277733728959547079e+02,-8.372758409334064345e+04,-1.762996396482080163e+05,-3.836260085245403752e+04,-1.245745438737231889e+05,3.619526003438375192e+05,4.662788773067884904e+04,5.653058806299989810e+05,3.505810350425985525e+05,-1.217350265989746433e+06,-3.320982154454293777e+04,-5.090963652207487030e+05,-1.225244486392126710e+05,-1.589263950449085387e+05,-9.034035192244083155e+05,1.425770435918158037e+05,2.976148105068933219e+05,3.388555468182429904e+05,-9.342516590587082319e+05,-1.345401457048817247e+05,7.109082332458131714e+04,1.951320480104306189e+05,2.663914623315602075e+05,7.357443055524912779e+04,3.682062192870431772e+03,6.693406245125648191e-01,2.811837300772134229e-01,6.451184644054215322e-01,1.209751941549287949e+03,3.387241430162124016e+04,-2.441325736768655479e+05,4.338343595083693799e+03,-1.971338651677210291e+05,1.907310472154316376e+05,-6.113484929546891944e+05,-3.698714470770239132e+04,-3.724175529689989635e+05,-7.386231538884998299e+05,-1.433175115070132073e+06,2.569923971946971142e+05,7.873815738729688746e+04,5.075223747986123781e+05,-1.011522646690507885e+06,1.752949801327772206e+06,4.307051161276272614e+05,1.022694530641096993e+06,7.433867372638933593e+05,-2.277986795202440582e+06,1.734101792423851148e+05,-3.512083083208960015e+05,9.987106411801543436e+04,1.186735988627729239e+05,3.573079656449142931e+04,-4.742694550319487462e+04,9.621572847721872046e-01,5.965526511761760631e-01,1.057414712991885062e+04,-5.323508087570765929e+04,-4.935085010722457082e+04,3.493857639609667822e+05,-1.862454775934216741e+05,6.476645548808230087e+05,8.545007191684994614e+05,-1.456216614884997718e+06,-6.446089956892661285e+05,-1.019395306865455583e+06,5.909972932550042169e+05,-5.690428925861320458e+05,5.589610492806017282e+04,5.467432295202815440e+05,2.049530199389245536e+05,-1.571993245723615400e+05,8.926897468102411367e+05,-1.841357646888529052e+04,2.543732022818296682e+05,-6.024692896490059793e+05,1.627388784928547917e+06,1.336574619076501403e+05,-2.600741813059803389e+05,8.995660136085581325e+04,-3.740638043180612840e+03,-1.000513187514926103e+05,-9.916236870562352124e+01,9.303856302434054815e-02,4.957968724994376680e+04,7.926077981449064100e+04,-1.503973759327836160e+04,-1.665067764134278405e+05,-1.369871308649023995e+05,1.755742088659495115e+06,3.684893712283153436e+05,-1.414583638899828540e+06,1.396049336816696741e+05,9.219808583126356825e+05,1.830130441935308743e+06,-6.916069952958951471e+05,1.829831219855397649e+05,4.666017857359155314e+05,7.848825162231885770e+04,-2.351541768604706507e+06,-1.412003349696330959e+06,1.219763351700511412e+05,1.408378856542387075e+04,-6.014972107873325149e+04,1.534562143287317595e+06,-5.859758006571029546e+05,2.420484984283988306e+05,1.529631521474989131e+05,9.851369706601964538e-02,6.553351598267602718e-01,8.959162423710623768e-01,5.795042647992007915e+03,2.265924326940754690e+04,2.165014924433039268e+05,3.552211368758672324e+04,-8.152137640394406626e+05,1.079709458884464344e+06,2.888193790562195703e+06,1.026792549933418632e+06,3.216283050321820192e+06,-2.093581910504645566e+04,-4.230526559805194265e+05,6.298476182564843912e+05,1.772963610699458746e+06,1.472594082167465240e+05,8.047192369754357496e+05,-6.447006700182458153e+05,9.314495845992492978e+05,4.362723133398157079e+05,4.987009357640029630e+05,-3.204868278576602461e+05,-1.318420016885458725e+06,1.356444044377807877e+05,-2.442190409795620479e+06,1.910489667193675996e+05,5.584097335626672429e+04,-8.460922242495984392e+03,7.624567056431484913e-01,7.806258196918831604e-01,9.514907895415348321e+03,5.314688851417549449e+04,1.294988220949957031e+05,2.361180437190728262e+05,-7.165532655801901128e+05,1.641348505839826539e+06,1.933667830627568183e+05,-6.183986809950559109e+04,1.564535393665019190e+06,-7.236644840367389843e+05,7.997752919223756762e+05,6.996533120976159116e+05,-6.336713054888491752e+05,-6.978675290129766800e+05,2.908819771713584196e+05,-6.316592138953453396e+05,-2.651332324167250190e+05,2.388874321277691633e+05,-1.008814816489978461e+06,3.213829375723889680e+05,9.471863870962104993e+05,2.646340303504525218e+05,-5.305854477151776664e+05,-3.665027076663738117e+05,-7.871300220949077629e+04,-2.722608506940153893e+04,-6.985809351956772844e+03,8.118027765147155517e-01,2.472572466245201213e+03,7.757930079431112063e+02,9.850959984917870315e+04,-2.233879800291937427e+05,4.364870443384776590e+05,9.908481806140457047e+05,-5.844297728785310173e+05,1.570226947080353042e+06,-6.568665645532506751e+05,7.239966697523191106e+05,3.503311520384633914e+05,3.114023468194563757e+05,1.101261290586321120e+05,-9.994677138798360247e+05,-3.865211438011571590e+04,8.496089564632573165e+05,9.437022068108478561e+05,2.136566609054073691e+06,1.526089779365950963e+05,-9.614759725883667124e+05,5.849638948888467858e+05,9.962400859314424451e+05,1.196730626974794723e+05,6.451840148472328437e+05,-1.832203514087244985e+05,3.118796722655366466e+04,-3.040762403981159878e+04,8.907993192435954555e-01,1.950554799258467938e+03,-8.511858942015214416e+04,7.870304475400892261e+04,5.542521723305238265e+04,1.146189533055574633e+06,1.255943188011088641e+06,4.430864055539571564e+04,6.333143408950384473e+05,-1.510954860879779793e+06,1.127169325630927924e+06,4.546362345333037083e+05,-1.359182172292011557e+06,-8.843950918037045049e+05,-2.737873989168672124e+05,1.376280932923174230e+06,-2.414555353429339448e+04,-1.409311538366630848e+05,1.430457140261531807e+06,-5.042155361174917780e+05,1.937719946506782435e+05,1.456048503182129236e+06,6.330509574875142425e+05,-3.307890945225967444e+05,-4.057143724215689872e+04,-1.360655584960337728e+04,4.495258921220833872e+04,-3.857027129686120315e+04,-1.018767004123711013e+04,7.676747836112444929e+03,-1.974754154783543199e+05,-8.858911914225039072e+04,-1.055562960117934417e+05,-3.763499838634788175e+05,-4.855404106933370349e+04,7.445588474811760534e+04,1.188663188864651602e+05,-8.276094927504519001e+05,-2.236888961820585246e+04,6.863794139866118785e+05,-9.862855034174374305e+05,3.396185384209026815e+05,-2.115349344787896553e+05,9.970751746244649985e+04,-3.668913040905143716e+05,2.653370923411726253e+05,1.028231339370657573e+06,-2.077905281948605552e+05,-9.696682258840819122e+05,-1.089344367216373939e+05,9.835609382111461600e+05,1.380155461126989685e+06,6.433596524507090217e+05,-2.967680400489086169e+05,5.699558121728804508e+03,5.492013578462462409e-02,1.118140761001079619e-01,7.909063212517243313e-01,1.488082077801632295e+02,-1.638537259650833439e+05,6.543755970859513618e+05,-1.683832208356515039e+06,1.226323318564822897e+06,6.480565038039861247e+05,1.851454998192253988e+06,1.108079902364460984e+06,-2.265170977334019262e+05,-4.501607151731133490e+04,5.940192897346740356e+05,-2.777655472997329198e+05,-1.275846126853893977e+06,-1.292528834667245392e+06,-3.372805170538318926e+05,-3.685347621174894739e+05,-4.712097197684024577e+05,9.807847227880012360e+04,-2.280373342495650984e+06,1.549890805245670024e+06,1.643813360038065352e+06,8.523950026822866639e+05,3.048595001067361445e+05,-1.123026886998078116e+05,1.771328577855069170e+03,7.356851887327684469e-01,8.333699787721366992e-01,1.897834312737023410e-02,-5.643531422989606654e+03,-1.443765846490435360e+05,-1.183556324285174924e+05,-1.060915642671834445e+06,2.010995029251039377e+05,6.101270853199209087e+05,1.868191966866754810e+05,6.238775821526882646e+04,-7.560179739540080773e+05,-3.304040263053185190e+05,3.001248068773734849e+05,-3.614197069120333181e+05,-3.500091043393948930e+05,-7.469642360300223809e+05,-1.740649221723373339e+05,-5.649134967110434081e+04,8.654810173502565594e+05,-1.308579244784818264e+06,6.492181755083843600e+05,1.048894896071987692e+06,2.766532645507604466e+05,6.816230367211333942e+05,8.195012049605823122e+05,-2.435014320489118109e+05,7.084679700034351981e+02,4.913529323466327980e-01,9.054074528051923032e-01,-5.561096586223804479e+03,-2.130582348629684930e+04,-1.777086039688130404e+04,-3.783027173416094738e+05,-1.063979004534246633e+06,-2.140141753450305259e+04,1.427609779537138995e+06,-6.180352576254223241e+05,7.362865486493931385e+05,4.333288911085939617e+04,-1.220672501360521419e+06,7.907185616952937562e+04,4.614983127256271837e+04,8.923077978284910787e+05,-4.875846026676712208e+05,6.029613670086279744e+05,-1.087284178299640771e+06,2.130118098861104227e+05,-5.785105816215802915e+05,1.345240126957063330e+06,-1.269499697488461243e+05,8.578281190972136101e+05,-1.821466187196039362e+06,4.440582074115204741e+05,-2.925590120836085407e+05,-4.958641610105294239e+04,-8.691507107460020052e+03,6.730984949580958165e-01,1.883661832548504208e+03,2.400922493479713467e+03,-7.798910977373305650e+04,2.259362997740824358e+05,4.424645382777977502e+05,2.029771607457272185e+05,6.239858330096476711e+05,-1.187487561260371935e+06,1.378675711865786696e+06,-3.042613142559504922e+04,-9.176774245444687549e+05,2.015105779279090057e+05,3.383087114243232063e+05,3.549438801558558771e+04,7.842913762951362878e+05,1.063665959077138919e+06,1.126520942401504581e+05,2.103200264678210369e+05,-1.422317544413062278e+06,-1.372851938699568855e+06,-3.591975628290172608e+04,6.773169378110949183e+05,-5.147939516687549767e+05,1.282493834572875407e+06,-5.305567703072527656e+05,-7.530685052485045162e+04,-7.658307528303818253e+04,-5.944950149078811137e+02,-1.723696086444709181e+03,2.735778271273652535e+02,-4.351942539620865136e+04,1.123192005319670076e+06,1.530976765837602550e+06,-1.238550410416445695e+06,1.115941007088571787e+06,-1.801763529158435995e+06,-1.661812521261852235e+06,-6.112593026946983300e+05,8.850001874529942870e+05,-7.598281070352141978e+04,4.026782317214692011e+05,7.569315026764768409e+05,4.653050597762024263e+05,1.100174431384343916e+05,6.456356167844146257e+05,-1.008889954295903211e+06,-3.182594500806389842e+05,-8.663272786438186886e+05,9.506884492192568723e+05,6.783850619196565822e+04,-7.111470251573526766e+05,6.388595717759736581e+05,4.514291269386112981e+04,-9.355605624392315804e+04,-3.601511708219737920e+04,-2.973623819433077188e+03,1.744634259313523944e+04,3.623184910206586937e+04,-1.773083057718247874e+05,1.289966304290046217e+06,1.612698734802531311e+06,1.903883490717025124e+05,-5.060452406296450645e+05,-8.925066821933675092e+05,4.793912010215531918e+05,-1.133647359309587162e+06,-4.150840436494013411e+05,2.135594277014004067e+06,2.114285020224005275e+05,4.970593548719481332e+05,1.323191993431542767e+06,4.856877092853776994e+05,-3.327769923153491691e+05,3.242704350269974675e+05,-1.467719325972520746e+05,1.433999551199024310e+06,-5.611505460497842869e+05,-5.092479256633028854e+05,-4.747902772628646926e+05,1.183148209098129737e+05,1.193051481804602954e+05,-7.369763570908785914e+04,-2.238665908590291656e+04,1.478983224997594270e-01,8.490768016203623847e+04,5.973346765121137287e+04,-3.573085943760382943e+05,-6.154860991267639911e+05,1.698812872212701011e+06,7.137294021676603006e+05,-3.593264801577236503e+05,-1.258999414520359598e+06,2.067686145040078787e+06,-1.097728437020779122e+06,-1.886062051676274277e+05,-3.456000406677627470e+05,5.592514837372653419e+05,9.051735162823472638e+05,7.230977250124435523e+04,1.040163516909671598e+06,3.157174360334058874e+05,5.031685067169585964e+05,-1.506105746574075427e+06,-6.250578409238980385e+05,-6.014655455680346349e+05,5.270672051962160040e+05,6.306002036132175708e+05,-6.628661635011671751e+04,5.401952569364025112e+04,-2.671615818360821504e+04,1.543694460778042412e+02,1.337256935847866089e+03,4.177797566455143965e+02,-1.089299512356235573e+04,-8.086931353416811908e+04,-7.700376210544747300e+05,6.589247362458035350e+05,-1.439663500090979272e+06,-2.558869037148384377e+05,-7.795124136363608704e+04,9.578798477255901089e+05,-5.117117563363402733e+05,-1.213780444633068517e+06,-1.914353563274449669e+06,-2.878458553349684225e+05,-1.866054698783992557e+06,-3.849655115206436021e+05,-7.126568929281383753e+05,3.623419204486702802e+05,-1.980064839887346374e+06,-9.464439567180287559e+05,2.323786867109171872e+05,-3.795561462213625782e+05,1.951752112190901302e+06,2.488815787651091814e+05,1.930105495848147839e+05,6.071548515937540651e+04,4.405995055438036798e+04,-3.252988715284123828e+04,1.295349512340881120e+03,4.184390927416923773e+02,-1.446469125597592574e+04,-1.836538032056851662e+05,-5.144032240543956868e+04,-4.236143889260793221e+05,-6.311397259211901110e+05,1.272385774065393256e+06,-1.626119175157563761e+06,6.957281111102655996e+05,-1.098399359734572470e+06,-2.645261107037640177e+05,-1.954447718854460982e+05,-5.412330165244267555e+05,-6.284798933968966594e+05,-1.277212197091773851e+05,9.933418338698793377e+03,2.955756704426358920e+04,5.019481241352892248e+05,1.581944844807924703e+06,-4.849219920026576146e+05,3.234540503183607943e+05,2.579670356714196096e+05,-1.699635059977220371e+05,2.153476281603969110e+05,1.005511865798409563e+05,6.158484957279203081e+04,-6.005649335371445341e+04,9.479261649623655916e-01,8.467646893843753242e-01,4.534705107535356161e-01,2.997845205376164085e+04,-2.440009682627141883e+05,-4.303962042677116115e+05,-2.680490002201882307e+05,-2.733834361541501712e+05,-1.044471733882562403e+05,-1.072073119416220346e+06,1.816003394231302664e+06,3.791347229768478428e+05,-9.445635253240736201e+05,-2.111006800403039961e+05,8.526556263629733585e+05,-1.028379293504969566e+06,-1.173744141930071637e+06,-5.378505134812574834e+05,5.437745604443979391e+04,-6.592660767064617248e+05,1.664841688331558835e+05,5.577925749018144561e+05,2.097710533272137400e+05,-4.076774197956931312e+04,1.522029441818697087e+05,4.503790994173290528e+04,-3.779729158736971294e+04,5.824101774806939025e-01,7.207991601635174161e-01,4.522004257195400001e-03,1.677709445712197711e-01,1.468490331594012162e+02,-1.392653501671275881e+05,7.794488708624684659e+04,6.883076643524097744e+04,-1.135888669570604980e+05,-3.805244867299344041e+05,-9.605634499571701745e+05,-6.658839341482305899e+05,-6.598309208111467306e+05,2.085946160694576101e+05,1.222011545588152017e+06,-3.979794827680287999e+05,-2.590462365908484207e+05,-3.698859334172192030e+04,-2.665316399526090827e+05,-3.339254709186434629e+05,3.720025651822791551e+05,6.578466090277200565e+05,3.057568274954505614e+05,9.869432531175385520e+04,-1.245722318856793281e+05,-4.024022186418325873e+04,1.553460028587653687e+04,7.588710736111773940e+02,8.358462537495344735e-01,8.798667692361032966e-01,6.838908177512716957e-01,5.154354563919638643e-02,9.151161515735329877e-01,7.291016474117030244e-01,9.811745833908313216e+03,5.594651569134366582e+03,-1.300257389886308229e+05,-5.586968638190274360e+05,-4.451710924260944594e+05,-2.898507799485918367e+05,1.609717875690639485e+05,2.402562820936072967e+05,1.188561004694223520e+05,-1.924529559025340131e+05,-1.272967031180841295e+05,4.456576938765729574e+04,-1.315936689903916558e+05,-3.119875194516685224e+04,7.132000194255069259e-01,4.326575315050699144e-01,6.346149874802593516e-01,8.302361252623935428e-02,8.402148859100898592e-01,1.665073207198423111e-01,8.174152038169967271e-01,5.491119207835776228e-01,3.086851281127200863e-01,4.312128210553773933e-01,8.780049478265706808e-01,9.348293586625322504e-02,3.056577502076683883e-01,1.868475224456124240e-01,6.160514404803794086e-01,9.096955113047143771e-01,7.176491861866489685e-01,6.610070986734737364e-01,2.182167127817269403e-02,6.985124766274164358e+03,3.964874496828273550e+03,3.022757169252278109e-01,1.926360746284118131e-01,7.106693574240671296e+02,2.120112451084776694e+03,7.107071554732965524e+02,4.514958362773471290e-01,3.958336445800492154e-01,1.719088014921441587e-01,2.893561994029970608e-01,7.946822261291990319e-01,5.283021827951658311e-01,3.379266044404982683e-02,2.141658201474593293e-01,5.935585735794236539e-01,9.607895888908751791e-01,9.795135740692834103e-01,4.374294241571544672e-01,3.420581548876934219e-01,9.797541556887744418e-01,3.352087938279391111e-02,9.862006162712604329e-01,7.285020447853352010e-02,7.224492271094329343e-01,1.428148558289832337e-02,8.168988533330544533e-01,8.053372625720119915e-01,3.560817482531258849e-01,9.812616141355339217e-01,8.174622485580544939e-01,7.130772231748954137e-01,2.392645186578069572e-01,1.836166074108002144e-01,2.687757220780671030e-01,7.860816353499165965e-01,9.837947410802978521e-01,7.002235630404520794e-01,2.990076096283685869e-01,4.133479131634765213e-02,6.016180846163349250e-01,1.358734097428683230e-01,7.000927777434575727e-01,2.879172131499587728e-01,7.921969729884307254e-01,8.277296968236169672e-01
1.047768454508638536e-01,2.917518831981413818e-02,2.026690874983037016e-01,3.935541637148765037e-02,9.966462118505408085e-01,3.126639997990762199e-01,5.904961876646095398e-01,4.775920092447148990e-01,7.169170230596546567e-01,9.690640845620622779e-01,8.711929896092370784e-01,4.374624846905229569e-01,7.314128757469608999e-01,2.070915695708056559e-01,6.313492237560348608e-01,2.778339187625085138e-01,1.942009606565837654e-01,4.940268269265875034e-01,1.813734407584535191e-01,9.886187005041487952e-01,5.794309499321110835e-01,1.886901603239906633e-01,1.599422561069449022e-01,4.161624480030606810e-01,6.802728413915783978e-01,5.324800381477688971e-01,6.090948252064601887e-01,2.858324816918652589e-01,3.503544219577057195e-01,3.220182165355507387e-01,7.892286171977235254e-01,2.848439629495795877e-01,2.736901181508460956e-01,3.151491628309531778e-01,9.134678187869358368e-01,1.946167105034324329e-01,1.067457889969384288e-01,2.383203522458187118e-01,4.630645734805071134e-01,7.332311420762207126e+04,1.449271403913223476e+05,5.957550127784979122e+04,-3.029275700214803146e+04,-8.516041376038902672e+04,-1.451799019941607548e+05,-6.657504557284594921e+04,4.878588201135967140e-01,2.227365428245446921e-01,3.779095963357335108e-01,9.480917297103752528e-02,1.976736989765428554e-01,2.657104510033780898e-01,9.443324873000534803e-01,1.239140228644957098e-01,5.744375988723349202e-02,1.730078978168186898e-01,3.897340136649205533e-01,8.833596343224303649e-02,9.712954546347098983e-01,1.724613521054858211e+04,5.947091061688623995e+03,2.325458463535681197e-01,-6.132793303925833607e+04,4.273106704242606793e+04,1.554922026525460933e+04,8.549162015081503974e-01,7.591334075294435024e+02,5.089672228660572728e+04,1.143626264505077124e+05,1.852748018556576280e+05,1.431071156934043393e+04,-2.234541551666018859e+04,-1.667966016686784860e+04,-2.354969581319073768e+04,-9.352144133382536529e+04,-1.613373671708300826e+05,-1.424251026389237268e+04,2.598046449038660111e-01,2.452430211390564940e-01,6.681217399315061423e-01,2.834227739791812528e-01,7.374739646164514273e-01,7.128585414585465463e-01,1.060454489872127981e-01,2.574255580736355409e-01,1.446147580714985947e-01,-1.743618978277545102e+04,4.580136673866664205e+04,3.731687157535410370e+04,-1.173696415397457895e+05,-4.555951163040434767e+04,1.389626590246324195e+05,3.392664304342092364e+05,1.317701408798829943e+05,7.277589253409687662e+05,3.055447450875350623e+05,-3.289433042408700567e+05,5.886324645010499517e+05,8.381532028871430084e+05,1.037294189211992198e+05,2.765033084725890658e+05,-5.454071377515405184e+05,-1.348203043320046854e+05,9.667495418366052909e+05,3.920944271742406418e+05,4.895315306779738166e+05,1.094057083680402866e+05,-8.056619469356404443e+04,-2.974825300256309565e+05,-8.516069957845828321e+04,5.166941635598720772e-01,1.724688322048639755e-03,8.159383169050442586e-01,8.528286258792726615e-01,-5.978356875585096714e+04,-6.589613276224763831e+04,-8.362513978942294489e+04,5.005840491912787547e+04,1.320471086057312496e+05,2.763568382220107014e+04,-2.089261839525444375e+05,-8.035443495731496951e+05,-2.258219644456933602e+05,-1.027567229717943002e+06,-1.814232278192271770e+05,-2.109405537579872762e+05,7.567999084479983430e+05,-3.212454431648777681e+05,-1.356796116248772014e+06,-2.225599102344157873e+05,-3.109326435378791066e+05,-4.321683465593651636e+05,-1.145395518967521377e+06,-3.062902905014769640e+05,-8.321643940985984955e+03,2.334258341456435737e+05,1.348589904336817563e+05,7.779625166121721850e+04,1.111967928279682383e-01,3.052989905491103606e-01,6.521762766816219248e-02,1.272600560835295269e-01,-2.495180558368798756e+03,-1.276410472059598687e+05,6.832358308589813532e+04,-2.128885327828021545e+05,-3.202010450914198882e+05,-9.650977200817995472e+05,-1.424398193699279334e+06,-5.283731086405570386e+05,3.364810859428455587e+05,-2.900273069141872693e+05,-1.193149191448085243e+06,-8.095103552933845203e+05,-1.054799077257913072e+06,4.086230898507767124e+05,-2.106035680968016386e+05,3.851527334887335892e+05,-1.415696535534942523e+05,-3.028534672468652134e+05,-1.521454503857211967e+05,-5.075745090341178002e+05,-9.045702277621540707e+05,6.020608105084235285e+04,2.682421794733417919e+05,7.359588255096583453e+04,3.683003087675546340e+03,8.590878825868009105e-01,9.179967528695454071e-02,8.645730838651428662e-01,1.452834248784895863e+03,-4.375640271509165177e+04,2.575882717553371040e+05,1.205515613657666836e+05,-2.370975538507078018e+05,-5.962823307213978842e+05,-1.026933070112442831e+06,1.647500520213737618e+05,9.556524835734778317e+05,-1.147319519794091349e+06,-1.648282492901906371e+06,-1.076682057587902527e+06,-6.170757204893111484e+05,-9.578234352799284970e+05,-5.899239766562638397e+04,-5.136966963655772852e+05,-3.890627793656503200e+05,8.801593356485704135e+04,1.237098601996381185e+05,-5.341591100905218627e+05,9.300404810095553985e+05,4.440754374137002742e+03,2.789142564957446302e+05,-1.959405116877414912e+04,-9.542709145097587316e+04,-4.746460604989668354e+04,9.123252132241653767e-01,9.734284139837294791e-01,1.057255122057315202e+04,-5.133220535957534594e+04,2.689157647367115715e+05,5.161017694168741582e+05,-9.710286483206117991e+05,-2.510831894025412039e+05,7.565985577181926928e+05,3.166604249884316687e+03,1.491548748241235153e+05,-6.012432276201711502e+05,-4.519872368645755341e+05,-1.301387242551343516e+06,-5.646134815011273604e+05,3.923081358845893992e+05,-9.380938639046004973e+05,-9.274628654382338573e+04,6.221462881003250368e+05,-1.297466988360499730e+06,-5.458927282465910539e+05,1.473691519480485586e+05,3.357576082094570738e+05,4.222527010339361150e+05,3.432465644848069060e+05,-1.799850104881061707e+05,-5.519826665241640512e+03,-1.001313419316770742e+05,-7.545375034719472751e+01,3.029641290951228250e-01,-2.431407000627546950e+03,8.399827084335690597e+04,3.961974567958532134e+01,-3.141106131556169712e+05,-4.391560516877190676e+05,1.181035706402794691e+06,9.099387453996215481e+05,-3.596336626442666166e+05,-1.286786716396699630e+05,-8.324112227990617976e+05,-2.934299549574951525e+05,-1.237881734187606955e+06,7.689556406443632441e+05,1.046297868827554863e+06,-1.200505536903273780e+06,-1.187139680715358583e+06,7.044363759644778911e+05,5.553838326682385523e+05,-1.834745773409584945e+05,-5.765171176305996487e+05,-1.088552084837287199e+06,1.106267117772849509e+06,-2.150927488833873649e+05,2.575616352803265181e+04,8.399473548330242956e-01,5.469305014053998937e-01,8.945122407257590780e-01,-1.148240794029018616e+04,-3.763950513194202358e+03,2.107168623194355459e+05,-3.321472901050419896e+05,2.265882754764696292e+05,1.121736963369322475e+05,2.041976719282385428e+06,-4.537634860894897138e+05,-3.402772227921463782e+05,1.127525966880540596e+06,3.561390499791668844e+05,-1.512655207770409994e+06,8.958476411631982774e+05,-1.765214308741678251e+05,8.844060153577537276e+05,-7.784792341003856855e+05,-1.367299866615073988e+05,-5.475148700274210423e+05,5.980454690047934128e+04,5.170711150918097119e+05,-1.939930422386114718e+06,1.354295609220288461e+05,5.625605523676110897e+05,-1.062362786735471571e+06,3.639437928109554923e+04,4.818274858653029696e+03,8.295596695869997816e-01,3.895551703673081345e-01,-1.885430994379548792e+04,-8.289534435050998582e+04,-1.176603499070325779e+04,-3.582336820509334793e+05,8.377512784503684379e+05,2.456997366964087123e+05,1.727855691449776059e+06,-1.549434349415209843e+06,7.343871692793432157e+05,-1.903109303925158456e+05,-1.165290005236635916e+06,-8.325296532449763035e+05,9.136389555064514279e+05,-6.246767823106941069e+05,6.565046749082624447e+05,2.003485486396741355e+06,-3.124518105992921628e+05,6.507670719301924692e+03,8.904217175484333420e+05,-1.637763668258785736e+06,-2.979116565959217842e+05,8.020768317806138657e+05,2.450128544913938385e+05,-1.075872805697692558e+06,1.262248074112195172e+05,-1.841422316557357772e+04,-6.991634005279582198e+03,6.455289169086145806e-01,3.209008648143956452e+04,4.041721510766493793e+03,-1.488464413724687474e+05,-2.759512640734791057e+05,1.022930191831106669e+06,8.786393852354958653e+04,9.840855764539348893e+05,3.880690975642302656e+05,5.243302984140886692e+05,-8.296276430797899375e+05,-1.351721607471710537e+06,-3.249652568569764262e+05,3.007691605855790840e+04,-6.041320302295013098e+05,-1.317767305968316738e+06,1.109568668994941516e+06,3.950718445662573213e+05,-2.045959999821201927e+04,-7.714937650584054645e+05,-3.145864731772029772e+05,4.351911467858689139e+05,1.241847070445462596e+06,-1.849041002512385603e+05,3.818047904956726416e+04,2.598531105752839649e+05,2.878625209849287421e+04,-3.040661232527584070e+04,7.804208497748843509e-02,8.232341613408611011e+03,-4.414801584898978763e+04,-1.367653137679625652e+05,-3.714220262043102994e+05,4.417941782736391178e+04,-1.579971524966703728e+06,6.156359141836012714e+05,-1.434421812833765871e+05,-2.723296481283957139e+06,-1.312145661705011269e+06,1.443800548439776758e+06,-2.571032561536096036e+05,7.464045177300622454e+05,5.113524352279396844e+05,-7.410856833552462049e+05,4.829098742785495706e+05,-1.421262064984036551e+05,1.247246613701146794e+06,-1.080643647716113599e+06,-5.246485041409332771e+05,-1.084357382965504803e+05,1.274249302979038563e+06,-1.039669018392153084e+06,5.845622748259747168e+05,1.955216947517314111e+05,4.229356523497965827e+04,-3.856839098410649603e+04,4.949463105679746150e+03,3.241200890773125866e+04,-7.990557480428245617e+04,6.171419849530424108e+04,-3.139303730968650198e+05,6.954421964527524542e+05,-2.379835866953008808e+06,5.981665722619921435e+05,8.497539430815136293e+05,-3.128887272819282371e+05,-1.581936297528987052e+05,7.941650673097597901e+05,-3.592678588381424197e+05,-2.181923229678829957e+05,-1.961166476227919629e+05,1.896386651034633396e+05,1.566825797988758190e+06,9.917631387045640440e+04,1.086098355034115259e+06,3.590387072764117038e+05,4.602833528730230173e+05,4.569911299730646424e+05,1.213793597371649928e+06,-9.833032274131074082e+05,9.445836768861077726e+05,1.755248814731401217e+05,2.911449199423254413e+03,1.129765246018875624e-01,3.517600487558207867e-01,5.967167579278523926e-01,1.881605981228176915e+03,1.953602933801101171e+05,-2.303967676509898156e+05,-4.117560235350173898e+05,-2.737883951992692892e+05,-1.392508246334138385e+05,2.680940842977340217e+05,5.696470015948874061e+04,9.343655776371979155e+05,8.171793927889944753e+05,7.449218574839457870e+05,8.001455808163403999e+05,1.296543773876997293e+05,7.309327970666819019e+05,-5.691805894124819897e+05,-6.536679123304771492e+05,4.428657638595027383e+05,1.696953285601694835e+06,5.465183184153401526e+05,-1.600410880855100695e+05,5.645082046445233573e+04,-2.077959934554041829e+05,-4.112858071327859070e+05,5.903007144660358317e+05,1.772523128631361942e+03,9.070696370775189754e-01,4.027984321623222508e-01,7.533187618200102298e-01,-1.834201679593201334e+03,2.255806554649552272e+05,-1.382910036971974652e+06,-8.321884950248143869e+05,5.184945278787116986e+05,2.104581734537066892e+06,8.636143650053460151e+05,2.522185768754819292e+05,-7.030165879574744031e+05,-2.020580590146591421e+06,7.521581584094456630e+05,-4.250799389998623519e+05,-1.927601398906294489e+05,-8.656530322361481376e+05,-2.231783974757965188e+06,-5.060283936602816684e+05,-1.088800230084348470e+06,-1.468561193198825931e+05,1.112611151965433266e+06,-2.047715259558812249e+05,-5.999461815520258388e+05,3.737008027098766179e+05,-9.107450480993426172e+05,6.040025644610818708e+05,7.096122687749603983e+02,7.140781880950933802e-01,8.696686658162707806e-01,1.095416528266011937e+03,-3.593928915824220894e+04,2.218275349946179485e+05,-9.537180893677341519e+05,-8.872286841295639169e+04,-1.020863366145696928e+05,1.662873239418115467e+06,9.117976103506149957e+05,-4.619325991774629802e+05,1.124555615571039962e+05,-7.251063675276208669e+05,6.323300741496990668e+03,-5.421008447924316861e+05,-6.668329440384070622e+05,1.391794273533148516e+05,-1.255918555451293476e+06,1.302842515506365162e+05,1.612213706381262164e+05,1.587202701956793317e+05,1.662052408750800649e+06,-9.531995823389923899e+05,-3.854243025101047533e+04,-6.544459865105192875e+05,-8.963562718898997409e+05,2.113537901217653998e+05,2.460071696530796544e+03,7.662212718981691069e+02,1.247667611577432112e-01,6.235172021408110595e+03,2.393433098995572436e+03,2.628192070401948877e+05,-1.443914224811870372e+06,-3.914989174430501880e+05,-8.832545772107775556e+05,-8.784525580825454090e+05,5.683300940169382375e+04,5.195238802637127228e+05,-2.622316142767889542e+05,3.481635929553781170e+05,1.617507207077861240e+05,-2.172413825460236694e+03,7.692126930518143345e+05,1.077518039527200017e+05,1.063419615339555545e+06,1.638363761913565919e+06,-5.897895116942905588e+05,1.617180343376155477e+06,3.427665331728839083e+05,4.225735724215488299e+05,-2.988300823760634521e+05,-1.378097977657394251e+06,-1.375980979981863871e+06,-3.197515563690948693e+04,5.919641863012515387e+03,7.242794713283801684e+03,-5.950839180000466513e+02,-1.727301175155932924e+03,2.725013525237328054e+02,-7.298161108434591733e+04,-1.615930867960423464e+06,-1.320566594607711304e+05,4.184937882142541348e+05,-1.234165101680247812e+06,-1.092689723876377102e+06,-3.740544393092093524e+05,-5.028976273740802426e+05,8.035983832955997204e+05,1.171361889709763462e+06,8.135015014408262214e+05,1.142985165277915541e+06,8.476552161816833541e+05,-8.074205366113618948e+05,-7.570671188003249699e+05,-2.198397288285406830e+04,1.237121532182040857e+06,6.386968848901319143e+04,5.205624294074077625e+05,-1.419061300752503157e+05,-1.998950122150703799e+06,-1.773928426599579689e+05,-9.748443189297965728e+04,1.330529440986316877e+04,1.773655636773866718e+04,-2.975857348530954368e+03,1.742946353013910266e+04,3.531764171470503788e+04,1.402011443729431485e+05,-7.990139585098518000e+04,1.305158961579763331e+06,-2.306011333594262833e+05,-1.193411322287504561e+06,-1.163192098607475404e+06,-3.820270820296988823e+05,-9.237312309749174165e+05,2.111163762830546475e+05,2.097260213710393582e+05,-7.909317655260316096e+05,-1.273730353559693554e+06,-1.734083687752827071e+06,7.814143429290626664e+05,-7.080575616059001768e+05,6.782530867035030387e+05,4.635473407888729707e+05,1.372543249583033612e+06,-4.542732062284628628e+05,-4.546017930011874996e+05,-4.689101683510374278e+05,7.241898041321141645e+05,-1.306543307729363441e+05,3.847855708651997702e+03,1.347924379591416800e+04,7.838487718412145977e-02,8.489030477082313155e+04,5.950709769611721276e+04,3.519378566709723091e+05,4.890229996209701058e+05,1.073167756696182070e+06,-2.378836011356413364e+05,-1.965522993198990123e+06,-4.459453146059987484e+05,-1.024756480051804218e+06,7.102625560589840170e+05,-2.790515545983716147e+05,-4.327901089150042390e+04,7.661693435624730773e+05,3.853768227263494628e+05,2.992931813657803286e+04,-1.975668681822918588e+05,1.198591381725265644e+06,-9.334690490544533532e+04,1.390739580505835591e+06,6.748110543275406817e+05,-9.104279785360145615e+05,2.654813666063941855e+04,4.091281829436289845e+05,1.872806142458426766e+05,6.043448685911011853e+04,4.141479330363445479e+04,9.728997192157958125e+03,3.764953829441494236e+03,1.177201122194335312e+03,3.395582477391805151e+04,-2.824202364308114193e+04,3.421068670036504045e+05,5.231542131616921397e+05,1.010223031432121497e+05,2.690321329298013588e+05,1.986900901046154788e+06,5.305226018208330497e+05,-1.494628550599132665e+06,-4.406576610244784388e+05,-9.759481623457467649e+05,-1.763115272118048277e+06,-3.818499317671875469e+05,5.049868435969412094e+05,3.214513566098097945e+05,-8.346041071978536202e+05,3.837923188783776131e+05,6.261759280132201966e+05,-1.395043167886352632e+06,3.583006568153029075e+05,5.038735639049220481e+04,-2.105399867870932212e+04,1.558634794720784703e+05,5.064064934166255989e+04,1.216184946318928123e+05,-2.373330742937420291e+04,3.647910032014847729e+03,1.176569181934175958e+03,1.260831461923218922e+04,-2.032296630070940009e+05,1.001744108881927212e+06,4.115851058869869448e+05,4.245035572422213154e+05,-7.824857074598643230e+05,-3.638282885547146725e+04,-2.379990962007706694e+05,-1.654899532610498834e+06,-7.521963761730379192e+05,-5.594121115701891249e+05,-5.087517847088795970e+05,-6.705839394942688523e+05,-1.289664993668030249e+06,2.253104231865985494e+05,-4.119011646752637462e+05,6.056695056206726003e+05,-7.224423844926571473e+05,1.229672816313668445e+05,-2.595336279207156331e+05,-1.331898919421046041e+06,-2.457673806343616889e+04,2.412250846922371129e+05,2.521565761312023096e+04,6.462619734132600570e+04,-4.381503901188692544e+04,4.953962139409391341e-01,7.658050550969112136e-01,4.307894072416178499e-01,-3.788930410771149036e+04,1.974645430084943946e+05,2.325397754820309056e+05,4.963446989367780043e+05,3.456430080410872324e+04,-1.756430629196911585e+06,-9.079665280013084703e+04,1.523124561942855129e+06,-3.495175907737551606e+05,-3.525339531653947779e+05,4.881626412084641634e+05,-1.250788336898437992e+05,1.451160738890695502e+05,9.447485579550545663e+04,7.968566415360001847e+05,4.799533246213792008e+05,-1.147056174983415694e+05,-1.338797180232597748e+06,-6.992068082903024042e+05,-1.804359575567683787e+05,2.206999766401365923e+05,1.836870025136223703e+05,4.506357657172578911e+04,-6.111221567443918320e+04,9.127698368057641787e-01,5.490038418854770175e-02,5.470684244174142119e-01,8.567956404805108228e-01,2.733127279790345199e+01,-6.863883977527463867e+04,-5.015594556045255740e+05,-6.801487766019803239e+05,-4.064988130158628919e+05,-2.697700633311781567e+05,-2.504635416291209694e+05,8.009365000178946648e+05,8.743506072726275306e+05,1.158158909756802022e+06,3.336306023789026949e+04,-7.409935048334742896e+05,-9.752068789380833914e+04,3.758835901935705333e+05,-2.794860531584014534e+05,-8.943550963195101358e+05,-8.324582560954339569e+05,-3.606806599963497720e+05,1.288838849622482667e+05,9.507874517101146921e+04,2.998486897655286884e+04,2.437080466146050094e+04,-6.094904466889020114e+03,-2.987409001919552793e+03,2.709206218125491672e-01,5.842574462421636916e-01,5.535799428038038483e-01,8.603869220597148981e-02,1.638740747036934176e-01,4.943313472357345750e-01,3.346563532150514220e+03,2.555366468889777025e+04,8.464831740896678821e+04,-2.715099235961138038e+05,-3.246505483399209916e+05,-1.925499187755274470e+05,4.640657727821551816e+04,2.493457068921513564e+05,-2.859309288910214673e+05,-2.580150208596691955e+05,1.753639456581593840e+05,2.509930976698979212e+05,1.279680076239775226e+05,2.246353130407316348e+04,6.749798462606704241e-03,6.711596732490567874e-01,2.452078012201182045e-01,1.598092044137137124e-01,4.577477704318835272e-01,2.355919527455240248e-01,7.888946149870514901e-01,6.196229658547035557e-01,3.592993407986631027e-01,2.782258061627885803e-01,7.168370687185514623e-01,8.707851344730410670e-02,3.871144484826575249e-01,1.697128229180944192e-02,3.251494569758210940e-01,9.142862950880261685e-01,8.135313021702222924e-01,8.329431958309412298e-01,2.609839988607443040e-02,-1.437503298130968687e+04,-8.158483727113092755e+03,5.980759477248259737e-01,6.091560811910212703e-01,-1.260354732959024659e+04,-3.761588319916345790e+04,-1.260430969554743569e+04,3.896754547769515353e-01,2.211426127978478595e-01,8.538508041777947977e-01,4.744557050220437056e-01,7.134062936525067400e-01,9.283807038233047315e-01,3.879387758959088606e-01,1.599459902042074111e-01,8.876274653051554608e-01,5.367177837990158018e-01,9.265011392668673906e-01,5.508388476443347725e-01,6.330003188569277572e-02,9.484397441188570088e-01,3.239626130673067816e-01,1.830799354794668821e-01,7.560720591827586601e-01,8.574721866039347606e-02,8.233437201477268319e-01,8.344067077571619695e-01,4.344840267692889890e-01,9.693928136944132135e-01,3.541309416251776643e-01,6.190086162972919803e-01,1.364307112330963578e-01,9.285392122495238487e-01,1.886538162072102232e-01,1.478933522316036031e-01,6.075110077753206328e-01,5.013584537484461201e-01,6.779708335353041848e-01,8.713197813113178203e-01,5.978550632413025534e-01,1.743760508252072405e-01,2.131631738224568640e-01,6.853781191257501959e-01,6.922873190477170091e-01,1.621617981706769962e-01,1.111595781784143755e-01
6.297839636383617545e-02,9.619751762978432374e-01,3.207494110004327492e-01,5.901200859760752371e-01,9.951928940022507497e-01,4.454659188056178110e-01,9.799229894829875054e-01,5.615053278751152011e-01,7.140803667231083729e-01,7.191132445317477417e-01,5.031149833710287789e-01,3.268994642530318462e-01,1.927650041239922230e-01,8.156359377019511969e-01,1.696180926281137813e-01,8.849653262195955605e-01,1.528119034026155232e-01,6.315536493329488854e-01,5.564251791478028730e-01,4.853058776974945587e-01,8.263065500099856520e-01,6.056797339346366993e-01,7.917695841482161878e-01,6.907016600843421950e-01,3.885408657212431338e-01,1.237816365848172229e-01,9.864780950621799827e-01,5.769404806829836474e-02,8.528232496166374688e-01,1.312200473735123385e-01,6.790789576379400172e-01,2.549047813632238091e-01,3.406734945014829874e-01,7.464157893483336359e-01,8.140914005574130252e-01,7.496994518138592190e-01,7.876840681320713689e-01,6.660440027435812205e-01,2.321625791835669750e-01,7.328764382381663017e+04,1.448562753862598329e+05,5.954578783458305406e+04,-1.585955483930350601e+04,3.181867726803270489e+04,8.079391127275346662e+04,3.868363334599458904e+04,9.328950818365304709e-01,8.067069690006152261e-01,9.287482689102155575e-02,4.515828589590616948e-01,5.500800728625432345e-02,3.594989524546062798e-01,9.498270872030479817e-01,1.543033372539286407e-01,8.115643061942887648e-01,4.602439956005494048e-01,4.400942678409152098e-01,6.671913558513871134e-01,1.164208419778456349e-01,1.724261644719873948e+04,5.945671359449257579e+03,1.653257502625075093e-01,5.681898622611413884e+03,6.313414108541757014e+04,1.552611700735835984e+04,5.551111262323027429e-02,-3.184286384669620747e+04,-3.975559130169756827e+03,9.976611037831458088e+04,7.059792936640430707e+04,1.128971747188750596e+05,5.179070179726512288e+04,-1.842352688036164909e+05,-2.196815332549067534e+04,2.356140852029684538e+04,3.507159789427417127e+04,6.906224484754604418e+03,3.305177464834158085e-01,6.397144647578922871e-02,3.439002515972872098e-01,2.375552479752476298e-01,1.207945349910413135e-01,9.323717289320243573e-03,3.830303169341794378e-01,8.758496303362761637e-02,8.298317861066072387e-01,8.464078719977547735e+03,5.195709310525357432e+04,4.897090863595705014e+04,1.686432611565180123e+05,1.337648349236981885e+05,1.108735927587515762e+05,-4.160469574372844363e+03,3.502515047677815892e+05,2.615515880541042425e+05,3.879457941424185992e+05,-1.193912332856623689e+05,4.876839479162608623e+05,1.754757645664262120e+06,1.360303028053526767e+06,1.136026693655564915e+06,4.075259100319314166e+04,-2.639765438846597681e+05,-5.036677529140980914e+05,-1.101034033359872643e+06,-8.647994712913440308e+05,1.410710543863321072e+05,3.202969505033165915e+05,1.444212013827586488e+05,4.134436638641849277e+04,2.841916852925316928e-01,5.960075183809874222e-01,8.173851278887833693e-02,9.548511392330312209e-01,2.901700191005613306e+04,4.774141046707659552e+04,4.628863893002053373e+04,2.067276678816066997e+05,2.754729588381234789e+05,3.824941074405369582e+05,2.317430027253917360e+05,5.608362949900428066e+05,8.404291953646334587e+05,2.036663598938870418e+05,4.320488053552627098e+05,-1.184618930889765616e+05,-8.195126509339102777e+05,7.268255633301730268e+05,2.003640973517524544e+06,-2.558349040528011974e+05,1.970283889050320722e+05,-8.347254988057038281e+05,-1.700448424531272613e+06,-1.031636903992269072e+05,1.015103125228627468e+06,5.928340071703927824e+05,3.165498389604584081e+05,8.981612808078031230e+04,8.320093660926914936e-01,7.268642002773307853e-01,1.998885464023871794e-01,7.723181084111463424e-02,8.858755623127166473e+03,3.125132609267184307e+04,-2.955492000908973860e+05,-2.788783083278118283e+05,-1.419372549452117528e+05,1.766151418417459354e+05,-2.479234685118824127e+05,1.135513847847523401e+06,9.413050801586402813e+05,-3.830881717283377075e+05,2.555317713040511007e+05,-7.228791245589201571e+05,1.881128857761930267e+05,-8.201572305199711118e+05,-2.901182901965817437e+05,-8.294929672253925819e+05,2.578944406569045386e+05,-8.159286454140008427e+05,2.445430228439813945e+05,-3.624433755057521048e+05,6.335004019831509795e+05,4.814046725361132412e+05,7.586440024925404578e+04,7.108662223383106175e+04,-7.564322592398227243e+03,7.876400444876506812e-01,4.791887005158124158e-02,5.408685519445459722e-01,1.207401709750357213e+03,3.383100014483990526e+04,-6.678127231654197676e+05,-3.976725166150339646e+05,-2.971189254959475948e+05,-6.201151195462564938e+05,-1.085668948715028353e+06,-1.282831859427363146e+06,1.061925472649237840e+06,-5.444757852405090816e+05,1.190472269912129268e+06,1.384553559347609989e+05,6.394999025878254324e+05,2.554549421846345067e+05,-7.362106851693498902e+05,-6.324878448354592547e+05,-6.396165767093290924e+04,-8.722366163048195885e+05,-7.542333314456961816e+05,1.045021283290757914e+06,-1.354991070698124822e+05,8.999278394004132133e+05,-9.656617210821458139e+04,-9.044443220186984399e+04,3.195591998876418802e+04,-7.243677161049141432e+04,8.325271228554000924e-01,9.369307611079310538e-01,1.886783533689892465e+03,-7.910356847164624196e+04,-8.551238147105198004e+04,-6.496143492918066913e+05,6.835116214057590696e+04,-3.762966752130980021e+05,2.562647789642021526e+05,-1.133409530549477553e+06,1.454609488179638574e+05,1.043062806398347835e+06,1.403788998984869802e+06,1.335239245427693008e+06,1.044647339451284730e+06,1.231615139624227304e+06,9.560975957816091832e+05,-8.083259194748282898e+05,-1.864839771186158760e+05,-2.324157866344852839e+06,-7.393061494173256215e+05,-4.480377955174361705e+04,7.497281450836122967e+05,2.342230463600546937e+05,-1.812565821646614058e+05,-2.484599244417329028e+05,-1.790290900097732811e+04,-1.528115700318044401e+05,-8.202041562888189219e+01,7.570681140113147967e-01,1.176005575206522190e+04,-4.271502241420287464e+04,-1.168248938489978027e+05,-8.187843381933170604e+05,-7.653046517697479576e+05,-1.338951194903601194e+06,6.954899029862791067e+05,1.911539716103402316e+05,6.811595522612095810e+05,7.798049222379686544e+05,4.157467883717449731e+05,5.803860538937752135e+05,5.912023140221764334e+04,-5.345000253430190496e+05,-1.359734446805475745e+05,8.697129761949251406e+04,8.119000795413986780e+05,9.251645813141580438e+05,1.202053923842084128e+06,6.065079458289294271e+05,-2.905660410403998685e+05,2.915667276806706213e+05,5.369353592930531595e+05,3.691192813056560699e+05,6.693345819055440682e-01,5.147875346413359754e-01,5.055696906597172413e-01,5.785688386211438228e+03,-1.627965090117848740e+04,-4.130216497078290558e+03,-3.674472844871929265e+05,-9.945625115715181455e+05,-1.328819265490644844e+06,-1.030550185212766286e+06,-1.359144983500999399e+06,-1.253164099932919780e+05,8.280594846155925188e+04,-2.297968595252131578e+06,-5.992253422355740331e+05,-7.432434528875329997e+05,5.324245031017740257e+05,-1.138867431712668331e+05,-1.401274623591105919e+05,6.386335676187893841e+05,1.441125226889852900e+06,8.721960708273894852e+05,-8.144592405029806541e+05,1.103134344222286018e+06,5.796229407144100405e+05,-3.359084113094425993e+05,4.764920519897510530e+05,3.080863007118452806e+05,7.916033793062557379e+03,5.575641781831619515e-01,9.377387061788713396e-01,9.498881243515252208e+03,-8.266359909350979433e+04,-6.459664123751016450e+04,-5.175474734469937393e+05,3.161927660610527382e+05,-7.266813644171095802e+03,9.892486339614284225e+05,2.043190293351480213e+05,1.327625587631574366e+06,-1.554168020278340438e+06,-6.301200698303664103e+05,-1.643402723332787573e+05,3.686711931861545308e+05,2.493889824221213930e+05,-1.619977201836825116e+05,-9.095875428102101432e+05,-6.345366848194680642e+05,-4.567596693389860447e+05,4.853631557173197507e+04,-4.508134716227243189e+05,-1.847595414527234971e+05,1.384532500198469264e+06,-7.492546099172420800e+05,-4.554817467120324727e+05,3.001580701212856802e+05,1.017378257477979787e+04,9.136282889039703150e+02,7.059192284565113384e-01,2.828798947269550263e+04,5.404978423776424279e+02,9.507538127012457699e+04,7.537963224226633611e+04,1.939378297268026741e+06,2.716591293649909785e+05,1.542673287472450174e+06,-4.957764390304736444e+05,-1.176967150617771549e+06,-3.952323689429713704e+04,-1.489418188053730875e+06,-1.214633032193941064e+06,-2.099267935047227889e+06,-1.177852501948971068e+06,1.146304049987132428e+06,-9.500327965167083312e+05,5.932295280439789640e+05,-1.733574692825983977e+06,-4.584606760827442049e+05,9.255954547225229908e+05,-6.511679507457162254e+05,-7.931917460519042797e+05,-1.057513775894252351e+06,1.091038916348095750e+06,8.471738691754813772e+04,6.074394948231515446e+04,1.351768877131762565e+03,9.887453265787161660e-01,-1.063855260294208892e+04,-4.796098204482942674e+04,6.925791065041176626e+04,6.163042981456128182e+05,-1.934081364296498941e+05,-3.939518337409267551e+05,-5.256867865249763709e+05,-4.758856055507993005e+04,-1.432859418268394656e+06,-5.794257905198311200e+05,-1.378463223187333904e+06,-4.662421575487381779e+05,1.795023785843860242e+05,3.551427156501633581e+05,4.079178564216841187e+04,-7.696203911624128232e+05,5.528408407302580308e+05,1.850082905072640278e+04,-1.540316630220778461e+05,-1.246152344513126416e+06,-1.212286376676878426e+06,4.155997388381022611e+05,-7.768564165040523512e+05,-7.593465059050660348e+05,2.911604707714867254e+04,4.624709407641377038e+04,1.522063863372646665e+03,4.947892380468751071e+03,-4.189261845293237275e+04,-8.185968625675234944e+04,2.021337966830787482e+05,1.164758449473714689e+06,-7.410911738873240538e+05,-1.827640355612051673e+06,-1.112855071389385499e+06,8.709528182910832111e+05,-1.791443336080837063e+06,2.557530439981903764e+05,2.800817576607508236e+05,4.765496994739829097e+05,9.301293549882172374e+05,-1.158498102951058187e+06,-1.268532771562809357e+06,-8.970071062906682491e+05,6.826343550710284617e+05,-4.942296889100448461e+05,-2.278162755584952538e+05,1.119962354989937972e+06,-1.211604161612980301e+06,7.501220040317899548e+05,1.005399073927657912e+06,5.866391902287709527e+05,2.062523679329418519e+05,6.738447787606827660e+03,5.951364506176500813e-01,9.318985240362231970e-02,7.497473280486848246e-01,-2.137479861854724277e+03,1.139402993954784761e+05,1.865295217597652227e+06,-7.708193413028218783e+05,-1.118761472670850344e+06,-3.938882120601462666e+05,1.371484083400358912e+06,-4.687169531106520444e+05,-6.028556078903793823e+05,3.516788246347222012e+05,-1.828251230642619194e+05,-4.141369643544105347e+05,-4.823228774622966885e+05,-1.232678884818268270e+05,2.253894961565201520e+05,9.682974726950657787e+05,3.604856721977782436e+05,-4.134255527166518150e+05,-8.807306725278841332e+05,-1.945093797140413895e+06,-9.603474516446960624e+05,-5.312183193909401598e+04,1.076469572317239596e+06,3.327829663389931084e+05,-3.531650660458582024e+03,6.632641515607213822e-01,1.593530549891564174e-02,4.939065295516269494e-01,-1.249975130284799889e+04,1.697522880820027203e+05,4.720376457567129983e+05,-1.148350794627356343e+06,1.053200935697792098e+06,4.642315965690132580e+05,1.561100546310701407e+06,5.666405731160691939e+05,1.193695219312509056e+06,-1.601616407000174804e+05,-7.485534095821055816e+05,-2.824846493449595873e+05,-2.067620505564726482e+05,5.979213422791964840e+05,1.366867485395360505e+06,-3.654857244963324774e+04,3.227419344895784743e+05,1.028361130022249126e+05,-9.844129696324332617e+05,4.692966866677060607e+05,-3.619765625693231705e+05,4.987249918271903880e+05,-8.810536687558647245e+05,2.499873366746871325e+05,-1.412329855740032372e+03,3.302562019835730833e-01,7.937022837261596964e-01,-9.796710205406019668e+03,-8.205342796128359623e+03,1.773870899062195094e+05,-1.094482085205538431e+06,9.227867829627579777e+05,7.567313258621094283e+05,1.472295509420260089e+06,9.165083186083714245e+05,-1.057896245518211508e+06,-1.812748707049167424e+05,-2.045040761045176769e+05,-4.490735692777293734e+05,-2.003461965202474676e+05,1.105276676461616298e+06,-5.411771815203381266e+04,8.337288776586427120e+05,-1.527925749331171392e+05,-1.108278629368521273e+06,-6.590222016590670682e+05,2.525193385734094190e+05,-5.007763663987452164e+05,7.440814432659862796e+05,-5.645865756405593856e+04,-3.754889725469897385e+05,7.886103838019014802e+04,2.427841154188892688e+03,-8.693709512373743564e+03,5.985723552636029732e-01,-9.185254680163316152e+02,2.391829231925577915e+03,2.116467516530323483e+05,-3.215074547154856264e+05,4.066922574526487151e+05,1.233434410557863303e+06,1.278227318285040325e+06,1.495529240974255838e+06,1.411482491172583774e+06,-1.333770934333707904e+06,6.108902201456177281e+05,-5.199612598376820097e+05,-4.562148666152412188e+05,5.304592121594783384e+05,1.065940019970945083e+06,-3.845587203783715377e+05,-1.697395559958908416e+05,-3.109512472373465076e+06,-1.058795052264623344e+06,-1.068133567341573536e+06,1.329928860707471147e+06,1.818956119463798823e+06,4.254956162427331437e+05,-1.480723162197506172e+05,-2.386801125099765486e+05,5.867196520864919876e+03,-7.473977739584902884e+04,5.337908712379039571e+02,2.788055264503350372e+03,2.723696169870651715e+02,-3.428343282392309629e+04,-3.480584145558133023e+05,-7.771582261576439487e+05,6.243750104390393244e+05,-6.037937903788568219e+05,6.777599742125554476e+05,4.293896631740138982e+05,1.969194146562717215e+05,-8.274491465822656173e+05,-5.830840550121898996e+05,1.130322041636761278e+05,2.019806723191894125e+05,-5.706266375351714669e+05,-2.048887185268074740e+06,-1.289506797817210434e+06,-6.210983245256287046e+05,1.340386989933250472e+06,-2.352562013475151267e+06,1.000119228237515548e+06,1.402847694427746814e+06,-1.406901030151688494e+06,-8.074017837484227493e+04,-7.531236998283442517e+04,1.323241557289000230e+04,1.769531263791493257e+04,2.669564164661379436e+03,1.724354961334940162e+04,5.771174849561961310e+03,-3.403396919236886897e+05,-8.684144195884444052e+05,7.908215772459269501e+05,1.938544768239343539e+06,-1.887489068181742914e+06,-1.960580801275782142e+04,1.176433673090726836e+06,2.464655836145387148e+05,1.614947130161333131e+06,1.047633850343739381e+06,4.828289795987169491e+05,-6.000557725362272467e+05,-6.579682516896857414e+05,-1.309845444438735722e+05,-1.199763796880739392e+04,-1.432144332584305899e+06,1.200204332506216131e+06,-3.823558760206451989e+05,-1.135855575461606029e+06,9.700110576550180558e+05,-1.629740118869138882e+06,4.992343031573444023e+04,-8.608425591868239280e+03,3.611916167221941123e+03,1.101250620805397193e+04,6.198373029668040601e-01,6.683711480293350178e+03,5.393674092071378254e+03,9.767549743739390397e+04,-1.789737203749047592e+06,4.135392148929972318e+05,2.674314158683942631e+06,-4.325202350483945338e+04,-6.110439555595347192e+05,5.113695421870319988e+05,2.073529219415497268e+06,2.600603946298229857e+03,5.469368982325430989e+04,7.075880970362531953e+05,5.079469873749120161e+05,-5.168608188099315157e+05,-2.997260429237427888e+05,5.161540238418342196e+05,1.196661562438054098e+05,-8.681353292320061009e+05,2.534039348050877743e+04,1.603482375805075513e+06,-1.136884212038421771e+06,-8.862118989123811480e+05,9.953201282159607217e+04,1.699421367893164643e+03,3.986389670843120985e+04,1.583544912289071362e+02,-5.305612441074008530e+03,-1.657355051957372552e+03,-5.242361810074355162e+04,1.080810182183405996e+05,-9.884572144942919258e+05,-1.783634092271932401e+06,-1.187883372208741959e+06,-1.220104777613091981e+06,7.862487925236858428e+04,-6.506087281631223595e+04,-2.845079654161583167e+05,-1.943368376992701960e+05,1.771741064875951852e+05,-4.393695158270838438e+05,-1.528611376211274415e+06,-2.691049671215028502e+05,-1.035321510321000824e+06,-1.647001040123844286e+06,-1.348520930257261498e+06,-5.127436563589719008e+05,5.317898317422757391e+05,-2.431712693253845646e+04,-6.550724668083633296e+05,-1.103844694276398950e+05,1.731337330452009628e+05,6.905360642284154892e+04,3.022595268713355836e+04,1.576947956718665228e+04,-5.140286132090899628e+03,-1.657413675014955970e+03,-2.593776575640747615e+04,-1.703465531730763905e+04,4.045672979904859094e+05,-1.283403772377408808e+06,-1.383995492679515621e+06,1.300460834572331747e+06,-1.829527863732805010e+06,-2.171601932193295797e+05,-1.768365329392944695e+05,3.836984107817643671e+05,-1.059075827124179108e+06,-1.122060364696588600e+06,3.830276513207892422e+05,-2.548382845879822562e+05,-2.670047248917279067e+05,9.542335042538851267e+05,6.397469818579626735e+05,-4.085143605152019882e+05,7.858213059287694050e+05,2.373660346407438337e+05,-8.073295502416109666e+05,-3.870934173554021982e+05,-1.969653622760285507e+05,4.062944744318521407e+04,1.151892807992579037e+03,2.911232190892131621e+04,2.087314532378731213e-01,5.045587393406318899e-01,6.529088682261826593e-01,6.113484215523837520e+03,6.289427274312278023e+05,-3.575608502063421765e+05,-1.479298187493770150e+06,-1.089436185071464395e+06,8.948576965341680916e+05,5.511201713785543689e+04,-8.631127957531342981e+05,1.804936168236862577e+05,6.044366129287581425e+05,6.037814714107569307e+05,-1.282348170597348362e+06,4.605123736145478324e+05,-5.652022750526450109e+05,-9.024526466268871445e+05,-2.407676629248146201e+05,7.595512437415308086e+05,-5.718466655824013287e+05,-5.493474884682863485e+05,-1.861405321747699054e+05,-4.344217834758572280e+05,-2.527392914985423558e+05,-1.128917979680783465e+05,2.030440709722671818e+04,5.388606881442270513e-03,8.049866456223231381e-01,4.050479096424506320e-01,4.562487461605311267e-01,-1.813627284906613113e+02,3.733919037100909627e+05,3.579750029913663457e+04,-8.128923791904605459e+05,-1.063875644831180398e+05,2.585594957538897870e+05,4.738179749970894190e+05,1.424621717253847746e+05,2.742884622868334409e+05,-1.238580144491540268e+06,-7.692084962072385242e+05,-9.911919996817905921e+05,-4.945691550811053603e+05,-7.601377079621637240e+05,1.795055065659024331e+04,-4.352214416684609023e+05,-5.825032274807164213e+05,-1.979008666756277671e+05,-1.638188290033659432e+05,-2.969087843419132987e+05,-1.619254511159361864e+05,-7.630631091468090017e+04,-3.175708952163806680e+04,2.101865379819153532e+03,9.503015400560413939e-01,5.715011232612510206e-01,4.814503337764097779e-02,9.401034095830044235e-01,4.858808526853830578e-03,6.484153782743763417e-01,3.321008215826497690e+03,-2.352949194661092406e+04,-2.294680692941423040e+05,-2.584036036956915632e+05,3.347121556256210897e+04,2.163025343007501506e+05,3.615831346049442072e+04,3.971117614310355566e+04,1.354093871267699869e+05,5.343306314686554251e+05,1.244398243869818980e+05,-1.087860735113206756e+05,-1.722816613367641112e+05,-4.615056212357156619e+04,4.143568690579301217e-01,1.173069679796480136e-01,1.380149061654956100e-02,9.824430085455343464e-01,3.593664101034811376e-01,4.859824781268521354e-01,3.479859866702500470e-01,8.198133672436510588e-01,6.359460690041263131e-01,9.413190678875830164e-01,2.216882440959270228e-01,6.065074772383014512e-01,8.183096607519757537e-01,2.805379924371023126e-01,1.131859564278814290e-01,5.899050146028567143e-01,1.155941639837776425e-01,7.767462899457944214e-02,7.922888234432809984e-01,-1.136916261071144618e+04,-6.452923282958997333e+03,2.028300133354200563e-01,8.032991722252877942e-01,7.124778389060029440e+02,2.124841637549987354e+03,7.124625075018029747e+02,9.069025482131553018e-01,9.128210564631707991e-01,3.177154624952116535e-01,2.158033536357906179e-01,2.341479014261722558e-01,3.968764035380335509e-01,7.227496117778283713e-01,2.495425070021847214e-01,3.332861211096999066e-01,5.142041379405528634e-01,6.817133510375457117e-01,3.402885521110748934e-01,8.668211508520546893e-01,1.797413692684226572e-01,1.620248166423260416e-01,7.662481379192500608e-01,8.057603903588214100e-01,3.854636104411905961e-01,9.596863648757412157e-01,6.089081953239063871e-01,6.597798819124525149e-01,6.862136050156915079e-01,4.505466949126351039e-01,2.284680034097370527e-01,6.589049094984530397e-01,8.323116156328441706e-01,5.713254515970073166e-01,3.590908198749666047e-01,9.241182610987416224e-01,7.348687142086971491e-01,5.374553113837414742e-01,7.634686367787781869e-01,7.443913210130357339e-01,1.003234827505461446e-01,3.855985451960974864e-03,5.537733664730192240e-01,4.805996547562718657e-01,2.596666487049463790e-01,2.936808677392079847e-01
