1.780387238354231849e-01,9.431007406670819382e-01,9.667043794285447023e-01,3.277368913214890878e-01,9.808141130244918404e-02,4.802372322468475563e-01,9.991345614031541533e-01,3.750170528432253958e-01,5.792056754844402411e-01,5.434638259003869987e-01,7.371372921263521505e-01,9.315720644050276000e-01,2.640560214204183964e-01,8.944923630738840226e-01,3.053137389562438075e-01,3.255087323765002427e-01,9.213717117115403088e-01,3.030905764580205108e-01,3.575700707891447117e-01,6.052952769582009562e-01,2.107490079857562426e-01,9.626534753752835627e-01,8.614656801941120712e-01,2.630736043310645256e-01,8.987436033797903123e-01,9.491835739734671984e-01,3.746838728485981651e-01,8.265113028572987908e-01,6.334985091046398953e-01,9.886362831378711080e-01,6.813532172357386063e-01,1.264154503855977607e-01,4.773369723805449549e-01,2.777046292508953407e-01,7.058809211066552347e-01,1.824889302161770699e-01,6.457488562086612927e-01,1.878549031477866338e-01,6.530190616213604748e-02,-3.780178539044091224e+01,-7.411729384040188506e+01,-3.006734542341125049e+01,3.750272188422117292e+00,1.023809918754916204e+01,1.020047198292018997e+01,4.089483895219868437e+00,7.136744810339138434e-01,8.171433045911864479e-01,3.031206727177774285e-01,9.541112470943907686e-01,7.202035308598345731e-01,1.360341664485882340e-01,8.874897875869388608e-01,2.314739797923043296e-01,8.827888035241165943e-01,5.929951019403161272e-01,6.772437740915556725e-01,6.370654796439534362e-02,1.277004338820075802e-01,1.163063022308731931e+00,1.306593001116037600e+00,4.960215285724016709e-01,-1.626392738816588945e+01,1.593773068897371470e+00,1.703862577304944947e+00,3.051388402741863626e-01,-2.655773736927931061e+00,-3.329148649023913009e+01,-6.909829836545948467e+01,-4.642304554734610633e+01,-1.474225900653050125e+01,-2.793737338548427829e+01,-1.774334528418462398e+01,-8.465952935482622621e+00,2.465282523288443439e+00,8.642450668862784013e+00,1.267008534031134781e+00,1.390915669826313650e-01,2.376582021621805874e-01,3.803428742978972599e-01,5.953860569817417403e-01,8.417967591435177033e-01,6.402209930186338882e-01,1.978074820855491023e-02,6.203401696356964923e-01,5.822125669108305646e-01,1.515447431987326343e+00,4.043103881161402846e+00,4.716792132646496327e+00,1.415315964225378664e+01,1.250219000146184989e+01,-3.520546915513266040e+00,-4.138402677641678906e+01,-2.805300535114350424e+01,1.503275330219973727e+00,-1.062661485983635004e+02,-2.235848276220866353e+02,-1.681588102648282756e+02,-2.662177169945708783e+02,-1.097916661631517314e+02,-1.067634868836061059e+02,-2.102749754173695749e+02,-3.223346817427269002e+02,-2.212854850547825549e+02,-3.103274694972045111e+01,2.802097177578909637e+01,-2.221741799268690087e+01,-2.364376213059550835e+01,-1.365961572093292453e+01,-3.875622622674636641e+00,7.684584828632394782e-01,7.199901420463039603e-01,2.050256551456584031e-01,6.548716381865574698e-01,2.206393186559913566e+00,6.592598110844575920e+00,7.143684413539851619e+00,1.241221297966057335e+01,-4.498913408573680783e+01,-9.238816977945128883e+01,3.194298397358096508e+01,7.872439204792934220e+01,-4.407150340786198939e+01,4.655111081126460704e+01,-1.886206924433337235e+02,-2.271216329896498394e+02,-3.417359735570818202e+02,-1.358267190471362085e+02,-1.785018870867012311e+02,8.640766690473490996e+01,3.009897574156671851e+01,2.834787566306617350e+02,3.885749673989179342e+01,-1.789681316516871732e+02,-1.363341493103946789e+01,1.287637537957440870e+01,1.345072818612880106e+01,6.544275645152681342e+00,4.838009573536453667e-01,4.821577111642461055e-01,7.010244387412349898e-01,2.930283679021937759e-01,1.169806399727524093e+00,1.300003379032734863e+01,-1.064342450329277101e+00,-3.026008984101013155e+01,-8.487628561813588135e+01,5.280010959669295900e+00,1.447344592720866387e+02,-7.078391353937300678e+00,-9.704025354222326882e+01,-6.343137898024097154e+01,-2.649622728563218175e+02,-2.710513541751710704e+02,-3.256425704990176087e+02,-5.720710443784011545e+01,-9.411595956750078074e+01,-1.227961553427924599e+02,-1.174313765166995864e+02,-2.395536187565436492e+01,1.222134449454559757e+01,-9.139444187644620854e+01,-2.456321484443897418e+02,2.245054142239310835e+01,5.330155292546047008e+01,5.701945477753440628e+00,1.537078403429434692e+00,8.148053622542735797e-01,3.567227433706061657e-01,1.541187738068031665e-01,7.088270418387391247e-01,4.306632670214110448e+00,-8.534717020783865848e+01,-1.027428928258153178e+02,-6.835875426344668426e+01,7.321668095625952333e+01,-9.607850242840044075e+01,-1.202832803916703170e+02,-9.200098348653524738e+01,-6.990975301590961521e+01,-2.042494163544259322e+02,1.167101523635692075e+02,3.677825739104623608e+02,-4.440450362662340211e+01,6.436820177783731722e+00,-8.134845047741163171e+01,-1.194271194981779871e+02,-1.048421099750378858e+02,-5.125113173405132727e+01,-1.228689979617002948e+01,-1.447601866455282504e+02,-1.208963100796450192e+02,3.307349326029724779e+01,1.021456997202817618e+01,1.946592782084158868e+00,2.841732379329268809e+00,3.870954437275759830e-01,5.972677789675189253e-01,1.435586894103448419e+00,-2.787263592904947984e+01,-4.115481442434435877e+01,-1.109033727966318423e+02,-1.453053150484479090e+02,-5.352835395522755135e+01,-2.102114916766601596e+02,-7.425214667637571608e+01,-6.015069095528095744e+01,3.289502221716172414e+01,-1.980757213716723442e+01,3.236190741946646909e+01,1.811540682776948472e+02,4.848901564600653558e+01,-1.850004790197269529e+02,-3.210483724099756841e+02,-4.948501899051142345e+02,-2.336489491171558086e+02,5.332553431590244486e+01,1.223618208340372178e+02,-8.082657849055881627e+01,-2.091736819938328722e+02,-9.571788119727898447e+00,3.343207361539956679e+01,1.360996777321419104e+00,5.819402327152010557e+00,-1.174009192369803856e+01,7.179134462216203438e-01,3.873132520827656133e+00,-6.131026185719286481e+00,7.432428284569255084e+00,-6.992034344690459591e+01,-1.732082360319776910e+02,-6.370306368935495556e+01,-9.426571838641217482e+01,-3.691631031953463804e+01,9.714573782208640296e+01,-1.464804298523997375e+02,1.232652851418009021e+01,7.351615625756039663e+00,-4.328162273960636952e+01,-1.903945194708800557e+02,6.515212609632172303e+01,5.983784603356367171e+01,1.549466645169761136e+02,-3.347236698686363638e+02,-4.197692483971907791e+02,-8.829047539841109682e+00,4.416591128057748961e+01,-2.782236282998631509e+02,-1.526574223793232932e+02,2.833059821452332727e+01,4.758876698878132805e-01,9.006237608640135228e-01,5.421776244559572966e-01,1.283838645406961909e+00,-6.420255419495167537e+00,1.029817392979806989e+01,-4.234457541904941991e+01,-6.934410607229639645e-01,-8.719926741592017549e+01,-3.766675844388392136e+01,-2.017442528329047207e+02,3.166217218441636874e+02,-2.454288415258460176e+01,-1.537433953788602259e-01,1.301925366916740359e+02,-1.604308081927888168e+02,5.824193214673699259e+01,-1.332674106605250408e+01,9.561309816064367340e+01,8.921022556078510490e+01,-7.810711343009415941e+01,7.996329709091058646e+01,-1.534211457208547529e+02,2.995347627997087869e+00,6.074154736498320606e-01,-1.776526338051123730e+02,-2.108186077429492684e+02,3.555832391695673067e+01,-2.469381724121054500e+00,6.866408880715387797e-01,6.047004211994950751e-01,2.215920671871102865e+00,-3.930732677160909105e+01,-3.005687868684355024e+01,1.434504167093144211e+01,-1.259851032016963046e+02,-2.030433251779111004e+01,-1.002392790332810080e+02,2.873172183098706114e+02,-1.316358672011099600e+02,-1.614316724374546652e+02,6.969881018158038444e+01,-9.598410070109939518e-01,7.938007501277687084e+01,-9.202865484111281091e+01,-2.074166467554404392e+02,-7.657220556279885670e+01,-1.836954264082706700e+01,3.524225092282077920e+00,1.723823984897461514e+01,-4.731561915741826141e+01,-1.822870458786966879e+02,-9.653249566488860012e+01,6.393960040938498679e+01,1.289455875695299483e+02,6.664455784573797814e+01,-3.738729141415631840e+00,2.822809903952832045e-01,4.759015068776363266e-01,-7.941466143045820658e+00,6.478440112273027296e-01,1.035012082162057823e+01,1.157646472716791379e+02,3.715690992297616191e+01,-1.792112871543156700e+02,8.817589065101138601e+00,2.627246627335624680e+02,-7.724678987290997156e+01,-2.864670413353229037e+02,1.847946073638566418e+02,-2.881648444779605711e+02,-7.762438033956988193e+01,1.118996337963745313e+00,-1.141523909728231843e+02,-1.054996517070387370e+02,1.403091405128283853e+01,4.146702566416627889e+01,9.386183630361455243e+01,-9.233760718996745709e+01,1.208919161981658696e+01,-3.137537193324209852e+02,1.006691283652273796e+02,7.112175692418675510e+01,9.090692305692313369e+01,-9.799616326997186988e+00,1.850720979336527350e+00,8.203738156953710448e-01,-1.820095959533319707e+00,2.745432736382915628e+00,9.048334532275346120e+00,5.454799307390608476e+01,-1.612760565133353339e+02,-1.968226281029136544e+02,-1.767890559759800340e+02,-6.120225818752390268e+01,-2.165786664897074232e+01,-2.599413215690148249e+01,-2.679851577241536731e+01,-2.651013074454736511e+02,-7.030277864539603172e+01,-7.251681516670140581e+01,-1.120140780772785583e+01,8.418047792463836743e+01,1.410344149742715558e+01,-3.554464807183076402e+01,-7.945260436600202070e+01,-8.121776934194002706e+01,-7.638154218144530105e+00,-2.965641230948342013e+02,-3.054964092141934202e+02,2.578726881788680885e+02,7.444066766190593398e+01,-5.389707841814334266e+00,2.006721457894778293e+00,9.439272661735598202e-01,-7.550175517379162038e+00,-5.405806275658102678e+00,-7.072127010115005419e+01,-1.376450382326201236e+02,-1.669879803891482482e+02,-5.919712354082572858e+01,-1.951902127621852401e+02,2.948863958299299526e+01,-2.701681243663891223e+02,2.478385319175306378e+01,-1.962913059318363018e+00,7.082826428734811941e+01,7.637626087875385394e+01,-1.086362632821981578e+01,7.704189127838284890e+01,2.194024527030399554e+02,-8.668242379388502172e+01,-1.040043658892374054e+02,2.073318502408583797e+01,-1.185732925985597035e+02,1.257367151410322492e+02,3.392771561101124433e+01,-2.804514875700778731e+01,-3.005588324482389240e+01,5.992487827602364092e+01,-2.180968593911367659e-01,5.949910057728616808e-01,3.960634080977943894e-01,4.506201207004596476e-01,6.220031252536776245e-01,-7.879398330812385609e+01,-1.840316001338128444e+02,-1.744677319422784194e+02,4.786096010196096096e+00,-3.397548100329638032e+02,5.306282763101677347e-02,-2.230966579950427047e+02,8.933792431712713267e+01,-1.590477972633216268e+02,1.364475642088982283e+02,9.426620959869579375e-01,-1.569313921663884628e+02,-2.713490278165406266e+01,2.686787813620252052e+01,-4.144546357490392552e+01,1.923706642852120012e+02,-1.299613318787323237e+02,-4.758846353389888151e+01,-3.216063094145503953e+01,2.477327350277979008e+02,-1.416407809048658919e+02,-1.003145298623854558e+02,-1.616704240003760162e+01,6.588873810330680980e-01,8.178628997749520790e-01,9.670188820066792923e-01,9.934406018008463679e-01,-2.346511360417113945e-02,-8.886220660425551898e+01,-2.737260008794275450e+02,-1.838522154706502931e+02,2.022260463497298417e+02,-4.149368620316398193e+01,4.813448934574463323e+01,1.689073468429357661e+02,-4.026228848333116872e+01,-1.149295468856172988e+02,9.236903770310587447e+01,8.782227858901835305e+01,-1.176055793262068789e+02,-6.248511394761185755e+01,3.618291706164675503e+01,9.075894248993830615e+01,-9.046853521947859633e+01,-3.866358147912230692e+01,1.457283143692933969e+01,-1.336431265792234591e+01,4.321294488352658192e+01,3.342920067688665142e+01,-1.164858862848192587e+02,-2.196038430283823573e+01,6.095996429909612546e-01,6.992167601848203740e-01,5.957081859446877736e-02,-2.572309907672089224e+00,6.524477966434505394e-01,-1.233702002617246052e+02,-3.667424077233926027e+02,-3.676126363551147733e+02,2.675656994061557725e+02,8.645894574988261638e+01,3.473794682970679304e+01,-6.809943415541305889e+00,1.361135719185276116e+02,1.027831697978158019e+02,-8.729701832342293244e+01,1.685409728952875241e+02,4.798525823334401252e+01,-9.033514459591204115e+01,-1.377824769734699260e+02,1.235583854037967200e+02,-1.080066118285185865e+02,-1.874959722424942754e+02,-1.317801239878913862e+02,-1.895963198144872308e+02,4.384080336575168957e+01,-1.549696339158132830e+01,9.601726797225217069e+01,-2.873467754133298513e+01,2.492947307353179820e+00,-1.916755910157496690e+00,7.116758485711186522e-01,-8.050698111906454124e-02,1.453237554476307425e+00,-1.060072827946231229e+02,-2.185713040631407580e+02,-1.837297054824591953e+02,-4.047952850744790254e+01,-1.308454441949031093e+02,-2.634656023645149503e+02,1.277654010059710465e+01,4.042793003378344707e+01,-9.777506074501567923e+01,3.005427592944815984e+01,-3.553993768655067953e+01,-2.985118222540634747e+01,2.229356629694809655e+01,1.884794529300563326e+01,-8.697628588492625568e+01,-4.135970888556557412e+01,-8.065427038601083609e+01,-7.269414054781643131e+01,-1.250454178701701409e+02,5.367751804644257874e+01,1.149830008729802842e+02,8.918060033330395697e+01,2.766917621783232661e+01,3.979363243978548237e+00,-1.627937592859836968e+01,2.458694244601291046e-01,1.112774944284873557e+00,8.458469390369605101e-01,-2.284000594292573894e+01,-7.677580437681859848e+01,-4.630051903593032847e+01,2.538387956689967595e+01,-9.653597124271027496e+01,-1.749154627241097728e+02,-1.766445304499608326e+01,-1.423311437552306415e+02,-1.008978061233046191e+02,-1.631234156851606656e+02,-1.736818113445253289e+02,1.131860178787779780e+01,4.015231493577127253e+01,-1.543185273051598472e+02,-1.799290423653302753e+02,4.265490101682092927e+01,-1.694748472502774632e+02,-3.103897317161302993e+01,-3.357309130524614034e+02,2.390159827193188846e+02,1.120608978832469660e+02,-6.563441140629063852e+01,4.334314905502540505e+00,4.352554961811142320e+00,3.544434450773212397e+00,1.029384731865128355e+00,-4.853428028156954177e+00,-5.967503195992549969e+00,-4.283364313175329841e+01,4.679507326621023111e+01,-1.350219252416121947e+02,-3.226734407867326127e+02,-3.562858885752419269e+02,-2.169407495831043207e+02,-1.510471097567035770e+01,1.414756484505018896e+01,-8.315625890126104025e+01,6.417529262846595373e+01,8.023636050531045560e-01,-1.340131997082738167e+02,-1.679245327615464305e+02,-1.335679955718986491e+02,2.424647729983724673e+02,-1.265833619239200125e+01,-5.702076595330995978e+00,3.997164548448264298e+01,-1.027721167090758172e+02,-3.660581504948276432e+01,6.816698200153741993e+01,-7.775454242753767176e+01,1.070393226620942251e+01,3.502687582868109661e+00,9.064554881609186987e-01,7.040206402527352525e-01,-1.660955245056761242e+01,-1.065436000736875499e+01,-5.916341704556420922e+01,2.387678866003340339e+00,3.895177968764257059e+01,-6.610055407287130436e+01,-2.519778909840289032e+02,-1.071916239209822947e+02,2.509829967300725073e+01,-9.098853205307996461e+01,-2.413053829173517961e+00,-5.887726443107002439e+01,-4.040646974502521971e+01,1.299407248631431244e+01,3.194020915459324428e+01,2.233277822217715141e+02,1.096642703028158365e+02,-5.156027626688122467e+01,3.121425103267118288e+02,2.083873252130712928e+01,-8.591889145756971402e+01,-6.815706887810380010e+01,-8.174647115549463194e+01,-5.295383962994298344e+01,-5.717962456185305520e+00,-2.685203164548452204e+00,-3.880441525059973085e+00,8.459658147025352903e-01,5.172506662548665979e-01,-1.327318549801825753e+01,-3.863226138021496325e+01,-1.556226897918286056e+02,-1.669393460625509817e+02,1.552609878931855008e+02,-2.030822888795574386e+02,2.589721944357355099e+01,-5.423806503742053309e+01,-1.819589225318289607e+02,-2.346963089702429670e+02,-8.808796812476518312e+01,-7.032389713620278826e+01,-2.340013085550100413e+02,-8.267352723650843060e+00,-5.519611510519020925e+01,-2.450905465553671547e+02,1.863011744587123815e+02,-1.200471436073702307e+02,-4.090215479104062979e+01,1.248412704116144027e+02,6.502746262249387144e+01,2.319656466981798815e+01,-2.224229228115063250e+01,4.699095527933230820e-01,4.854337909826716979e-01,-5.153841492356445286e+00,6.005611522203166963e-01,9.220599620117314599e-01,1.465289496668984892e+00,2.889150385740164495e+01,-1.020290976257207660e+02,5.237047018050292735e+01,-6.237052929311554195e+00,1.177195867387309391e+01,2.073012761870365637e+02,-4.796269680348060227e+00,-1.234063176525666421e+02,-5.880909890369970583e+01,-1.967682761137014609e+02,3.091065881674076010e+01,-1.339956787287369089e+01,5.592560283155298606e+01,-2.017947485080507519e+01,6.113095161355408180e+01,-1.631768155088596188e+02,5.912601565753948307e+01,3.450412210589888673e+01,6.534287936817648301e+01,2.515638001568589388e+01,-1.272119404105607643e+01,-1.235295667131387809e+01,1.802805570420560333e+00,-8.726218182003895318e-01,-9.814623592180550915e+00,5.426837259799522917e-01,3.109887688631860492e-01,6.410795488818689103e-01,2.139238402157861874e+00,-5.177983668895171121e+01,-7.817088893761737722e+01,-1.444953217311800415e+02,4.251610120592094688e+01,-8.266496367665124012e+01,1.944410783475002091e+01,1.826037370975374472e+02,1.013523244980757596e+02,1.348409013876890015e+02,4.272594525670042742e+01,4.950426278474809294e+01,1.713915040359318809e+01,-8.757895553593178306e+01,-1.225151341967302301e+02,-5.708277943000802424e+01,2.701297717898181006e+01,1.265636152289012628e+01,-1.722120033049550969e+01,-3.084424066751142490e+01,-1.066207984696687028e+01,-1.037437951962920124e+01,1.809269852073606577e+00,-6.571314507773536873e-01,7.346399159065765128e-01,8.552747952888166694e-01,4.962678460376593881e-01,6.442499523285296625e-01,9.344892271445756071e-01,-2.137693642178863485e+00,-2.716596845139308769e+01,-9.368883817605858155e+01,-1.524918579228439341e+02,-1.065321663539759527e+02,-3.182726241185460836e+01,6.819925570402905635e+01,1.045505629780933887e+01,9.442521261534008659e+01,3.199081190768385952e+01,-1.255158761706455124e+02,-8.112877024215623578e+01,-8.637031876030275157e+01,-1.419069266672200058e+02,-4.466011764832909847e+00,5.473326498489744729e+00,-1.834574025251691776e+00,-3.206465664913230285e+01,-2.116861681974933518e+01,1.056143970971524837e+01,4.690672577074964877e+00,4.092916522926641321e+00,5.273323232878370792e-01,6.520327496201985262e-01,4.528131701086480776e-01,1.702438961731372880e-01,4.736019207692254707e-01,5.311645284183560412e-01,7.654017193614659487e-02,1.965041200956092915e+00,4.390795908111192247e+00,1.727892904016950482e+01,5.760616022645955780e+01,5.337815465718674091e+01,-7.528930547272084439e+00,-1.130790061542361684e+02,-9.394350826234685314e+01,-5.821556351135476604e+01,-6.397381232278845431e+01,-5.620722603126066197e+00,-1.966061627158776304e+00,-1.145822610836854061e+01,2.204810302048429982e+00,9.603657796032185612e-01,2.291046105770371266e-01,7.543945778888642151e-01,3.851520811694660873e-01,6.391308381822998763e-01,5.251141951996107782e-01,2.200641444253895740e-01,3.232606473698196314e-01,2.801085896288479926e-02,2.537248859819720703e-01,7.149921861960265579e-01,5.228353868756430156e-01,2.817859120668531059e-01,7.327613771020399236e-01,5.934459067548544242e-01,9.348262314356007296e-01,6.014156305268540947e-01,3.474158793345732965e-01,4.638734697399615747e-03,-3.345759022451315179e+00,-1.274233124444588139e+00,7.771573678035783583e-01,4.911741210249961354e-01,-3.338754860274191660e+00,-9.996048342960369482e+00,-3.119342096298290290e+00,3.843395028243981049e-01,9.863545470184095221e-01,9.394089066186849246e-01,8.666259694989545403e-01,8.832238210792039412e-01,5.143305600321139703e-01,4.437848187311157488e-01,5.828345469291437153e-01,4.803299111209745620e-01,6.280739023468462356e-01,8.819886491027497666e-01,6.418000834892079176e-02,9.126291016860940131e-01,3.623071488767806159e-01,7.888306228010584231e-01,9.351758715304991920e-01,6.289118801785565926e-01,4.837345858920595321e-01,9.190599140197930339e-02,2.442953036077839535e-01,6.066310966652861403e-01,1.999626227041766402e-01,3.381896792161884768e-01,5.819014767363580587e-01,1.021400600810373760e-02,8.469921830336776258e-01,7.246115873401235419e-01,8.903873959325740994e-01,6.786807879997619475e-01,4.086233307749452814e-01,7.071715521853568776e-01,5.808267187843940693e-02,8.250982403543417609e-01,3.477887576282040483e-01,7.741741666708458203e-01,9.208230357679925149e-03,1.448878276601648363e-01,9.496546746870917488e-01,4.865158489633574224e-01
6.687131178038864254e-01,3.272123072082686601e-01,8.978081595205708032e-01,1.897843959435685512e-02,5.471358763954031756e-01,3.443084944214421794e-01,3.322421755866473703e-01,9.291052980103676751e-01,4.089595666007668218e-01,2.890376171104969139e-02,2.487276425855730055e-01,7.805625909710395272e-01,3.530756213998420545e-01,2.635016251074895344e-02,6.142297637281738387e-01,2.154431045399725075e-01,5.301803543961701726e-01,3.625941598787630893e-01,4.749202234932867750e-01,3.455691196859346226e-01,1.386915715711041219e-01,8.129112296455850428e-01,9.737349165142045182e-01,2.917402536369561039e-01,7.542770077817373409e-01,1.406297029948520017e-01,7.282193923153756909e-02,5.233161880119443499e-01,9.920033677119948212e-01,2.095528184837655017e-01,3.896928059611892703e-02,4.219855340680905842e-01,5.697903105713730820e-02,4.124615166347271877e-01,4.402788639615621280e-01,3.768154976023216918e-01,4.696130701455091261e-01,8.912271599088318341e-01,7.914239264028892773e-01,5.166960158063558239e+00,9.983609617392753321e+00,4.365237543439322465e+00,-6.234469888524617254e+00,-2.175672422421331298e+00,7.827749562157487517e+00,4.510185861608125180e+00,2.914099910323615372e-01,4.703188272883805920e-01,2.328641453782154258e-01,4.385989183291703064e-01,7.695442289121405821e-01,1.594602669072742174e-03,7.787036954057812155e-01,8.148798306472603281e-01,7.835764290924451814e-01,5.481489041535054785e-01,6.596958884061941975e-01,8.460719346810655628e-01,7.136113099389183034e-01,2.422593858007825451e-01,2.112067176251329337e-01,2.569749818357668358e-01,4.116491068451029633e+00,7.803229832448445258e+00,2.286756559590005455e+00,8.249523757689752879e-01,-1.652457113054988724e+01,-2.623552856397193267e+01,6.038626424209128984e+00,-4.751878527228236671e+00,-7.392634360109424208e+00,-1.188463807369060454e+01,-1.544520662865425997e+01,-1.552078908488663522e+01,7.903649780930320778e-01,8.612168863580617284e+00,1.597038954261215116e+00,5.377944996874695072e-02,2.327139048115710596e-01,5.654938844255754660e-01,3.077536388576508353e-01,7.931991521425129088e-01,5.090006497688487341e-01,1.061553982442113853e-01,2.871397457552793409e-01,3.346095568706082268e-01,8.370099108077972971e-01,-1.420225622897090867e+00,3.334425598761942222e+00,1.474697908289477333e+01,1.262430020641942541e+01,1.308421652998771378e+01,3.516663079745529163e+00,-6.020521038299552430e+01,-3.012803089620080499e+01,-7.703449616137858413e+01,-6.313597027040756160e+01,-3.123962002115132108e+01,-1.801757712229535002e+02,-2.298626126112810084e+02,-7.227873333209899442e+01,4.750511177521055117e+00,-4.791067367094392893e+01,6.298159509588782612e+01,4.590873976192744976e+01,6.603649230258534786e-02,-7.068165598454636722e+01,-2.720428784145820789e+00,9.817543186545396594e+00,3.357703084210316824e+00,8.941392066136468753e-01,6.704117909878192227e-01,4.881719272178213220e-01,7.879310941674583235e-01,2.232831934432919496e+00,6.794615697174696933e+00,4.243295118852033809e+00,-4.632826330639760570e+00,-5.191515142568327690e+01,-1.055427021446933082e+02,-1.301658357368061445e+02,-2.110987372486978586e+02,-2.322190088776235086e+02,-6.840251378360272838e+01,-5.867351130545174698e+01,-1.563430504813344726e+02,1.420184815334151907e+01,-3.238913373884443558e+01,-4.700735624642733512e+01,-1.124986315566627013e+02,1.658055581861261487e+02,-5.837159864757451544e+01,6.714152237043705895e+01,-1.390555816062917138e+01,-5.188662448740299027e+01,1.851473738735721142e+01,1.788807697298021893e+01,6.827701132089257108e+00,2.783979481835704428e-01,1.082342018004557316e-01,2.680683023493301009e-01,5.764363261323302012e-01,1.327098107702436636e+00,1.363929131762921365e+01,1.442045568854410398e+01,-3.356889429953468174e+00,-2.098314919021564151e+02,-1.528534424759049273e+02,-1.847214633658499281e+02,-1.207508873361750403e+02,-9.012308582677437130e+01,-2.126551374985331577e+01,1.026874688542778671e+02,9.742761379469283156e+01,-5.918333846133693399e+00,-3.591356366729500138e+01,-1.947703406909171235e+02,3.103580631449736416e+01,2.034099348676672037e+01,-1.338027319229322210e+01,6.803124434556835354e+01,-9.863760106976336317e+01,5.656903935353970958e+00,6.469045963983030845e+01,-5.365078162198769718e+01,6.223994375270741841e+00,1.154524025325988079e+00,9.080934747193289969e-01,8.994719341867336571e-01,8.724540522913336593e-01,1.084932590412798215e+00,4.900467571427101987e+00,2.417530892841555357e+01,-5.211986263158532751e+01,-2.361237227632311999e+02,-1.106655666270066618e+01,-2.242210059041062920e+01,7.281891958822346300e-01,-8.256837972630385991e+01,-1.114221817273054143e+02,-9.868661609040155724e+01,1.940840538096927617e+02,-1.955933582106569304e+02,-2.350425636151778974e+02,-6.024769403641531085e+01,1.004103066634714736e+01,1.868501655169656317e+02,9.185553176960847566e+01,-1.823799239288769627e+02,5.490840056845679840e+01,-1.190356200618864868e+01,1.584337051929115887e+02,-3.315987281495888794e+01,2.442554303381046399e+00,3.605237204780332938e+00,3.190016583128273631e+00,4.320436958914473102e-01,5.651039688667934824e-01,1.296442595442920398e+00,3.959319338970055391e+00,-3.595440125160483547e+01,-1.557310190066242228e+02,-1.238476561815424191e+02,-2.707514608755544216e+01,-3.649833659001629371e+01,-2.350069310873147401e+02,-1.714985105124477514e+02,5.434209440039115435e+01,6.832919046130795948e+01,-2.480865807577436897e+02,5.404715671355424433e+01,-5.129887367301857637e+01,-2.255187591465954426e+02,3.248210490479158352e+01,4.749661095604867000e+01,-1.260880698438437406e+02,-3.550729075337910245e+01,-1.485623416465268747e+02,9.742749282396486876e+01,-1.638185563907744040e+02,-1.226861679748021032e+02,-4.989967545842651120e+00,1.265812917640595225e+00,5.970429172903871873e+00,2.876778233511410487e+00,2.523681246959330604e-01,1.794008916108066343e+00,4.763453733954002622e+00,-4.171265275982989351e+01,-1.333411119931547830e+02,7.468449187597781247e+01,-1.778134369556524632e+02,1.053721719970432815e+02,-2.354266819045089960e+02,1.563598744760035686e+02,-2.998307053084337781e+01,-9.737493799028861474e+01,-1.104840206132571154e+02,-1.265355966211792094e+02,1.246634961622980455e+02,9.429817615657192675e+01,7.440604319408669198e+01,7.436760660569183301e+01,-1.158380718023510099e+02,1.968650644257603801e+02,4.233452738793503300e+01,3.613465861913664412e+01,-3.338719340004730043e+02,-1.509505765728918902e+02,-3.629086788993276258e+01,6.761770271685221267e-01,1.262970251247380604e-01,7.573592728124820539e-01,1.474480617531673365e+00,9.804823880335385988e-01,1.100251285602928242e+01,-9.982847761980946188e+01,-1.889857915195427651e+01,1.927785295407175425e+01,1.013365377642863479e+02,-9.594815474782521392e+01,3.081259114209993299e+02,8.116707189072037920e+01,-1.576345567361278199e+02,4.681009439598574318e+01,-1.098943122358921300e+02,1.687157508897631999e+02,-6.642023549168605712e+01,-4.696406496465253610e+01,-2.279013695082838069e+02,-2.184571560948369608e+02,-1.418315041744853744e+01,-5.364016100400996123e+01,4.973488788162818253e+01,9.892175961449682120e+01,-1.528942838310056800e+02,-7.597678940568834971e-01,2.476736622023410206e+01,1.248834826037665602e+00,4.326275975039883814e-02,4.745116819087372706e-01,1.700313942041735249e+00,5.489264982846607133e+00,9.452950178230166145e+00,-1.688321863120814470e+01,-3.387794543855181928e+01,7.945226798606836383e+01,4.405225733498652829e+01,-1.570761317483534469e+02,-6.478324988985430366e+01,-4.938824373702507131e+01,8.844107023847391247e+01,-4.126339782327042940e+02,-3.072076362430562426e+02,-1.998660595896632799e+02,-2.080006692469982283e+02,-2.765610858713880020e+02,-3.256656401461634687e+01,5.062260614311253448e+01,1.201306850431036537e+02,-1.306336216055971136e+02,-2.650010406700812382e+01,5.911081560517418154e+01,-3.611021291628982226e+02,-1.430240392305294677e+02,3.829059675595552648e+01,2.669175201395486141e+00,6.400903795392024476e-01,6.681547343790301685e-01,-6.352581879425715172e+00,5.696176771984939879e-01,1.132927012045886350e+01,-3.005393045440928290e+01,3.864497484638345526e+01,-1.499858022228310688e+02,-4.434021013057615619e+02,-1.229346321948104617e+02,-2.855975152575314269e+02,-3.761218553129780275e+02,7.563114132556871994e+01,-1.070432834457145361e+02,-4.685243601523798596e-01,7.409442358210692703e+01,-6.873282650573256092e+01,8.018436417939179250e+01,-1.566671365995034648e+02,-6.307631501630363857e+01,-1.058837727290228514e+02,1.074580824358128410e+02,-8.438504808835330095e+01,-5.864371350613049927e+00,-1.022342143591041861e+02,-1.387920289050176450e+02,1.309631364588487301e+01,1.005303600644161399e+01,1.881231120969863113e+00,1.480763052124753898e-01,9.469137933517726147e-01,-4.758014449836415416e+00,1.276011502269797049e+01,-1.895685363988801342e+01,1.064103481802924200e+01,-1.942524297615128148e+02,-2.671001245457557616e+02,-1.502866377722127140e+02,1.330759289034344661e+01,-1.382246492634285460e+02,-1.588606552229969395e+02,-3.579272165157595396e+02,6.646627130713932274e+01,-1.123676330284681484e+02,3.231684115670917379e+01,-1.779127446327652819e+02,-1.470376131823280446e+02,5.517416244953996518e+00,-1.809849114945647841e+02,2.142582008836331795e+02,-1.118593485914250429e+01,3.200220711519126127e+01,-8.725206956961277172e+01,-1.592015689621530896e+02,2.117837654777957823e+01,6.370342350688813937e+00,1.559687003746700995e+00,-2.619440850676069577e+00,3.208934849075377738e+00,-9.245438877546821033e+00,-1.927715890043474989e+00,-4.447991963731444542e+01,-3.388705353242514207e+01,-1.170250856361148948e+02,-1.264775091779009415e+02,6.952642619641216015e+01,1.698790618115021545e+01,-3.295320322274540104e+01,-1.000584720126942528e+02,2.094406504459988483e+01,8.328326832193020834e+01,-2.623969293447176199e+01,5.112476769542266908e+01,5.053983045208358504e+01,-9.293751146988870460e+01,4.173104310540323780e+01,-1.457448313392201822e+00,-9.146446197686845636e+00,1.197099949184944450e+02,-2.771568332905320275e+01,1.274158574886801887e+02,-1.355431741333993898e+02,-7.915559327228716135e+00,1.179980831065850833e+00,4.195917469774146369e-01,8.578092590700617803e-01,2.265330376879952645e-01,1.054101309507802897e+00,-9.522415375025078177e+00,7.559937789922793172e+01,-2.379870557131478037e+01,-7.564020683925330957e+01,7.457717801306289118e+01,-1.556324745454429603e+02,-7.885940286346449568e+01,-5.817392430488705912e+01,-1.766155227296986254e+02,5.614723232212873683e+01,-6.971859249406405468e+01,-1.382656382324460083e+02,1.449630775478574130e+01,7.698828632174179631e+01,7.091243700409802386e+01,9.590971505140379350e+01,1.666740325312570405e+02,3.032855745537746017e+01,-1.885829785896743545e+02,-2.143166907353937631e+02,-1.572491666455219388e+02,-1.835599201525516264e+02,-6.432923447155708629e+01,5.759006680338134565e-01,4.906140693597406122e-01,8.766055131187864280e-01,7.856131877222488624e-01,1.628631662498694732e+00,-1.655617202999677673e+01,-6.144098801215521632e+01,4.929641222866814587e+01,-2.456317331464001370e+02,-1.082035571275651904e+02,1.461000422805780943e+02,1.102141815120739743e+01,1.140643712170884072e+02,5.223471837752425984e+01,1.183319158311066488e+01,1.620548603839612056e+01,-9.143798084504645374e+01,1.313424978033976913e+02,1.616983218604287913e+02,1.037801365210195215e+01,-2.361384082142739089e+02,2.380897652763476202e+01,-1.011092604786165339e+02,9.740495552797261780e+01,-4.316252469052781038e+01,-2.210152662740389360e+02,-4.438123074916105537e+01,-2.657891802891148458e+01,1.087397547861161495e+00,9.665272331722705168e-01,2.852881591767936209e-01,8.613929808541584965e-01,2.090292529299080382e+00,-1.210366395709586662e+01,-1.337503172598510446e+02,-1.662071099691976599e+02,-1.232688872627748289e+01,-9.436282158702320544e+01,1.229120924709940965e+02,-2.045245827836329227e+02,1.014829638989937024e+02,-1.703768683683432528e+02,1.300526886362293411e+01,1.291583504987712061e+01,-8.535993791442766110e+01,1.445245593304869303e+01,-5.840175234614927291e+01,-1.233976738672072671e+01,-1.441030171668670334e+02,2.925870488484471252e+02,7.237784324012855208e+00,2.362033709165741584e+02,-2.672553566499733790e+01,-1.788089105739913123e+02,-2.561932317527957537e+01,-3.160661562398467961e+00,2.127706062184384184e+00,-1.317704943320361088e-01,1.605391879212607620e-01,2.484835297442980817e+00,1.135009729968893710e+00,1.724967859871173204e+01,-2.637116993035543828e+02,-8.910131631301443633e+01,1.611194766765034387e+02,-1.688703297361837201e+02,-2.130207268738855362e+02,-7.236749482553618407e+01,-2.563943930441652697e+02,-2.227507548732486669e+02,-2.207555808077900679e+02,-1.669045119140745044e+02,-1.957767936188987221e+02,-5.538985791788915947e+01,2.520267180811288199e+01,4.992305092815125533e+01,9.667921709422145682e+01,-1.601503877836902632e+02,-8.980821569399260795e+01,1.935814650223719013e+02,2.082889740942945878e+02,7.311339744486305392e+01,-1.374149919966874620e+02,1.223915409344751737e+01,3.056488362183702012e+00,-5.480606271683988950e+00,1.053974300921231011e-01,1.035729359086261292e+00,1.271492031001093259e-01,4.614102714175719910e+01,-2.230185134879600355e+02,-8.367855589827509277e+01,1.635620044656345158e+02,1.963566462264649601e+02,-3.682736672747698776e+02,-5.055686979418080540e+00,-1.394852378542876181e+02,-7.730035448428535005e+01,-1.610851076372395880e+02,-1.705620596139862357e+02,-7.902247040538307843e+00,1.187239153545283088e+01,-8.796231814453109621e+01,1.198747763504950967e+02,1.532559609931149680e+02,-3.482168363047132686e+01,-6.948138923162275660e+01,7.608049709080293610e+01,-1.263938027318184680e+02,1.578860796556776620e+02,-4.315017053117084345e+01,-2.042916580941163573e+01,4.382715094938474110e+00,3.352942313658410001e+00,1.137060377661155419e+00,3.201499643300622200e+00,2.465675992415176321e+00,8.451936331403649660e+01,-1.760334232209809500e+02,1.119189687796951347e+02,6.314012187353643668e+01,4.788730144695242785e+01,-2.199183532122077622e+01,-2.692368998485022757e+02,-3.246038135894488619e+02,-6.636889295743986850e+01,-2.033921111390535543e+02,4.874019681074626220e+01,-7.042286211920760763e+01,-8.915500597962400775e+01,-1.933612830397510436e+02,-1.682425968369800842e+02,-1.386973043501868119e+02,-2.071372600050777066e+02,-1.580184130397507403e+01,-1.820823527784696978e+02,-1.425262880782288164e+02,5.328359755767677797e+01,5.462561868702671575e+01,-1.380936837127200434e+01,3.345407868540321683e+00,2.432952088540320190e+00,8.343598415764709175e-01,5.924932689138602271e+00,4.435968337829311103e+00,7.780372847460576224e+01,-8.065745058582614035e+01,1.026286831826259203e+02,7.346946847649725498e+01,1.479916434598420949e+02,-7.975225515444249424e+01,1.653108137961556281e+02,3.084717150182339296e+01,7.106739962151281986e+01,1.607261520454409549e+02,-4.826262026138846295e+01,-2.109088667059771538e+01,-1.909563890415195146e+02,5.418327314028309871e+01,-2.817407485076030298e+02,-3.860958958034092348e+01,-1.804454256616486774e+01,-5.047320579931798790e+01,8.893088396230341175e+01,-4.307635014655086803e-01,9.753729794317959545e+01,-1.894254179750969413e+01,7.057482278995756531e+00,7.642953745224723150e+00,1.037124451466824027e-02,7.721530027537373275e-01,1.034297631658398720e+00,-4.284456993820251469e+00,6.842046402923274684e+01,2.688803583217325155e+01,3.548617263007706413e+01,-2.720049737289970722e+02,1.812429539517068235e+02,2.597314302910039601e+02,-6.015542264908442682e+00,8.079652002095652819e+00,-6.822016846713663085e+01,-2.142921395879504232e+01,-5.719066909024169831e+01,1.506986914883335942e+02,7.867842325268534864e+01,-3.638758234076902909e+01,4.436421475554723770e+00,9.778623974024756649e+01,-1.969482080180029016e+02,-3.453944378282881189e+01,2.332377572352749340e+01,-2.363796647163943021e+01,8.291525585020247391e-01,-3.431043221487382766e+01,4.470679525672373700e+00,4.177007844906410305e+00,2.392533125264365346e+00,1.274485417366179263e+00,1.092786477694023040e+00,1.633364635702200029e+00,3.034720628318188673e+01,1.760055438913226453e+02,-5.033527744778676549e+01,-1.166962354315798507e+02,-5.491893271986482716e+01,-2.160514862931017532e+01,-1.701705593790800464e+01,-1.285312892539954248e+02,-1.537102305379899860e+02,-9.504895186920973060e+01,-3.835217831405472566e+01,-1.052531457708627869e+02,-2.952939836597621692e+01,-9.670096228398224980e+01,1.623316915130812959e+02,-2.475504500632541749e+02,-2.018298562382801435e+02,-1.043205286732934383e+02,-1.263630311847252869e+02,-1.651166028493136366e+02,-5.175313964451543569e+01,-2.144115697122961706e+01,5.161383031330634807e+00,7.337494642441304116e+00,2.993913056011988871e+00,8.003231572510527414e-01,1.035161352507140142e-01,8.446087186848334483e-01,3.430977728716551045e-01,-6.871331972940087951e+01,1.978766204064636369e+01,1.358684825158769058e+02,-1.662383148186879112e+02,-1.491926219903583615e+02,1.731440452321056682e+02,-7.073014780691489811e+00,1.657348760209077341e+02,7.109922113521112408e+01,-1.383081703195038514e+01,-4.217785491160640987e+01,-1.066083410992584959e+02,-4.032114542650496958e+00,-1.952333941531682910e+02,-8.053827396422529716e+01,-1.672892697195153460e+02,-7.321966781289293635e+01,-1.737194604962031974e+02,-8.520551369870418057e+01,-1.084145332436841436e+01,2.076102933793944061e+01,7.556017617604354086e+00,4.651137782711253443e+00,4.489760778825510057e-01,9.620537678772614898e-01,2.104840395704516975e-01,7.391425872967848365e-01,1.683903823163975244e-01,9.099972029414624686e+00,-3.969430847649716299e+01,-7.253697568710096633e+00,-6.561863365843669271e+01,1.926019728317443764e+02,-7.106508698021237080e+00,-1.321670211583378851e+01,-1.118668951127818474e+02,-3.407215685149217279e+02,-3.494716419132081455e+02,-8.827922603054936701e+01,-1.082190141625524262e+02,4.619158452852977348e+01,-1.303060223591280575e+01,-6.850876997653220712e+01,-1.294398411557121875e+01,-8.494126236196103719e+01,-8.142834394315846680e+01,-2.798346958351120239e+00,1.320790347110080276e+01,4.862580570197513552e+00,4.653574925027701426e+00,1.017570523071323896e+00,2.445204916130399031e-01,8.263401879079712575e-02,2.690001938698126649e-01,4.694078092289343251e-01,3.518698269065164697e-01,3.510823024352095478e-01,1.645735492552622858e+00,-1.064129339425789134e+01,-9.142836110660385884e+01,-1.106763351111505784e+02,-3.296795547666481241e+01,-1.703863081450798589e+01,8.087729246381336168e+00,-5.184572735171938263e+01,-7.600807704109148233e+01,-8.613364285730980896e+01,-1.024140439536727882e+02,-9.617446191768117103e+01,-9.248636554670316912e+01,-2.015475908372759761e+01,6.805508846681180835e-01,5.361080999401457436e-01,8.815240035009407338e-01,8.906322505146914148e-01,7.129490597080733183e-01,4.600909878170111877e-02,4.660884947800710831e-01,3.681897614932808649e-01,8.061291796318741376e-01,5.489542456714334717e-01,7.287895182042721798e-01,9.255276132025507252e-01,9.156575801759377908e-01,6.550508450295652318e-01,7.122222524970881485e-01,5.198328838059821377e-01,8.137150357220123142e-01,1.790090998817761569e-02,8.728511553654461075e-01,-1.949309118253383044e+00,-3.567565276197363078e-01,8.423292666981316845e-01,1.840126969402580137e-01,1.073508866623924085e+00,3.319020888663782642e+00,1.107892047299743776e+00,9.471823005868934553e-01,4.233819055233659645e-01,2.977404085704686842e-01,5.456241045568533954e-01,9.434155793063411233e-01,7.922578535725361970e-01,6.162211790891438667e-01,9.683947568960254992e-01,8.488760797513441592e-01,7.685567875961650808e-01,8.207540720558409442e-01,2.647058788885021663e-01,4.555417044176438557e-01,7.696659143486445087e-01,1.547805489846438842e-01,1.857996993797342844e-01,6.833037442451588284e-01,6.140499748350387588e-01,4.533056111246985820e-01,6.461360117090538813e-01,1.592090149018958734e-01,5.688924437604044870e-01,9.722834693981500243e-01,5.363786485443541308e-01,5.045229061050803265e-01,2.270539635297915693e-01,2.912681822944931387e-01,8.396453830887186109e-01,8.602554097300325608e-01,4.866356403659768404e-01,5.641026586667895470e-01,6.537787288458960511e-01,7.274157703850222534e-01,2.815857027065450380e-01,2.418888479721157392e-01,9.901172806078346600e-01,2.257977008384047801e-01,7.743127793299002803e-01,1.782841180989022112e-01
2.050221706078836359e-02,4.534316185977010916e-01,7.851848351648214042e-01,1.896985028323845413e-01,9.167220431928602142e-02,8.470463265777716799e-03,1.031306970659922051e-01,7.448729900200682374e-01,7.522254319880631313e-01,6.203488514073141058e-01,1.811260313149470891e-01,8.067165192293132003e-01,1.980218171187769771e-01,9.285640770968083268e-01,7.733866528718629230e-01,9.754619409408473718e-01,6.713496413780900562e-01,2.740590311245679755e-01,9.959180367244578891e-01,4.005840402096865205e-01,3.285553791480391173e-01,6.934014738641856024e-01,7.451553955021184006e-01,6.802921500793279730e-01,8.872888706550637883e-01,6.635461622659383218e-01,6.111458420575329731e-01,7.168972420148828073e-01,5.787973263380632449e-01,1.947362300974111449e-01,5.539422947397469876e-01,7.721838070942581567e-01,1.384675069482200760e-01,4.724930755696042928e-01,6.939049939438023396e-01,6.210444486032651312e-02,3.347875679166287810e-01,4.659961217192422067e-01,9.516868492338325103e-01,5.084462153549639929e+00,1.035659113036917844e+01,4.970995008518151792e+00,-5.507267193303620800e+00,-1.575315106098854123e+01,6.643587854398994352e+00,4.750930388819496031e+00,2.271009774748371512e-01,1.822090430778694481e-01,6.366870448222136103e-01,5.662443229093055974e-01,7.544735128588577755e-01,3.801341402322567786e-01,5.574541877129811640e-01,9.431496823106033656e-02,6.868796419617563265e-01,9.598662361227896511e-01,8.075812902116962233e-01,6.205344701237904825e-01,5.231220417879864915e-01,-5.854092441670458946e+00,-1.462831463010413113e+00,1.958155379552078967e-01,3.832309017202205847e+00,7.836133356716197262e+00,1.907150281365916022e+00,8.308090490057112865e-01,1.689458589729100346e+00,6.530814286255010259e+00,1.436493767447220904e+01,-6.677796036117013001e-01,1.017757172184852799e+01,-2.713738450567817040e+01,-4.268833517311870196e+01,3.198592370889125736e+00,5.966408534272289899e+00,9.188055053976542652e+00,1.664371576938373565e+00,3.416038542003663192e-01,9.614286377134619865e-01,8.707476839887239306e-01,6.606509528873216741e-02,7.907741846274418673e-01,2.205247258101505903e-02,1.745275039614979651e-01,2.227700968172477980e-01,9.383162469577567277e-01,1.457294746224637949e+00,-1.836421038777161030e+01,-2.645230056640395233e+01,-6.618408732888930501e+01,-6.091304922753363371e+01,-9.053146156075982276e+00,2.786491824246870763e+01,1.950607077948577839e+01,-8.303687648160339663e+00,-9.783629252101454199e+01,-1.381520751425486822e+02,-1.634696514878815776e+02,-8.953772483815042449e+01,-2.712659628445678095e+01,-1.243107297544440684e+02,-6.502712761654984774e+01,-6.420235459418239543e+01,-9.682677862068499053e+01,-1.224248182413881381e+02,-1.152873056468395134e+02,-9.684629073944370248e+01,-1.168688473584305711e+02,-7.525163050936330933e+01,-2.149644486823688538e+01,9.075357440107779672e-01,9.774067398376129479e-01,9.026468166018325467e-01,2.776077636274283389e-01,2.662810148342308558e+00,-1.375921769259411498e+01,1.104741067481782135e+00,-4.515830652689371005e-01,-1.631139277840996993e+00,5.467840716321011030e+01,7.206426593897356270e+01,-1.368987169272712094e+02,-2.964638052766135843e+02,-5.392466697564786671e+01,1.936125910391924521e+01,-6.907333143957657740e+01,-1.463754210274685192e+02,9.591856806672565483e+01,5.876205953264738469e+01,-5.855903284245380291e+01,-2.406490530299065256e+01,-3.582523545952415844e+00,1.142055296385854035e+02,-1.408951164675237351e+02,-8.438768608398622462e+01,-2.381466052696820768e+00,9.999918215731174342e+00,4.627219607186869865e+00,7.453236553496348504e-01,3.055646653448844674e-01,1.542605049240880488e-01,3.821846719257219194e-01,1.219889409922486401e+00,-2.674365899062626539e+01,-1.465450002393851570e+01,-1.048781799598112663e+01,-6.212115801793204639e+01,-4.831237386589441485e+01,-2.031535507300730501e+02,-2.727207779518101347e+02,-2.018227315253464127e+01,-3.404461235575958256e+01,-2.842610374324310101e+02,1.267885090576647258e+02,-2.797448473265031765e+01,6.437736948432561057e+00,-5.319634481489735833e+01,-1.707868320173020606e+02,-3.809285519961745337e+01,1.532050278401174239e+02,-2.285944935108367986e+02,-1.337137708643437151e+01,1.247792240844273266e+02,8.472356710702412386e+01,7.450970844289260242e+01,6.976511295412454849e+00,9.110755350305363987e-01,3.554468832019360702e-01,2.613836822032387097e-01,7.675026217350419122e-01,6.110832619515422781e-01,-6.897530476612363515e+00,5.123014713776056439e+00,1.352473750090778282e+01,-4.029682404319579803e+01,-1.421825438239484924e+02,5.679460176349202527e+01,-1.341670572061956648e+02,-1.444429124731488798e+02,-1.464081507827127382e+02,1.358422707538465772e+02,1.636261873357558727e+02,6.098495599536073541e+01,-1.155520627624212580e+02,-6.092848351919165850e+01,4.285780227344696414e+01,-1.210679199117400628e+02,1.171096382725638705e+02,-7.720784331601848294e+01,-1.640200676933753243e+02,-5.040816879624624391e+01,-5.309240619102356362e+01,3.297139141612103863e+00,1.496518204966194254e+01,-1.093897129807375279e+01,-1.874223961557226303e+01,2.092853745237602814e-01,9.521746682651144322e-02,1.610739600474496491e+00,4.385991637997745940e+00,1.301077324673380531e+01,1.441604396854755876e+01,-1.464452499704992476e+02,-2.655115115727527453e+01,-1.155285135662334639e+01,-2.423654954920332560e+00,-1.023713306031800414e+02,-5.774051513999842200e+01,-2.217416825526817803e+01,-4.513464446770637295e+00,-6.315584662161515439e+01,1.989367254585781453e+01,2.047549922601933474e+02,8.981120973320579992e+01,-1.485610030226257550e+01,-6.355418544113849322e+01,8.959228113037116259e+01,-1.217947454075867455e+02,1.201182336552039800e+02,-6.562913749677896647e-01,-5.116919943355552647e+01,-1.740487595992764014e+01,-1.953236555954570131e+00,-3.893988795911372591e+01,2.838981950631370044e+00,7.557630219217438272e-01,4.626331639154075859e+00,5.199540017539137082e+00,-2.188209309075942599e+01,-1.025441274828404232e+02,-1.694712032728612883e+02,-4.361928916388403366e+01,-1.725527960018333999e+02,1.280054632620551445e+02,-2.780231051455901365e+02,-3.009192266636180761e+02,-1.878893585819342036e+02,-2.016341938865332395e+02,4.927278677325160317e+01,4.873548833276034742e+01,-1.337613775859157954e+02,-1.695065222399541653e+02,1.015481211454083876e+02,-2.281632242683891221e+01,9.660207662010736840e+01,-3.070904641208684893e+02,-1.489138790625391273e+01,-4.351938763086007356e+01,-8.410514435559169044e+01,-6.682028756885513587e+01,8.328036203885440525e-01,1.241003185106098750e-01,5.959141985254552409e-01,-1.202570524240994310e+01,-3.677179778354801698e+00,1.859597969382940974e+00,-6.935838007537461181e+01,-3.262350276409347316e+02,-3.173770762609242979e+02,-1.816059791155784637e+02,9.353214141808061299e+01,-1.123009835289481906e+01,-9.485976608561554713e+01,-2.743958611157663441e+01,1.497603169167087742e+02,-1.113446362133334020e+02,-8.376075254949491011e+01,-1.284273320269119836e+02,-4.721004554939181475e+01,-5.812147188502819262e+01,-9.208303120559476440e+01,1.188589039021503595e+02,2.326418921304423293e+02,-1.157319554634719623e+02,1.042309169859823612e+02,1.261163972314754460e+02,-2.152098512936744044e+02,-1.276492620606491357e+02,1.734423341515344719e+00,7.001839131319362863e-01,3.370115527708102965e-01,-1.962963353937029254e+01,-2.494380766240287173e+01,-2.560268676865252147e+01,-9.730850770212182965e+01,-3.587108395663868237e+02,-2.351048754218721513e+02,-1.365717109625252021e+02,2.704806381694800521e+01,1.070221171199876267e+02,-3.311971442566039769e+01,1.225898439070405317e+02,-2.536311322126165635e+02,3.352349671106937734e+01,-1.802317215810776077e+02,1.532074353044246529e+01,-3.659568219665702316e+01,1.894279842346652458e+02,-6.732263770022629501e+01,-1.761250841136142071e+02,2.463262552590176142e+02,-1.922635254674259784e+02,-1.189515590179410935e+02,-1.561799066211478930e+02,-1.433663807321395041e+02,-1.270135332400684689e+02,2.765691837974107337e+00,8.021334447558153835e-01,3.991758187950500414e-01,-4.464442402836489854e-01,5.638548933983975608e-01,-5.472948186279329263e+01,-1.762380123772495324e+02,-8.650696597218609440e+01,-5.223873780998344785e+01,-1.649152942098738492e+02,-2.120869741498764824e+02,9.664472205522103820e+01,-1.670854941412349319e+02,2.245673641152601192e+02,-2.983370111768948263e+01,1.269758653850560677e+02,7.216339468015067382e+01,2.517113879760110251e+01,-5.371301519803247970e+01,-4.416849710596957124e+01,1.847793805593296534e+00,-1.713071966610913819e+02,5.270120741889849825e+01,-1.874375530518145467e+02,-3.985981746631291145e+01,-2.766882019785629510e+01,-1.174746981116169451e+02,-5.655137874835942569e+01,1.014403377462531353e+01,1.673891719808989764e+00,3.790560743276949474e-02,1.571217898341058739e+00,3.013949170990716908e+00,-5.263627751520849785e+01,-1.406514660609121279e+02,-9.553745565370404336e+01,4.116517607159345715e+01,-1.367054973652757894e+02,-2.969537657180216783e+01,5.086981232710132872e+01,-1.657283112767158002e+02,7.990685652763035307e+01,1.351451381116698087e+02,3.663440895009672005e+01,-2.104211000046857549e+01,-9.860147292861067569e+01,-6.831928004791001285e+01,-1.136675879021816229e+02,-3.397772537298858708e+01,-2.247157180672925847e+02,-5.919632016244383621e+00,1.259953480581144305e+02,3.435068555760639697e+01,4.163197149669701247e+01,-9.654035351068588966e+01,-1.473993096849705609e+01,6.239816044724814326e+00,1.618424682410614990e+00,4.310748187163834233e-01,2.615397538015618473e+00,-7.818446407316588243e+00,-3.656207050068599784e+01,-5.561160776051720234e+01,-5.616056799104426034e+01,-1.841766527169304197e+02,-8.408598336539876072e+01,1.375563426898523289e+02,-2.662119070757988197e+02,-1.148513393319828850e+02,9.405580932522093462e+01,-8.109226748762517900e+01,3.821244592566903719e+01,-8.247694686816414844e+01,1.869451137671223648e+02,1.151464987871875252e+02,5.133463836081555343e+01,-3.795542906277459849e+01,-1.437573626454724547e+02,1.410699789336108552e+02,-9.274176016071652384e+01,-1.352975951750403567e+02,4.301314336925101856e+01,-7.133786152101762923e+01,2.535119441948102903e+01,1.836605004162355836e+00,5.554545418477562224e-01,8.922180124109092558e-01,4.783225828303758753e-01,2.705978606481465598e-01,1.386159777041558705e+01,-4.166500677185157286e+01,9.106356601168189968e+01,-7.656301776958916605e+01,-1.151799160545226641e+02,3.852518896915590574e+00,-1.728581973714336186e+02,8.661850924440817323e+01,9.117064844297165394e+01,-7.798358251432891564e+01,4.991264575715752017e+01,-1.245852272866305270e+02,1.429274067269532189e+01,3.297842402384273441e+01,2.995448154303822434e+02,-4.028001174619453906e+01,-2.623273265917634376e+02,3.784307718204384514e+02,-3.950367732175844822e+02,-2.615282474440851956e+02,1.295146537383172927e+02,-6.238118126768841165e+01,-1.714771357599542512e+01,1.222620989505969868e+00,9.841985458310797963e-01,2.284102275636203938e-01,7.458751371462915003e-01,9.566881858018659868e-01,1.547318997749299463e+01,-1.287942587300761943e+02,-1.237295587370318515e+02,-8.214049545169910971e+01,-1.184980496387315725e+02,-3.835823907836333291e+01,4.977785205980187300e+01,3.047164433405886186e+01,1.627365027555373089e+01,-4.912680294139058645e+01,-1.588856448956743179e+02,-1.489304769351919333e+02,-3.562258635353653347e+01,-6.105176452203021142e+01,-2.634887567889938254e+01,-9.557717575374346097e+01,-1.407267710530796876e+02,1.209733580181792121e+02,-5.080840005211818777e+01,2.792061391398268810e+00,1.633480728378161189e+02,1.500241726193194154e+02,-6.489124624925895546e+01,5.157070044444950208e-01,1.252376485894115543e-01,6.653038463484111098e-01,6.785791804116192427e-01,2.215755664017571736e+00,2.515532980419324360e+01,-2.722382306094148419e+01,-1.675188610015886752e+02,-1.812485052756452149e+02,-1.707921229684517925e+02,6.563511974587876807e+01,6.666025015959486666e+01,4.022531578388193196e+01,2.652053443537460353e+01,9.176470133910206073e+01,4.402138663310406486e+01,-1.250115745337596991e+02,-1.954825516720653411e+01,-1.172834279122352541e+02,-9.162593451898572994e+01,1.149594034930560404e+01,-4.022759572874977607e+01,1.615907006917908859e+02,-6.918128343305815520e+01,1.318152714198500348e+02,4.187684461964511051e+00,-4.121965929011382457e+01,-8.218410947936364153e+01,2.636713135515614592e+00,-7.458446173784692990e-01,2.479613252465376894e-01,-2.129888037030906123e+00,-3.994494186530458402e-01,3.486258089619624201e+01,1.510808269096763183e+02,2.776799637971667067e+01,7.974434451798575196e+01,-2.450126539566693964e+02,-7.684879481558672865e+01,-5.077298451171413518e+01,-1.942496556852349343e+01,2.654277962629176812e+01,3.767047697412572660e+01,9.788471419482944214e+01,-6.795143906654973875e+01,-5.235804940974383470e+01,-6.616597561021954732e+01,-1.129058214098387225e+02,-2.391329935127919839e+02,1.615444242833230533e+02,9.567416101001185780e+01,-3.725976175276380786e+01,6.862691180798681501e+01,-3.917825150040366111e+01,-1.924757162775294432e+02,-4.834767882803969741e+01,3.500283525696302078e+00,-1.261340834679872280e+01,7.798632767247981601e-01,5.414453979726763233e-01,1.309856947017428164e-01,3.816374212123630372e+01,1.945840629196624150e+01,7.728626481974063722e+01,-2.901367966788773742e+02,-4.886168922472745635e+01,-7.015099861766196909e+01,-1.182790022766886580e+02,-1.529625305537109057e+02,-6.593474599545639592e+01,-2.061645786085186671e+01,1.642731699285505798e+01,1.660986166492392613e+02,-6.669051347925876883e+01,-1.528025951682018615e+02,2.721024670490668314e+02,2.739785000604452989e+02,1.536389137059042014e+02,-8.689342967057136491e+01,-1.483980346592111310e+01,-1.712557183324684331e+02,-1.506778819389885200e+02,-1.727042518491776661e+02,-1.918790941364766311e+01,4.342366472980587311e+00,3.328839002005977932e+00,7.660579215159845079e-01,-2.261275489903308156e+01,-2.336424866712808068e+01,-1.094723797498665974e+01,6.268941001009786618e+01,2.594886793956890187e+02,-1.053790119943961088e+02,-2.138147709298345376e+02,-4.303615259358498690e+01,-8.759656591660866809e+01,-1.565967103425121820e+02,-1.612901173546806604e+02,9.487814032992466196e+01,1.737588356110543231e+01,2.995096625262701551e+01,-9.873359846542082607e+01,2.462503307446579015e+02,-1.516550802802601368e+02,5.767630914355026306e+01,-9.673802329590304794e+01,6.879012819183826366e+01,-2.928950449860913352e+01,-2.051270266501978767e+02,-2.658242110190793710e+02,-1.522489770297602831e+02,2.405622522034914113e+01,2.919739778145241438e+00,2.404673155176135779e+00,4.463779443300253114e-01,-6.049852816753885065e+01,-4.211577771822941685e+01,-4.733204834690214824e+01,9.730883996261790969e+01,2.403984287961447137e+02,1.810050316648421074e+02,-6.687580086727112416e+01,-2.184124519809409719e+02,2.431216702090967203e+02,6.702559852056432987e+01,3.241024694898926128e+01,1.200809952411096901e+02,-3.052982888037174902e+01,-3.157312275165389259e+00,1.001197852647439106e+02,1.051625823304561180e+02,3.451859136330390498e+01,-1.269159568982821895e+02,-2.610069404524289780e+02,-3.104020832365009142e+02,-1.976764911374751676e+01,-4.939478205442150482e+01,-4.196594290565543162e+01,-4.946662343011344376e+01,7.836533170131028569e+00,8.137614002749620212e+00,1.156091069531232751e+00,1.080004524023917556e+00,1.390417514238783681e-01,-1.367021939402028075e+01,3.339382969789042477e+01,1.048705404457945605e+02,-4.140844954026685798e+01,5.475080607841218949e+01,2.186547497805768785e+02,1.095280669973264622e+02,2.222005095331684856e+02,4.482634129406978474e+01,-1.023626604466142567e+02,2.894987436073313916e+02,2.297190447985194339e+02,2.266075049026875732e+01,7.056230427987078713e+01,-1.196524709982512320e+02,-1.419460513807558755e+02,2.519084003528237403e+01,-3.439028408178209872e+01,9.361514236677356271e-01,-2.603013010470923660e+01,3.428585391411029093e+01,-3.920882194075008442e+01,1.260941802302450121e+01,1.014199637486561656e+01,1.835538652503057833e+01,1.776799310497757300e+00,8.617950661600748408e-01,4.365831406872853759e-01,-1.514149309152125866e+00,3.356827919914256597e+01,3.690555146552866717e+01,6.094852881059873795e+01,-1.636773040345984853e+01,7.033936291079872660e+01,-6.042307864946135254e+00,5.713204832523201304e+01,2.220284196207613263e+02,-8.346707840034729031e+01,-3.682776335966560737e+02,-1.414480394713937415e+02,6.532376418973947807e+01,2.631909706779825697e+01,-5.586854994052225010e+01,-9.582151681169300161e+01,-2.134893649798033266e+02,-1.550478978644519543e+02,-7.392017402656102831e+01,-3.688393428047737643e+01,1.123342755902629087e+01,-6.502630426231964300e+00,1.392428671867107326e+01,1.078447558390326577e+01,8.691327047938322892e+00,3.555176036525513172e+00,3.467112624379923291e-01,2.350604483317119131e-01,8.593843802157659084e-01,2.698955226397296236e+00,-9.037858054631347215e+01,-7.921861116221408849e+01,5.306144216577149564e+01,8.450821650616599356e+01,1.202530010060373939e+02,9.273617085013528438e+00,4.234512743931519196e+01,1.038539378340456665e+02,9.441332817723929338e+01,1.792825949059264303e+02,-2.630568663049523082e+01,-6.658929726917401926e-01,-1.518997783287163656e+02,-8.225956047906693414e+01,-1.012612451566376848e+02,2.028889856939397873e+01,-5.328555029164710533e+01,-1.847491943419825944e+01,5.558976805091827345e+00,4.442074620277892905e+00,6.873312043057644871e+00,-5.673025995397970256e+00,3.746143112730396574e+00,2.883756289276149243e-01,9.237733777391758938e-01,3.888597322076916551e-01,4.923608707465023659e-01,4.389846919292265670e-01,-2.378027259819825190e+01,-2.525564469510466026e+01,-8.186752726749182330e+01,3.180593717115709929e+00,-1.193160889919975602e+02,-1.162613717041645316e+02,-1.786276900329233968e+02,-1.248546938912988757e+01,9.803964452781031014e+01,9.658200149703256443e+01,-5.454386208541613001e+01,-2.082487105583327036e+02,-8.009769664130382694e+01,-9.432388731511787228e+01,1.812878927556475617e+01,3.212452166333922321e+01,3.557370976729381518e-01,-3.176453857823640092e+01,-3.352273356471474131e+01,5.341880610959140796e+00,-7.312937068965583265e+00,-1.107613463502793039e+01,6.526034479150992773e-01,5.931140878826423046e-01,4.406025690643855519e-01,1.412201205561559592e-01,1.908421420354651232e-01,5.928877827278804524e-01,6.010598023989763838e-01,-4.251689978104536749e+00,-1.246455256448836657e+01,6.765570864414758745e+00,5.100804615226492977e-01,-5.464460931946485545e+01,-7.998234822444011627e+01,-8.564592399835659364e+01,2.767503739791329576e+00,-2.456634293320220053e+01,-7.828352272852038141e+01,-3.132249875167584108e+01,1.754653348597488360e+01,1.416207691288527570e+01,2.539178176006270604e+00,9.548583675298104589e-01,5.492787896612733034e-01,8.182464195337263435e-01,3.725023652637876603e-01,3.920696355212677231e-01,8.047628302298118763e-01,5.019732223608422972e-01,9.112009248826382635e-01,1.630300919704102958e-01,1.140773204372240723e-01,3.010611450629674390e-02,1.450041269848149073e-01,9.264524770764946959e-01,5.600085882095157119e-01,7.728896905937990836e-01,3.698767240125934164e-01,7.672451965787501216e-01,9.124844732880180720e-01,7.398635744881819631e-01,9.262569255877665109e-01,1.376131717924912845e+00,3.379819738242957339e-01,5.222939635626108190e-01,-2.057982340407107369e+00,-7.545337245487592881e+00,-2.452739130165726422e+00,5.911684995909582963e-02,9.880659056192748757e-01,2.353836141107090718e-02,4.145282353497335981e-01,5.685574301345799331e-01,2.350210044564103873e-01,2.647339033996377600e-01,5.566672401905511380e-01,1.858501050172011171e-01,2.933891136678653533e-01,3.325265603787874724e-02,7.685385597535998592e-01,5.766977468887449776e-01,9.345340265592176898e-01,1.753222299239731719e-01,1.878348777476379627e-01,8.315580942953256782e-01,1.193542937492332312e-01,1.566505929655592766e-02,8.650641021561699118e-01,9.038068672155140648e-01,5.081042697005311304e-02,8.079017007353319624e-01,2.675324332586149767e-01,2.007559040946417239e-01,6.499435632863432843e-01,5.418842241560162254e-02,9.856172704593169076e-02,8.539914673467634554e-01,1.678945264232091228e-01,4.374858778349977051e-03,7.643088995122956364e-01,6.041298942928047255e-01,4.603038831829264765e-02,5.658410466020667995e-01,6.530094417145083652e-01,1.989117434368541382e-01,8.149694456336192827e-01,3.785032447702164626e-01
2.201038855629947610e-01,8.794356051013912934e-01,9.499407486264388467e-02,9.388313519130145890e-01,4.075532538187498499e-01,1.452598985618600569e-01,7.121455009991465301e-01,8.413878805045240661e-01,5.620549789192099688e-01,9.631808621016727523e-01,8.565797068904598133e-01,1.986767479833497774e-01,9.693203491465107735e-01,6.709947618855339746e-01,7.803410647451007875e-01,1.369785678380585070e-01,9.259454857797299043e-01,9.423603150342541035e-02,9.414407578478389826e-02,4.601534841998813352e-01,2.531592856041176010e-01,4.145983042115740647e-01,1.047106936771013963e-02,5.550371101469169233e-01,8.080972354862061557e-01,5.409015467117862519e-01,5.068641153955690815e-01,7.309119213309593910e-01,2.469648793390172292e-01,9.326793764411352994e-01,7.813182803772520391e-01,4.525610917611544437e-02,7.246295827721768168e-01,9.544692429123732280e-01,6.668230834209042390e-01,7.238613187930966753e-01,3.456643470400300178e-01,2.730246037315207097e-01,8.711533112959281011e-01,-1.472086888148671058e+01,-3.081226880766500287e+01,-1.184984909936554764e+01,9.613404999790602368e-01,1.693403004790908994e+00,8.578271666345319346e+00,4.165128195778672548e+00,2.613777335333334895e-01,1.741308953864603160e-01,4.113767407397774800e-01,8.852053083823746560e-01,6.457626349298332125e-01,9.017661786507646937e-03,7.771279853653769720e-01,9.375557878566794789e-01,2.478816322087443735e-01,2.489062977833643719e-01,7.239510365195250818e-01,8.789043314946912711e-01,1.788526340159468653e-03,1.595949614322750287e+00,9.038924936250499753e-01,7.455339885714861170e-01,-4.425200409388132528e+01,-7.648633286755257998e+00,2.519052937009095494e+00,5.380383592591290176e-01,-3.423924283907215926e+00,-1.732291968015539041e+01,-2.539440370387396939e+01,-5.864326811033352271e+01,-5.191584767209298690e+01,-2.590981643972664372e+01,-2.696709066473855554e+00,4.735707577050098926e+00,5.390746876132952892e+00,8.318284785409689519e+00,8.899838826649854040e-01,3.478116458291571345e-01,5.757305282319790107e-01,2.579168791132779859e-02,3.977028746010100591e-01,4.615349127001435736e-01,5.710574956019046633e-01,2.714732325086368636e-01,9.689095396897369206e-01,2.567861874479286932e-01,6.726977615498413998e-01,3.447488696726370705e+00,5.199659783834938764e+00,1.426868886518414747e+01,1.238973759793158713e+01,1.158119137163174095e+01,7.313077320049334418e+00,-8.564214677833390965e+01,-1.152848171085160942e+02,-1.229247654848194315e+02,2.980822382022067174e+00,1.254451006743727248e+01,-2.565678523423938486e+02,-1.791750463203165395e+02,-1.134094705101000784e+02,-2.122461137635901025e+02,-1.577804840075387460e+02,6.278638042365194138e+01,-7.630580943672264027e+01,-5.088031225097060428e+01,-1.339742449188493012e+01,1.365967516504271018e+01,1.029456528167152918e+01,3.352965987746859611e+00,6.065761351500003062e-01,8.036256118350959543e-01,4.144332574602321850e-01,6.656652103210596305e-01,1.915202177277673279e+00,-7.910462919196782572e+00,2.824089566525290973e+00,8.367975119963116271e+00,2.074112090604478098e+01,6.958558985634844873e+00,-1.877514729094461359e+02,-3.045644210850226159e+02,-1.646364317848393171e+02,-4.478276593335298372e+01,4.441931150874352596e+01,-1.857860453396751765e+01,-4.281965675318711106e+01,-1.174407610457736126e+02,2.494731054231667500e+01,-7.907991766055867799e+01,3.812828526087204750e+01,1.104548758099134886e+02,5.601396564143459500e+01,-1.017273443050335686e+02,-5.043176808973306180e+01,-6.263648517423486339e+01,2.164185848660308409e+01,6.817041466321938969e+00,2.525564949574589102e-01,3.352113126870714943e-01,8.642911035632221406e-01,5.120700815813200579e-01,1.921566580351952602e+00,-1.707068630914828233e+01,1.378957080600248375e+01,2.505514761677646263e+01,3.585977174637853437e+01,7.802301416546744406e+01,-9.003673034551438548e+01,-2.491903101977222263e+02,-8.094734251232492284e+01,9.670856282198148079e+00,-1.791792447828270696e+01,-2.048732072699860964e+02,-1.513464521556314324e+01,2.549631087304597656e+02,-5.453009789681137676e+01,1.115854704289367589e+02,8.447865282495529016e+01,-1.749538963063685628e+02,-4.442627927999225079e+01,-3.412395127423975083e+01,-4.577169423972971174e+01,-3.698413325165997634e+01,8.940054469852395869e+01,6.306221925577959020e+00,1.407468046386604721e+00,6.884808872823032777e-01,2.500839986893402811e-01,5.197812713130199880e-01,9.244834520812820200e-01,3.760375420665821977e+00,2.497975354958531469e+01,9.129502037077647003e+01,8.450773077956328905e+01,1.419090933439252638e+02,6.034000651518774561e+01,-4.807538086391252108e+01,-1.136368363103695316e+02,-6.424750771525272341e+01,-9.009943913775781255e+01,-1.156647830741646885e+02,2.807751854070005493e+01,-2.128028337029380452e+02,-6.426064706773399848e+01,-2.665709304877486829e+01,-5.009535762632923195e+01,-4.660907769056240824e+01,6.783975226698969152e+01,-1.119624441925976726e+02,6.318600549574290426e+01,7.607851272494941952e+01,6.323225703366254891e+01,1.365362970693311873e+01,3.957310103275794244e+00,2.759851387300285452e+00,6.318347251229168293e-01,8.685729509749240407e-01,9.780593763525776696e-01,-1.029663547212424746e+01,4.063926713690018744e+01,9.904157188796088462e+01,8.147400170701413913e+01,-6.776099749849613829e+00,-5.115959309686126488e+01,2.104458894714186670e+02,2.354729615282224700e+02,5.615449731717045267e+01,5.382592598145296847e+01,4.510335883468748364e+00,-2.746259581327710464e+01,5.329936981983577482e+01,-7.351584316333686786e+01,-2.221617556256990156e+02,-9.625624159777662214e+01,-1.873574963364303017e+02,-1.348686789537544257e+02,-1.788085230931319529e+02,-3.395585318841662570e+02,-1.643551943886204070e+00,-1.434373787462906193e+02,-7.450305087446287189e+01,9.639288769824500003e-01,6.120153194847090639e+00,2.386766959829928147e+00,7.339143556392395684e-01,3.718861656027000251e+00,-3.339053928765403612e+01,-6.228138513308488777e-01,-8.330462628007335013e+01,-9.897114634113792420e+01,-3.150792974012130685e+02,8.339349574878336568e+01,-2.406540572126449717e+01,-1.557287848251919797e+02,-4.155504891469515627e+01,-2.612794231941570899e+00,-4.525919349171613248e+01,-3.517065085603881869e+01,-1.665155848808289818e+02,-1.437320326280626546e+02,-4.487384717751497476e+01,1.362840081865109028e+02,-3.870409937995719929e+01,2.862548440592464090e+02,-1.590478345279730661e+02,-4.922162818168085607e+01,-1.453642610068083911e+02,-1.371479675441144650e+02,1.447875506160251469e+01,2.312289901307390538e-01,4.159512892948882268e-01,9.398020715833885763e-01,1.436032879523704509e+00,2.112632019146932993e+00,-1.026260588544374457e+02,-1.085415573019153186e+02,-1.661076485941286478e+02,-1.255938067629934380e+02,-1.767410213727323764e+02,-5.347099433965939852e+01,-2.816269774968565685e+02,2.714459874440315446e+01,-1.831188062469282158e+02,-1.319401890623190639e+02,5.559378199110459207e+01,-5.130400361998433567e+01,2.428730375015221341e+02,3.754841044738402189e+01,-3.497822326265205106e+02,-1.837601872884259535e+02,1.407600840842958121e+02,1.570929574610037207e+02,-1.861117463435011246e+02,4.287067915774392191e+01,-1.807467510600298510e+02,-1.622811738955717686e+01,3.054851465588076564e+01,7.683235379253409159e-01,3.761995598464019652e-01,3.712005680311279976e-01,2.310892999593270325e+00,5.063609500223349436e+00,-3.554128776776981624e+01,-1.020366500639562162e+02,-1.188020611302987106e+02,-8.147757487606288862e+01,1.195576623025154639e+01,5.844377224655576697e+01,2.565845165763324331e+01,-3.278520637532020601e+02,3.894272163500388473e+01,-1.676865420374790006e+02,-1.380669686447104425e+02,-7.367980246537021571e+01,-2.553388556405462140e+00,-1.727303246042350438e+01,-2.795082688384443941e+02,-1.071265613665043190e+02,1.246668683752970992e+02,3.979354349444197680e+01,-1.115159298571462614e+02,1.487991129808687276e+02,-1.995769543702462272e+02,-1.490472399947961151e+02,5.062194866526363057e+01,3.049786422466332247e+00,1.323869010397566770e+00,9.521139220759877730e-02,-5.194939266790426835e+00,1.127297425838119649e+00,-1.033381544447244060e+01,-8.527883962856897426e+01,-3.139740117569084532e+01,3.744821799207430502e+01,-2.754802420155200338e+01,-2.135250051688424833e+02,-1.478661981204353815e+01,-4.391774625580796396e+02,-1.594743795322573554e+01,-7.946759300395251557e+01,1.733270819413905528e+01,-8.713082720534882242e+01,-3.876374586741922457e+01,3.336756977563681659e+01,1.541271973530591310e+02,-1.140274869587327800e+02,7.432587474716719100e+01,-7.833563209230489122e+01,1.481011478469632152e+02,-4.705352129215268775e+01,-8.360619525391878426e+01,-1.826474279196666828e+02,8.759608237835122679e+01,9.626011148561742559e+00,1.474259097340522962e+00,8.700947759192168007e-01,1.096895141715825472e+00,3.439374011485369476e+00,-8.951524746186676040e+00,-7.042086210329732410e+01,4.643197343462647808e+01,-1.962451754761509193e+01,-2.709652380016121356e+02,-5.384199080096581014e+01,-1.518190253638073557e+02,-1.455752560130617326e+02,-3.753003696786819887e+02,2.263093477079852534e+01,1.354004588249179619e+02,8.111035084117290239e+01,1.524572412891260456e+02,5.659940537561996621e+01,1.485008417387367885e+01,-1.238280305077762620e+02,1.098426828283157306e+02,-6.839815817272166498e+01,1.124611760974146790e+02,-1.633008934149900782e+01,-5.800076166805634870e+01,-2.509776315692761841e+02,8.152872305613031756e+01,6.467760308514983514e+00,2.045970898989730724e+00,5.247740627375915290e-01,2.942178431512894043e+00,-7.905749936571397463e+00,3.350297291755291340e+00,2.064797965033523042e+01,-5.016269467434497642e+01,-2.209172263188441150e+02,-2.683355760366633831e+02,-3.259024634393360031e+01,9.626191481589495780e+00,-3.454105061991342041e+02,-2.231547629941699995e+02,-3.301544188416342962e+01,-7.862653627415237167e+01,-1.333387580800712158e+02,-1.272734113222411310e+02,5.553653597790218299e+01,-4.937276226789053624e+01,-1.379362154373882845e+02,2.380545972928336695e+01,1.869752971951902225e+02,-8.072009753830620582e+01,-1.814313373631921422e+02,-3.339898322992036128e+02,-1.680224250763446321e+02,6.595490372297645365e+01,1.328734664932101017e+00,3.071255104586868567e-01,9.712740590925528217e-03,8.227252848485385739e-01,3.050346195023765916e-01,1.466709728592025819e+01,-4.047215672176417200e+01,1.598622183264488683e+01,-4.937586613228155841e+01,-1.234043962218202068e+02,-1.027768433359231324e+02,2.041053305911954965e+02,2.117650219715624473e+02,-9.156467175317844465e+01,-1.978054553017760142e+01,-5.602607976365963083e+01,-3.024154516797994461e+02,-6.728543255911456811e+01,7.938353637617845493e+01,-2.116540995685037387e+02,6.077762232681565990e+01,-1.532144811331423284e+02,3.713547030690063622e+01,-1.161849528643217155e+02,-2.490146430909591402e+02,-7.721019880427698467e+01,-2.268797288628446154e+02,-1.639554583656392239e+01,2.743458075893807080e-01,3.902560187865474761e-01,5.131168884594060620e-01,2.493657484380106260e-01,-2.535964491127878251e+00,1.738491978412483974e+01,-5.045459361141584509e+01,-2.062100177797395162e+01,3.928334980711721158e+01,-1.357495165894071647e+02,-4.725923517412197583e+01,-5.656742355613572926e+01,1.943472987006939547e+02,3.939618496226860600e+01,-9.444531992121368091e+01,2.825882589052481464e+01,-2.399726363940008866e+02,-7.926174694872899806e+01,-1.388439630291551907e+02,-7.214231973591336278e-01,-1.043966141194895982e+02,2.192751098590039049e+01,-4.090214728982163095e+00,-1.638774103507425934e+02,-3.035977045592893546e+02,-1.057175527630571281e+02,-3.797620438511373919e+01,-4.718347720757877539e+01,7.760496136756642738e-01,2.379522955139633522e-01,9.719043739966808371e-01,1.353756113402258432e+00,-1.048423190291950569e+01,2.277484704709226904e+01,1.530770442201918229e+02,-7.350257748885101705e+01,-7.011039161974049705e+01,4.368943334670124301e+01,-2.692663626883311849e+02,-2.154111577014411978e+02,-3.047786427388733443e+01,-9.770860334307992900e+01,-6.700756485436447463e+01,-1.191429826300701222e+02,-1.049796673647702647e+02,-1.571560956357309102e+01,2.315155732251888310e+02,1.269022238562438218e+02,-3.483096604594991277e+02,1.499095241431587908e+02,-1.251571501298395219e+02,-1.174869426816101203e+01,9.102730124231555919e+01,-4.941092246557698076e+01,1.139870973111382142e+02,-9.919640327081769726e+01,2.841266308110260930e+00,-3.572311400702821160e+00,3.158751625419597975e-01,1.706854328526406395e+00,1.165644987341634575e+00,4.511872351058633512e+01,5.561803019630772127e+01,-2.215927595226349354e+02,-3.269240374694909974e+02,-5.479278846337516029e+01,-2.868257460574565343e+01,-1.754752929369515471e+02,-1.251826230774910300e+02,-2.021736819567813370e+02,-1.034432922723309645e+02,1.542132854531171304e+01,1.146740256108953702e+02,1.257656595067681025e+02,-1.028606060282486112e+02,2.038411190062056164e+02,1.095306341927136771e+02,9.298064818848010304e+01,-2.038662113329557428e+02,-4.424287099313151828e+01,-3.379291731617618098e+02,-1.860571786046755349e+01,4.661869007126780673e+01,-1.001720336352056222e+02,2.974844838914766587e+00,-3.030709301565916292e+01,9.057932805429510514e-01,5.730530832324599588e-01,4.686336827484810508e-01,6.565566907184953038e+01,-1.432463437812899372e+02,-8.182036076517420042e+01,-2.050726253023076708e+02,-4.049724123145838917e+01,7.855193751688725001e+01,-1.906216176294866784e+02,-3.591106371618974435e+02,-1.492532897457955983e+02,-1.578366050128793177e+02,1.573175561189023313e+02,2.096496227205985008e+02,4.506334167788502043e+01,6.601934354989360543e+01,-6.448200555379060006e+01,-2.724950813174484665e+02,-1.855947977946285050e+02,9.372220468672742300e+01,-2.967066084784023516e+01,-1.517474995442088215e+01,-4.901315052773265180e+00,-4.699643275750092641e+01,-3.962053221033067985e+01,4.982954057164495687e+00,2.816506670888942132e+00,3.292049640361782714e-01,3.630605926875042577e+00,2.951704236198778197e+00,7.177436251135401335e+01,-9.062992968035999297e+01,1.109923925981988191e+01,-1.414200613619644287e+02,-1.846267843187424091e+02,-1.767959477559720938e+01,1.623625881741210435e+02,7.656109724975591746e+01,1.721239108343885107e+02,2.874109705175800045e+01,-7.853473292752742907e+01,-1.834739270973913960e+02,-8.103803891178689867e+01,-2.031648674038376043e+02,-2.052117793159395944e+02,-9.584357514329461480e+00,-3.027828896349258159e+01,-6.001077930392297333e+01,7.742748718410813069e+01,8.039558519866473318e+01,-3.467086420478877784e+01,-4.362904251744115669e+01,5.674036140271632611e+00,3.484033529424209963e+00,2.475782741029232348e+00,6.999797404876535456e-01,5.857411308996059773e+00,3.699879387151598920e+00,4.435066276969359933e+01,-1.879465226737440560e+02,1.730095621208588739e+02,2.404310047066697962e+02,1.011808169975080034e+02,-7.854747332309379715e+01,-3.646267129723623768e+00,-2.375362017842816442e+02,-2.472206735989247193e+02,-1.706547927059544278e+01,-1.507496212511047418e+02,-1.532531831093637322e+02,-8.920489268831035190e+01,-2.432038758975991755e+02,-9.344388842837261677e+01,4.930426804431378685e+01,-1.474057525182422808e+02,-1.552084089584981257e+02,-1.404389399925317150e+02,-1.279460500246365129e+01,-4.144866654478934542e+00,-5.730124614668968519e+01,-3.656467724979359346e+00,7.692314875211773817e+00,1.174725621678883281e+00,8.373903298074494295e-01,5.357843407192520724e-01,-4.155898371790331502e+00,-5.474291305851068046e+00,-2.958151900621838237e+01,-2.828643523905955703e+02,9.980398068843183523e+01,1.377819855280611137e+02,6.614320564176495054e+01,-1.300473560048355068e+02,-1.306340169906478366e+02,-1.519264893307376383e+02,-1.217677456240535889e+02,-5.045409058137672531e+01,-1.263988836648575926e+02,7.832497320114657668e+01,2.398015724584624593e+02,-5.718787324550038420e+01,-1.535383700119932655e+02,-4.201120080820980007e+01,-5.443442547624731986e+01,-1.715748864713653177e+02,-1.382529862644616614e+01,3.056021073641016983e+01,2.640318670684579416e+01,8.826956437444406944e+00,1.845230174349992680e+01,-1.553385439719515926e+00,5.073781007821335232e-01,4.881838636664834752e-01,-5.524020176712209462e+00,-3.120303174224870801e+01,7.434954403617450680e+01,-2.742767476890909961e+02,9.924078863911886117e+01,-2.873893090801943799e+02,-1.774761172974359624e+01,-2.392647886370077117e+02,6.332665398104052201e+01,5.206191520412544804e+01,-8.473127335727133413e+01,-2.424478371972939215e+02,-1.575439585845347779e+02,-1.479303945598558130e+02,-1.361404264208398160e+02,5.556363305054625101e+01,-1.087574589043679367e+02,-5.525126830231000241e+01,-6.749891161422780783e+01,-8.585095792984628815e+01,8.356912008397429759e+00,2.600494734188607637e+01,-4.090699797645082625e-01,4.688674937258772601e+00,7.044420989310511416e+00,-2.850874606100552988e+00,1.048829568706620696e-01,1.612674731532732775e-01,1.436537800067599902e-01,3.116140702456878131e+00,5.695894230617531662e+01,2.944681232229545742e+01,1.329764398117834219e+02,-8.494016206851524942e+01,6.460140995778093043e+01,2.735613690415689803e+02,2.355450399772385595e+02,-8.334752019785963739e+01,9.767800050803693068e+01,1.144096693595167835e+02,-3.639957536738726418e+01,1.560743382732285625e+02,1.715529317347158553e+02,-6.121583109189210603e+01,4.400722697308376752e+01,-6.597561536708458618e+01,-6.426675231766458829e+00,2.105359757587098457e+01,1.645364928517649972e+01,7.888670610594976651e+00,-1.925950190842896959e+01,6.285691121149696858e-01,-5.354503511435880547e+00,3.680385822653042815e-02,7.019847075308016660e-02,4.748285620020312736e-01,6.094765599725654459e-01,7.589657900323850681e-01,8.811297576897050732e+00,-5.169239209409485625e+01,-7.420170133158077874e+01,-2.865120173227201050e+01,-1.278636826675047899e+02,-8.851493741641603208e+01,-1.492895529556778058e+02,3.542358688439558279e+01,3.981471651743510876e+01,-8.462890716126995727e+00,4.861888772043062801e+01,1.052304545829065034e+02,-1.157630138640148942e+01,4.164086204911826172e+01,3.844356228400956610e+01,8.101876605008564525e+01,4.314192626220565074e+01,-3.276293310632868661e+00,-3.395429532785071203e+00,1.285716596731325545e+01,4.910507722333491643e+00,3.876299128390802373e+00,9.232805941299563335e-01,9.114255496451375560e-01,8.347620796708898894e-01,8.200814325659702142e-01,1.197986154682129101e-02,1.761379256029838025e-02,2.081994487196119348e-01,1.819608764198841433e+00,4.393617001126444599e+00,-9.945176858486005855e+00,-1.074710711522444768e+02,-1.398438416589231110e+02,-9.399062609841386973e+01,-5.280619081592210762e+01,-7.474860646863523073e+01,-1.935870753389572130e+01,4.258921301121925129e-01,3.229247838962648842e+01,1.123534604351709376e+01,-6.362004079989701744e+00,2.382509610832871161e+00,7.528224802084776401e-01,2.429715462544673743e-01,1.900155955491686921e-01,4.097061606989821358e-01,8.587564604229501741e-01,9.622307205926357021e-01,5.174341606227332857e-01,5.879262991663624094e-01,8.058257256821986791e-01,5.863976599373511567e-01,1.639323423503712407e-01,3.362432064393581221e-01,5.118726565364717374e-01,1.907160798958500436e-01,4.476915417260294294e-01,7.678887599976303990e-01,1.205143949738655129e-01,1.102349005122145176e-01,8.781577561980631330e-01,-5.931974474998655822e+00,-3.279445404100536532e+00,4.145966641470889558e-01,2.692342814708448273e-02,-6.897805886656832586e-02,-1.154284715425463625e+00,-8.389550863791012114e-02,1.736403629479360555e-01,8.849083799472705625e-01,4.682679517890708798e-02,3.797932311027090169e-01,3.414645004699934372e-02,4.630238961080678228e-01,2.509482919179386595e-01,2.907047876346442461e-01,5.529003225445674463e-01,1.211159781626414134e-02,5.583041267286146248e-01,1.454043792296696447e-01,9.868276577334607058e-01,5.203943048374003455e-01,9.675953741007614628e-01,1.926689646691660540e-01,3.148327058663443756e-01,3.125454366474955670e-01,6.557761820567187261e-02,8.316114443310618221e-01,8.587863503989614511e-01,3.677674810487714385e-01,2.801803538817650985e-01,3.237099449856365441e-01,8.996090105870413467e-01,9.003279742334807656e-01,1.204568834266490640e-01,7.099183650261421397e-01,3.582636864428636603e-01,4.455509533478507755e-02,1.503721515235129091e-01,8.192125867094459668e-01,3.765606470001570116e-01,1.431367947721629008e-01,4.489216725974727318e-01,9.331964283119829062e-01,6.828646591733851245e-01,4.633674821986069059e-01,1.734303267598517051e-01
9.289704062971870790e-02,4.448039658420260833e-01,8.031856843378759603e-02,6.873698388608807663e-01,6.290367864378036966e-01,5.583153699050864560e-01,3.176281358442458735e-01,3.187433186665262763e-01,6.066988575152232332e-01,7.773977787229359171e-01,1.542218413575731084e-01,8.848897402559103842e-01,9.599633864789749449e-01,9.605553142852574222e-01,7.865587049049834745e-01,6.632865770185987220e-01,1.142317571012951838e-02,3.301568568895761890e-01,8.781061317164595703e-02,6.165260162527143040e-01,9.372990611864872035e-01,5.026902125436807367e-01,1.718208402810441626e-01,8.408601201033876205e-01,7.671895717465897491e-01,6.379008852664392881e-01,5.601426754926819296e-01,3.797278932686025676e-01,4.121304275490252911e-01,3.787441588129135672e-01,1.459644103867375753e-01,5.290942813227207386e-01,5.506180024223717995e-01,8.791888714888493883e-01,8.136265385523474558e-01,5.334273388948573835e-02,1.824352428454867336e-02,1.538814197858866528e-01,1.818684646267501037e-01,5.830357930799803690e+00,9.658141564087273423e+00,4.104084598694661246e+00,-5.144969372795560325e+00,-4.133046290080645235e+01,-7.125664435171918853e+01,-3.290707119349564636e+01,9.752764810276043361e-01,3.492186308360025748e-01,3.929797715601149877e-01,3.493488583563488792e-01,3.445864384578699591e-01,5.924547285519128348e-01,7.630463439683322635e-01,8.632859785793354224e-01,3.557052273969930622e-01,2.113206245305907505e-01,1.665297225698753047e-01,9.418829466890001889e-01,1.395095290848656910e-01,1.168230226796500570e+00,1.373683688604878217e+00,4.297559205707121022e-01,3.416268312046680133e+00,-5.557084597787357971e+00,-1.293103570459803286e+00,8.365650549006672376e-01,-1.294668211382669476e+01,-1.948527775040147958e+01,-9.036928893104747118e+00,-9.907096677836237575e+01,-1.210696314654433969e+01,-5.252805554256401166e-01,-5.312007712548171279e-01,6.726597555577091825e+00,5.284339894800517357e+00,9.278147889442998064e+00,9.762459008085530021e-01,5.452209979630897596e-01,2.056977653508296200e-01,1.026772233219344077e-01,2.752007492949083423e-01,2.669179458899012536e-01,9.560479314424147335e-01,2.952430306229385515e-01,4.615646010399466759e-01,5.479283904836035335e-01,7.840331703014099540e-01,4.237661032014250040e+00,4.827282092172123562e+00,1.422600116806619752e+01,1.211571253249006475e+01,-3.965675479367689604e+00,2.019872892760948702e+01,2.300352657877654039e+01,-1.367828078023466354e+01,-5.814601032455339436e+01,-1.611091013549012132e+02,-1.410790247817620582e+02,-8.466357173055381224e+01,-1.306102597722175140e+01,-2.207943419263594365e+02,-2.346451664754428350e+02,9.259570491766400835e+01,1.394270136784396925e+02,1.755233232757383632e+01,-1.018395048618396714e+02,7.115310165295228195e+00,-2.383348838893335930e+00,-3.043266581041644869e+01,-7.920830061997625293e+00,4.626329657164423015e-01,2.697917672474596795e-01,8.028888934375522091e-01,9.633461492218118316e-01,2.433757471784988802e+00,6.911741256848175752e+00,7.044578446083311185e+00,1.468272385249092871e+01,-8.539120532006476694e+00,2.334392470075761850e+01,-1.039414033265803639e+01,-8.060927398524867726e+00,-1.327492508355303187e+02,-1.334353828774279123e+02,-4.003379266941418102e+00,9.153216127344010999e+01,8.004228954963279818e+01,-5.797451601034735091e+01,-1.077865153623293821e+02,-1.583738739332010539e+02,1.284918166188860678e+00,-8.204061395213487629e+01,1.814589201728001626e+02,1.349461069165578309e+01,2.649246527520533689e+01,2.344169836219250769e+01,2.366751244033589074e+01,5.747963913833574523e+00,7.220852768655202647e-01,4.083648635876434563e-01,8.953745407613663554e-01,9.484099681192759146e-01,1.261910146792188714e+00,1.360517805653874568e+01,3.442684460002848112e+00,3.057816609374254213e+01,5.684112641510987629e+01,-1.552021713298858963e+01,5.208705710812298406e+01,4.741403115217266162e+01,-1.067654766410679628e+02,8.425425257262138246e+01,-1.068049879454145525e+02,-1.098501968054487463e+02,-1.133921163139527835e+02,8.953940766296615550e+01,1.123021536488753469e+02,2.209187504821088499e-01,3.223050215633966076e+01,-1.794868517733201827e+02,-7.091201623295661705e+01,-1.307037785102142493e+02,-1.074232872482029393e+02,1.693770806656795855e+02,3.613515433521928344e+01,6.358870445304007468e+00,1.425334320888338446e+00,5.516044973474787394e-01,5.698386944985361913e-01,6.189293844350182150e-01,3.997029308083512311e-01,4.606218154737263148e+00,1.930994986659052159e+01,6.662140522450306435e+01,2.745138167975348864e+01,3.133436157981158132e+01,-4.469344098098082085e+00,-1.006104760684922184e+02,6.201294136845515226e+01,7.283790271356676271e+01,-1.176445182848504487e+02,-2.211412462330203255e+01,8.322643079875483352e+01,4.613546119840035153e+00,5.009193013179640985e+01,8.904472152850489408e+01,-1.358944772341468195e+02,8.080840401037454601e-01,2.527922114007101584e+02,8.196091580705331126e+01,-1.182963007332341476e+02,1.450590139506090566e+02,2.618176884546770666e-01,1.213940955407658073e+01,3.311290325758724951e+00,3.074569192608598289e+00,2.571257063493318507e-01,9.379771592256873625e-01,1.395368220569078721e+00,4.304937901544222179e+00,1.265631143759309651e+01,-2.825419783486029246e+01,-1.485587843769440042e+02,-8.917195367428986685e+01,-4.432206885883716296e+01,9.441552460762221699e+01,1.724895084569480375e+01,1.034103085519550262e+02,3.769062967028066424e+01,6.922720976158582573e+01,-4.139245227346732037e+01,-2.454500585730454532e+02,-5.516046591549334188e+00,-1.024357855021909955e+02,-8.758319727543822353e+01,-1.923500404410465592e+02,-4.856438299365247246e+01,3.556129914721478258e+01,-1.354552487991073519e+02,-3.116121329702265186e+01,1.174337081209844058e+01,1.341758330182050152e+01,8.715065209258673340e-01,6.650959938275496697e+00,-1.541303475142646562e+01,3.449798891111266474e-02,4.265406656613124348e+00,1.157867818739988230e-02,4.262425337348959786e+00,-1.298691479110281364e+02,-7.401205474392442696e+00,6.006151033314994692e+01,-8.132837710950303389e+00,1.891205793828940074e+01,-6.244318663307259598e+00,8.308211139018899871e+01,-3.195188961517798276e+01,-1.151718490347828521e+02,-7.732273231426673021e+01,8.460913374925115704e+01,1.089806752008435069e+02,1.513218921347124137e+02,-1.501888402876958253e+02,-1.440257337737544390e+02,-1.458165157660457112e+02,-3.845027924220852356e+01,-1.391301633481639897e+02,-1.919615204952060239e+01,6.052736077516094326e+00,2.488179102039003254e+01,1.358617138760318532e-01,9.989515201454639559e-01,7.964461462304691652e-01,1.084084028538824684e+00,-5.766459411192361717e-01,-1.526484182418280433e+01,-1.435734391058913957e+02,-1.761111232444443147e+02,-5.585947556504896383e+00,-2.539853189989766946e+01,-5.591067543166209930e+01,1.418936145108187930e+02,-2.551980168720722375e+01,-1.337159339083384282e+02,-1.631017082809750889e+02,4.594189078963431427e+01,-1.807104096615492210e+02,-3.689194759714848715e+01,-1.897091411480881717e+01,-5.646342544839033906e+01,-6.284005175725781989e+00,-1.147237898014853954e+02,1.318769984303070828e+02,-1.861227903315027632e+01,-1.688699873792151607e+02,-1.229255897213037088e+02,1.121520722576209295e+01,-1.305655010426164253e+01,7.847770500435781171e-01,4.426744139496143760e-01,9.384384617156810160e-01,2.431446782434635523e+00,-1.004626706253117518e+01,-1.405458638940024230e+01,-4.735924494321230327e+01,-1.250187673627199274e+02,1.501776066850764835e+02,1.003647877771145005e+02,2.193856789145786479e+02,1.803689958352809413e+02,-3.220665115993881500e+02,-2.020523171024030091e+02,-3.734869440902188131e+01,1.227640246472422376e+02,2.955702260294697581e+01,-3.818829832229078534e+02,-7.932818553795672756e+01,-1.090620498506545175e+02,-2.683787079463842815e+02,-2.320460585936394295e+02,1.059354371277973001e+02,1.761050059991534908e+02,-1.127319156420416419e+02,9.120000746750859832e+01,3.170202429030740010e+00,-4.003999882670433408e+01,-7.962479231870318586e+00,-2.624415322871018308e+00,9.010661734267846334e-01,2.423230658011175542e+00,9.060964207453947594e-01,3.890045027366244135e+00,-7.782526394124074898e+01,-4.255300631624158392e+00,1.609487998211094748e+02,-1.093542685345816636e+02,-6.934529566118916932e+01,8.202548584366540751e+01,-1.306043019626918920e+02,-5.876201500156422242e+01,-8.883378663330609015e+01,-2.656870692538635694e+02,-4.555754135801994664e+01,-8.268471464716654395e+01,1.667149196178965198e+01,4.950314998953507484e+01,9.318833322323136770e+01,-1.657940120251295184e+02,1.157714601083744270e+02,1.805968288001742224e+02,-1.159722965396683634e+02,1.730384149995783787e+02,8.481454355875374063e+01,-9.441438002730410517e+01,-7.169265546022805324e+01,-7.266293496882094693e+00,7.723659331807553041e-02,8.132079418952544714e-01,2.097361833498926575e+00,-4.171652843142069855e+00,-1.226587626815925773e+02,-1.115984420117111569e+02,4.007620767259641781e+01,-7.721447418479816349e+01,-1.110263192948841038e+02,2.507421842046842357e+02,-2.337611402173827102e+01,-1.487847520410742419e+01,-2.815254970461768202e+00,-4.535114041767842963e+01,1.060204984971758968e+00,2.571636800723553407e+01,2.554105161978481817e+02,3.676875765464848200e+01,-1.567308134757319227e+00,2.410787589954475152e+01,1.507982925495656161e+02,1.657583793433631936e+00,-2.238199042592062256e+02,-6.604679919328401638e+01,-6.271227257391625898e+01,-7.178326154368345158e+01,-4.812890030956291554e+01,-9.465037357693672604e+00,-1.433417666540713675e+00,3.261130400766495185e+00,6.644158501374404224e+00,8.443229345479970505e+00,-1.011157608838717294e+02,-2.544639899681955697e+01,3.772049664290094695e-01,2.369374961450758210e+00,8.010621125701834444e+01,-2.179401408224509851e+01,9.971452513888867486e+01,3.423470050322781617e+02,6.035635431592178435e+01,-7.419847305846691654e+01,-1.426833423312021409e+01,4.939048973709780910e+01,1.344002200800524349e+02,-1.761750576027307886e+02,-9.033828822722455243e+01,-2.021808493406958291e+02,-1.608967069791363826e+02,1.323757382151295019e+02,-6.587609938414551891e+01,-1.046470271768127702e+02,-2.027479300523013137e+02,-6.667884565635509020e+00,-4.944350473967096704e+00,7.699487935979990594e-01,2.901439392550136942e-01,1.595617795871872024e-01,-4.514279417705685526e-01,4.878959378150216963e+00,-3.940051536217037409e+01,6.592517638426332383e+01,-1.005280138890322945e+02,-2.771056716458353009e+01,-6.492281249578894631e+01,2.835723902977575506e+01,9.820621435669242771e+01,-1.170502291702494944e+02,5.938691658665915440e+01,3.446261619560745970e+01,-1.653488360782715745e+02,-1.162177671088832653e+01,-6.008371559302446485e+01,-1.980136240365943934e+02,1.675191341530270392e+02,5.312010656830677391e+01,3.292748020556189203e+01,2.952858126199432576e+01,-2.066586298701445514e+02,-9.082933263968517679e+01,-2.348077911069009360e+02,-2.572439123646180548e+00,7.841980421769924048e-01,5.190188621933411461e-01,3.722745303784763538e-01,5.334400359621482846e-01,-2.683837674566631470e+00,7.873445923766236199e+00,-4.512345568702691168e+01,-1.592895878117517441e+02,-8.607241440958357259e+01,-1.702447231918584691e+02,-9.516258156619251452e+01,1.025469559571774170e+01,-1.319248966595319530e+02,-1.260095075170703893e+02,-5.333087878137713034e+01,9.641589390711202157e+01,-1.635897519064731398e+01,4.799076689757475123e+01,-1.324210087638462880e+02,-1.319943447472945479e+02,8.108830516389430443e+01,8.825419100940831640e+01,6.446213229359567265e+01,-4.991197905324177952e+01,-1.010496267911215540e+02,6.008527176932689429e+01,-8.444879756402431781e+01,-3.785870657415782148e+01,7.767215905708871881e-01,6.225651648063427190e-01,9.454077593622270959e-01,6.360377985576305404e-01,-5.889377097277699313e-01,1.437219152649717913e+01,1.119060969816550113e+02,-1.068946246522784520e+02,8.470774420255607140e+01,-8.709216446031135206e+01,-5.372875648289495842e+01,-8.711664581699578491e+01,-2.203340507428242177e+02,2.551591909444766770e+02,1.232786304627853582e+02,3.816714393299488961e+01,3.369735387433181018e+01,-1.635398122540347643e+01,-1.052781643429541703e+02,-1.834116406338754928e+02,-9.938093649588198275e+01,4.737627940064108856e+01,2.998046750129481097e+02,-5.255150642753280366e+00,2.371889172734299223e+01,1.890781684785076777e+02,1.365092067998318015e+01,-9.179685291486515553e+01,2.701407627536435818e+00,6.031074597248580194e-01,8.837952099332445632e-01,2.467151475560135143e+00,1.052742707199873839e+00,3.350286139628391879e+01,-1.701066126766226034e+02,-6.368117776403124708e+00,-2.459601301752410407e+01,-6.283134749651652129e+01,-1.855569080526832124e+02,8.737148827105997162e-01,1.706467643668641188e+02,1.551185526119808458e+02,3.845554679818475563e+01,2.179176449589409970e+01,1.799862422497940884e+01,-4.916246562561410371e+01,-2.285990253463587862e+02,4.899930212044785804e+01,1.045099644777953642e+02,-1.715218636296626755e+02,2.016684132312244913e+02,1.031839226572076385e+01,-4.096868487738704268e+00,-7.508988394773876962e+01,9.023509389834582350e+01,-7.079481845409772234e+01,3.303952359312361864e+00,4.468363987736085008e+00,7.683868493567028723e-01,1.278324952191142838e+00,1.850121511724957535e-01,-1.785274757621463593e+01,-3.483437535655498891e+02,3.040269232248972386e+01,-4.993227587652143917e+00,6.693824122763604123e+01,-2.622363209474993369e+02,-5.000696055491251002e+01,-8.406008940121442663e+01,1.093011443388529500e+02,4.861838303984011844e+01,-7.008401189605501713e+01,-4.520728677027886278e+01,-1.275485021299254811e+02,-7.523067136193486704e+01,-8.211314796324406018e+01,-1.711154927549139018e+02,6.867626646945539903e+01,2.335589673716257550e+02,-2.361079102153673261e+02,1.491979731392001440e+02,4.753124161827726368e+01,3.311194304069096717e+01,-3.778462675820819783e+01,4.711743907280084187e+00,3.449306967591577511e+00,6.056365544801877165e-01,-1.022491269428653382e+01,-1.099911821499938469e+01,-2.011754484748324856e+01,-1.188083437468143870e+02,-6.063737004397290775e+01,-8.887461931510549107e+01,-2.429487790859864447e+02,5.030356697696763746e+01,-1.340574960918623617e+02,-1.192554659235188552e+02,-6.211281147496183763e+00,-1.403916349500444483e+02,-2.400090802885448582e+01,1.046006418422176409e+01,-1.247412341560706039e+02,4.773004608292876583e+01,1.047306198790895735e+02,-1.701679233454916584e+02,1.092799194949239592e+02,-1.215313870670156859e+02,-1.232244195482064271e+02,2.230204136522073668e+02,8.449982192906081480e+01,-9.117310711860417882e+01,1.815994207142686179e+01,2.906367614911526509e+00,2.537078451816536795e+00,2.100850654522887773e-01,-2.963913283930569165e+01,-2.021106294405805315e+01,-1.111721580922851587e+02,-4.714918676487896221e+01,-1.869828019506238945e+02,1.138634506359506418e+02,-6.261455565555557001e+01,-6.751714293816091583e+01,-1.557737483042434974e+02,-6.989990465487908011e+01,-8.330818348927708428e+01,2.179601654495773388e+01,-1.702416713577269718e+02,-2.453630733560971180e+02,-3.439814541404549004e+02,5.495379244074342040e+01,-6.793769324944281607e+01,-5.673968637930606462e+01,1.345635564332653189e+02,-4.428786475627887143e+01,7.670577503770337557e+01,1.029641286419391832e+02,-4.051675782409336080e+01,-6.616489920775380540e+01,-1.066572995612076191e+01,-3.753751505940428501e+01,1.616388866488760234e+00,-5.669577739651647796e-01,8.756308848932997657e-02,-3.652548887451632975e+00,-1.589280325709086696e+02,1.553411604937994070e+02,4.933050902341396693e+01,-2.058937328793645065e+02,-1.214488325313209032e+02,-1.908542729967689979e+02,-5.658284559507927725e+01,1.437760586933948730e+02,-1.768970938753828364e+02,-2.397956968376292153e+01,7.788625084934162146e+01,1.232642005775498291e+02,2.300830389711055659e+02,-3.055312023319230263e+01,-9.835280573522354075e+01,-2.128011912957763840e+01,-2.090583224422721642e+01,1.583687512553346721e+02,1.162962129590308393e+02,-9.048015487933407996e+01,7.484949772560547387e+00,1.920818659496885772e+01,-2.706649354793064433e+01,-6.023860658205190077e+01,1.488089206989648527e+00,-7.364941388238098741e-01,2.987662432894184761e-01,1.829331940401483836e+00,-1.377351440398213356e+02,-1.642575637092871261e+02,-3.775960967328677498e+01,-7.427918671295918784e+01,-8.084210563062758581e+01,-3.372625662617775077e+01,-1.871967116487107319e+02,2.037942620441918962e+01,9.919570079117018224e+01,1.670976619617762893e+01,1.750120570375292672e+01,-4.009609054830961128e+01,-2.529172606668560377e+02,-9.337475747507473045e+01,-1.261577586102515909e+02,1.885552251858929651e+02,-1.801446025767210557e+01,1.179660555952917207e+02,-5.528486650209427644e-01,-9.925448540228839533e+01,3.375073295501577064e+01,2.550512581564960968e+01,-1.148727357429702778e+01,-3.554593180983599865e+01,3.236718350736192296e+00,2.846539391032134603e-01,6.916226934397051718e-01,7.025199246984031864e-01,2.772267612872566289e+00,3.243926271869651856e+01,-2.672857173883010162e+01,8.171994467755045832e+01,-1.355702674845214233e+02,-1.905886886029812999e+01,-9.384750033875054953e+01,1.013947626561076873e+02,7.914353311416253423e-01,-1.942404668115867317e+00,1.402659772634467394e+01,-1.446692884351687098e+02,-2.931272653333448108e+00,-2.474710157652343767e+01,-3.890318369272473120e+01,-3.853920131552509787e+01,-4.895388293271746072e+00,7.131732520029563815e+00,-5.461599320274742553e+01,5.647679399523685362e+00,2.569293204003467679e+01,2.076271767265563994e+01,7.001816923333457510e+00,4.025797671044740511e+00,8.147120163543863924e-02,8.814979546387146092e-01,7.659604540185985799e-01,2.300692196920562926e-01,1.781290869769091012e-01,9.091463756740019164e-01,2.555999765924878631e+01,1.415964205167563605e+00,-8.080105353483253339e+01,7.545482011831350633e+01,-2.627634303904666169e+01,-4.079183855647753632e+01,-3.001150276414273321e+01,4.702246147694153677e+01,-2.389738244684243185e+01,4.962209829105879066e+01,8.882314478182895812e+01,2.608669451826926178e+01,-6.461403579732439084e+01,-1.957788214246483847e+02,-1.765119926087525357e+02,-6.018552529156491460e+01,-3.572378729508641015e+01,1.129331426147986406e+01,1.320077971010933382e+01,4.838599057935923042e+00,4.548550432171412083e+00,7.653753363357702622e-01,9.830472727727244120e-01,2.713949252189029604e-02,8.719525260766300967e-01,2.254211428381378557e-01,4.551987235733040427e-01,4.554057020970336822e-03,1.290529364561860293e+00,-5.167916778633191655e+00,-7.367472750047537033e+01,-7.089920068559258937e+01,-3.441072893931594479e+01,-4.972993631116231938e+01,-1.744784218790250634e+02,-7.723173233019335271e+01,-3.197494951838390520e+01,-3.576963316726086362e+01,-3.631712455366492520e+01,-4.666468393814322724e+01,-5.498341755723312474e+01,-1.237445331584571129e+01,5.990186719321357600e-01,2.739249357317894429e-01,8.136005949717545205e-01,7.337666755914385996e-01,8.041345703963657110e-01,1.517915100035158726e-01,5.228565573764525354e-01,4.843288350028018829e-02,2.169173375664290582e-02,5.216560647118608784e-01,9.708788127784050426e-01,4.109726984839529029e-01,4.504637530491002462e-01,8.900254013987274337e-02,8.613392083139682631e-01,7.248608547520802858e-01,1.427951187036871072e-01,1.379268080302983313e-01,8.929915322439018199e-01,-5.354834099681316850e+00,-3.393612085234492870e+00,3.820333187034686828e-01,8.464188836217139134e-01,9.366369152682072485e-01,2.482937638848368600e+00,1.436945339153921086e+00,8.611201328012519918e-01,6.980421749919376584e-01,4.060721993436604560e-01,6.351409451400535922e-01,6.770394511694560746e-01,3.551749133675903281e-01,3.840633569907198064e-01,4.097596367844064114e-01,4.495985030624859435e-01,7.969867441672111585e-01,8.339356271340768734e-01,4.099967857757400580e-01,3.516805884101340540e-01,3.995583197862451197e-02,1.858946580529875492e-01,5.420616221433943727e-01,2.220062244461254997e-01,6.696787759614790669e-01,6.911902406400992627e-01,6.287339761399647342e-01,6.825695247754417494e-01,8.820144758479611102e-01,6.241077038617701689e-01,3.437629349804934842e-01,3.044170894559854457e-01,9.582653481393507144e-01,8.099048689552155178e-01,1.323837418719571168e-01,9.324641242083280268e-01,4.241870168619580328e-01,3.017277856834421623e-01,3.047332802852065203e-01,4.039667471408479038e-01,4.418350997192753704e-01,6.234544990964260291e-01,1.809972530039826166e-01,3.737322567095370252e-01,8.575214463383147301e-01,9.135855145136043687e-01
